{"version": 1, "obs_dim": 45, "act_dim": 10, "hidden": 128, "layers": [{"name": "hidden_0", "weight": [[0.09138862043619156, -0.017006227746605873, 0.009913389571011066, -0.14575977623462677, -0.06691858917474747, -0.4633646607398987, -0.04380122944712639, -0.055666688829660416, 0.03270133212208748, -0.009575510397553444, -0.09466411918401718, -0.14363302290439606, 0.027796735987067223, 0.07679041475057602, 0.014938050881028175, -0.0009762421250343323, -0.05307145416736603, 0.04796578735113144, -0.04098432511091232, 0.07075218111276627, -0.07593732327222824, -0.0025087299291044474, 0.44168099761009216, 0.41117578744888306, -0.016919350251555443, 0.07395683228969574, -0.02698417939245701, 0.08722294121980667, -0.0253631342202425, 0.06187108904123306, 0.042256105691194534, 0.09979985654354095, 0.013544008135795593, -0.08819522708654404, 0.04444729909300804, -0.11359777301549911, -0.15935388207435608, -0.16292217373847961, 0.10253842175006866, -0.0014763808576390147, 0.030239827930927277, 0.006788081489503384, 0.08657509833574295, 0.03747250512242317, -0.06575289368629456], [0.03853074088692665, -0.09148210287094116, 0.15939559042453766, -0.19678759574890137, 0.1295824944972992, -0.3236684501171112, 0.06871948391199112, -0.023794179782271385, -0.019139127805829048, 0.022153954952955246, 0.05014168843626976, -0.08210364729166031, -0.07667455077171326, -0.038615480065345764, -0.06898302584886551, 0.08173191547393799, -0.08314019441604614, 0.016860561445355415, -0.02164236269891262, -0.013809505850076675, 0.003229741472750902, -0.0858413428068161, 0.5573009848594666, 0.3293195068836212, -0.048164207488298416, 0.09113656729459763, -0.07083442807197571, 0.05282604694366455, -0.004242091905325651, -0.0996868684887886, 0.0627131462097168, 0.09033294767141342, -0.09625282138586044, -0.06788225471973419, -0.04576750844717026, -0.04354949668049812, -0.019519802182912827, -0.15231582522392273, 0.03404378890991211, 0.04861031100153923, -0.010254479013383389, 0.04224562644958496, 0.07619742304086685, 0.06685939431190491, -0.06044122949242592], [-0.11520526558160782, 0.08488453179597855, -0.0008307655807584524, 0.10142575949430466, 0.0071595278568565845, 0.1365751177072525, 0.027691708877682686, 0.06550046056509018, 0.017648614943027496, 0.12245362997055054, 0.055773403495550156, 0.14589838683605194, -0.015073368325829506, -0.006677341181784868, -0.1042870581150055, 0.012535719200968742, 0.02448844350874424, 0.02424239180982113, 0.042526233941316605, -0.10089163482189178, -0.018051419407129288, -0.02873157151043415, -0.9682344794273376, -0.07573693245649338, -0.07928235828876495, -0.05909309536218643, -0.1194307953119278, -0.06677023321390152, 0.024711547419428825, 0.12182450294494629, -0.11133746057748795, -0.04277845844626427, 0.11754729598760605, 0.01911713182926178, -0.18386593461036682, -0.025559816509485245, 0.0644189789891243, 0.11422121524810791, -0.11062946915626526, -0.020237846300005913, 0.11687564849853516, 0.02851889841258526, -0.07328099757432938, 0.09225796163082123, 0.04871382191777229], [0.06455648690462112, -0.10582391172647476, -0.26024091243743896, -0.045195188373327255, -0.29287874698638916, 0.04773607477545738, -0.014986892230808735, 0.06645911186933517, 0.0509234182536602, -0.11482164263725281, -0.06283820420503616, 0.04227619990706444, -0.03500758484005928, -0.07135375589132309, -0.08163565397262573, 0.03966986760497093, 0.028815841302275658, 0.02065400406718254, 0.003724311012774706, 0.08397605270147324, -0.16999082267284393, -0.10167955607175827, -0.1575942039489746, 0.05292161926627159, 0.07952538877725601, -0.29701945185661316, 0.04485093057155609, 0.2841322422027588, -0.022236337885260582, -0.051327962428331375, -0.06949546933174133, 0.15967485308647156, -0.04193143546581268, -0.08702757209539413, 0.0815715342760086, 0.048889294266700745, 0.025046056136488914, 0.07998276501893997, 0.04265956953167915, 0.03298696130514145, 0.005795684177428484, 0.01251739077270031, 0.06663209944963455, -0.03776540607213974, -0.06870304048061371], [-0.15904705226421356, 0.07832179218530655, -0.1178315281867981, 0.04836210235953331, 0.04372964799404144, -0.18344546854496002, -0.1990889608860016, -0.005954898428171873, -0.04995904490351677, 0.11273409426212311, 0.03694126382470131, -0.011463101953268051, -0.26140958070755005, -0.04661143943667412, -0.05621834844350815, 0.038489628583192825, 0.024378618225455284, -0.029468057677149773, -0.05409504845738411, -0.05772191286087036, 0.03770149126648903, 0.08771731704473495, -0.36649662256240845, 0.2110009640455246, 0.11945886164903641, 0.043021310120821, 0.012654462829232216, -0.09159722924232483, 0.05282711237668991, 0.10658671706914902, 0.04268130660057068, -0.14486925303936005, 0.18451160192489624, 0.15578384697437286, 0.012229728512465954, -0.021471144631505013, -0.007519140373915434, -0.024226374924182892, -0.057613909244537354, -0.0008183594327419996, 0.11279067397117615, 0.15280687808990479, -0.061911825090646744, 0.03953109309077263, 0.18428346514701843], [-0.0681009441614151, -0.024730313569307327, 0.11650591343641281, -0.21424022316932678, 0.1874259114265442, -0.24411903321743011, 0.0509025938808918, 0.08267617225646973, -0.1326463669538498, -0.005949896760284901, 0.05199822410941124, -0.06522545218467712, 0.0026130450423806906, -0.04572924226522446, 0.04553235322237015, 0.010017422959208488, -0.13332383334636688, -0.07950989156961441, -0.04098144918680191, -0.06839470565319061, -0.01311246957629919, -0.057236362248659134, 0.36006978154182434, 0.3195613622665405, -0.10344678163528442, -0.012892787344753742, -0.182285338640213, -0.04159640893340111, -0.0655345767736435, -0.08290502429008484, 0.060886479914188385, 0.0224425308406353, 0.03607480973005295, -0.035435717552900314, 0.059472497552633286, -0.06571860611438751, -0.13355988264083862, -0.026558103039860725, 0.11739705502986908, -0.10010365396738052, -0.03601429611444473, 0.03363046795129776, 0.03421863541007042, -0.05911644548177719, -0.07249503582715988], [0.015930673107504845, -0.11736294627189636, 0.07030696421861649, -0.07744184136390686, 0.08545376360416412, -0.06852520257234573, 0.059112437069416046, -0.13092999160289764, 0.014351087622344494, -0.048405520617961884, -0.06566557288169861, -0.19540487229824066, 0.2219836711883545, -0.008151743561029434, 0.07087485492229462, -0.05074666440486908, -0.1058436781167984, -0.05146462097764015, 0.09693755209445953, 0.11731305718421936, 0.021112987771630287, -0.059107664972543716, 0.7367461323738098, 0.12976142764091492, -0.014076007530093193, 0.08414279669523239, -0.1146354153752327, 0.010618838481605053, -0.019669905304908752, -0.11976730823516846, 0.06382932513952255, 0.028645168989896774, -0.06571711599826813, -0.05842647701501846, -0.024765780195593834, 0.00026439822977408767, 0.022629274055361748, -0.0662253201007843, 0.050657812505960464, -0.035913050174713135, -0.009574038907885551, -0.0491974875330925, 0.12535512447357178, 0.007605948485434055, -0.021992405876517296], [0.2867441177368164, 0.09491539001464844, -0.2165486365556717, -0.06206333264708519, -0.21439987421035767, -0.40852874517440796, -0.14662903547286987, 0.0732702761888504, 0.0302580539137125, -0.029052717611193657, -0.018985236063599586, 0.015346749685704708, 0.06270049512386322, -0.04245380312204361, -0.008282110095024109, -0.030114565044641495, -0.02461286634206772, 0.046038154512643814, 0.009222235530614853, 0.26041847467422485, -0.03585623577237129, 0.060001980513334274, 0.11470336467027664, 0.46177494525909424, 0.02720937319099903, -0.048674099147319794, 0.002847945550456643, 0.08589152991771698, 0.08177970349788666, 0.03160370886325836, -0.08391891419887543, 0.007483471184968948, -0.035164788365364075, -0.07063909620046616, -0.049266573041677475, 0.08807029575109482, -0.06638883799314499, 0.024248961359262466, -0.08285245299339294, 0.02990509197115898, 0.04303142800927162, -0.11528465151786804, -0.047821059823036194, 0.05556784197688103, 0.1267782598733902], [-0.06742190569639206, -0.05256776884198189, -0.020664524286985397, 0.22293631732463837, -0.018902640789747238, 0.4724835753440857, 0.05371265113353729, -0.07357332855463028, -0.03299614414572716, 0.013359391130506992, -0.07604017108678818, 0.0793321505188942, -0.0070739127695560455, 0.05217336490750313, 0.03701149299740791, 0.07985854893922806, -0.005131636746227741, -0.051343269646167755, -0.0685429647564888, -0.07342945784330368, 0.03869079425930977, -0.06194821745157242, -0.28378573060035706, -0.4455622434616089, 0.1470305174589157, -0.019749481230974197, 0.04717566817998886, 0.06142224743962288, -0.012163006700575352, -0.011566122993826866, -0.0432741679251194, -0.05502801015973091, 0.009236358106136322, 0.02758864127099514, 0.09296131134033203, -0.08246035128831863, -0.0314723439514637, -0.0679219663143158, 0.03676093742251396, -0.0497741773724556, -0.08795543015003204, -0.004243825096637011, 0.048302218317985535, 0.03054562211036682, -0.0622587651014328], [-0.012019573710858822, 0.0332474410533905, 0.06573179364204407, 0.22596585750579834, 0.041326459497213364, 0.3250328302383423, 0.05799851194024086, -0.0583050511777401, 0.04103333503007889, -0.04191450774669647, -0.04535098373889923, -0.12538281083106995, -0.24323046207427979, -0.06673504412174225, 0.061862245202064514, 0.022273626178503036, 0.057237714529037476, -0.07796783000230789, -0.0994822084903717, 0.02678118832409382, 0.04877922311425209, 0.047987326979637146, -0.05934274569153786, -0.29575496912002563, 0.10944361984729767, 0.03682240843772888, 0.07280237972736359, 0.06464231014251709, 0.021928083151578903, 0.02319229766726494, 0.0602099634706974, 0.05224141106009483, -0.013589777983725071, 0.037224866449832916, 0.08684439212083817, -0.010482318699359894, 0.052589330822229385, 0.037102364003658295, -0.009804247878491879, -0.033112138509750366, 0.08181774616241455, -0.032701510936021805, 0.03338094428181648, -0.01111389510333538, -0.04153836891055107], [0.0689002051949501, -0.2207210808992386, 0.11307210475206375, -0.0809079185128212, 0.03671077638864517, 0.2656627595424652, 0.09121768176555634, -0.10360631346702576, -0.015946784988045692, 0.051944442093372345, -0.06741487234830856, -0.040175724774599075, 0.1355362981557846, 0.051096703857183456, -0.051228173077106476, 0.05561753362417221, 0.0021852548234164715, 0.02283537946641445, -0.02782946452498436, -0.01246269978582859, -0.03577307611703873, -0.17399610579013824, 0.6419388055801392, -0.26951083540916443, -0.11836690455675125, 0.06569667905569077, -0.1323065459728241, 0.07266905903816223, 0.04980746656656265, -0.17303983867168427, 0.10869679600000381, 0.09023606777191162, -0.12435479462146759, -0.07584121823310852, 0.14221222698688507, 0.011982118710875511, -0.0783204510807991, -0.16636261343955994, 0.11093752831220627, 0.003798991208896041, -0.012475023977458477, -0.04693180322647095, 0.045098889619112015, 0.03223009034991264, -0.13791388273239136], [-0.04365823417901993, 0.020132726058363914, -0.030145635828375816, 0.07545661181211472, -0.11419756710529327, 0.3005700409412384, 0.024337831884622574, -0.15090741217136383, 0.02388067916035652, 0.01028867531567812, -0.012300931848585606, 0.07187050580978394, 0.18155556917190552, 0.06396545469760895, 0.042346399277448654, 0.020414672791957855, 0.09392135590314865, 0.07396416366100311, -0.025267470628023148, -0.04495750367641449, 0.06437496840953827, -0.05102452263236046, -0.18205176293849945, -0.2919699251651764, -0.017901955172419548, 0.006521068047732115, 0.11236342787742615, 0.06346314400434494, 0.010247932747006416, 0.001580170588567853, -0.14285309612751007, 0.16669288277626038, -0.0037269399035722017, 0.09929616749286652, -0.17850106954574585, 0.03657990321516991, 0.16955119371414185, -0.11642531305551529, -0.009223523549735546, 0.007534482050687075, 0.057567376643419266, -0.13981586694717407, 0.06147630885243416, 0.026330729946494102, -0.042779356241226196], [-0.0975598469376564, -0.07465022057294846, 0.09949981421232224, 0.014181812293827534, 0.2527574896812439, 0.4022715091705322, 0.1274227797985077, -0.0203922800719738, -0.018031112849712372, 0.021228553727269173, 0.034050654619932175, -0.16145309805870056, -0.2212531566619873, -0.11615654826164246, 0.05887392535805702, 0.014600362628698349, 0.07978586107492447, 0.0223421361297369, -0.08700279891490936, -0.073509581387043, -0.012866047210991383, -0.12767596542835236, 0.22356779873371124, -0.25908684730529785, 0.08132939785718918, -0.04999251291155815, -0.08315522968769073, -0.013685603626072407, 0.12724699079990387, -0.10294578224420547, 0.11557749658823013, -0.010198461823165417, -0.06407984346151352, -0.04657550901174545, 0.07883889228105545, -0.10867125540971756, 0.063322514295578, -0.12725433707237244, -0.023443877696990967, -0.012305927462875843, -0.06338083744049072, 0.009025457315146923, 0.02685738541185856, 0.01668044924736023, -0.11476819962263107], [-0.030711311846971512, -0.017779618501663208, 0.11247643083333969, -0.04548211768269539, 0.2125067263841629, -0.15369804203510284, 0.1283385008573532, -0.034009285271167755, -0.01237844955176115, 0.029759416356682777, 0.019165320321917534, -0.08867897838354111, -0.01012803241610527, 0.05497310683131218, 0.06252646446228027, 0.022170329466462135, 0.026594342663884163, -0.062433503568172455, 0.06695234775543213, -0.035809822380542755, 0.05006128177046776, 0.011284242384135723, 0.49889829754829407, 0.0710475891828537, -0.058385346084833145, 0.23503004014492035, -0.04035518318414688, -0.12559634447097778, -0.12055309861898422, 0.041501305997371674, 0.09135062247514725, -0.13059058785438538, -0.1253962367773056, -0.08001399785280228, -0.054275818169116974, 0.026502219960093498, 0.00014650179946329445, -0.07339812815189362, 0.05614025145769119, 0.0937231108546257, 0.005763383116573095, -0.012034677900373936, 0.049663372337818146, 0.02017173171043396, -0.04622261971235275], [-0.09241828322410583, 0.00441883085295558, -0.03883535414934158, 0.15147508680820465, -0.055184539407491684, 0.12563130259513855, 0.00560950068756938, -0.02444862760603428, 0.04362780600786209, -0.008681009523570538, -0.06714486330747604, -0.1168755292892456, -0.35351642966270447, 0.01035727933049202, 0.030474409461021423, 0.0037865140475332737, -0.006727440282702446, 0.02862013876438141, -0.06770626455545425, -0.11122873425483704, -0.03195476904511452, 0.06648039072751999, -0.3703848123550415, -0.23964013159275055, 0.1640128493309021, -0.05419670045375824, 0.036518968641757965, 0.13899801671504974, 0.13401071727275848, 0.0025262010749429464, -0.007881932891905308, 0.04930068179965019, -0.00528681417927146, 0.14772512018680573, 0.07844278216362, 0.05536544695496559, 0.00525650754570961, -0.011855876073241234, 0.004290018230676651, -0.053457099944353104, -0.005962030496448278, -0.021110763773322105, 0.04210067540407181, -0.06336016207933426, -0.0003343270509503782], [0.12421905994415283, 0.09542295336723328, -0.06692096590995789, -0.08285641670227051, -0.138802632689476, -0.4157949388027191, -0.10460875183343887, 0.19064559042453766, -0.0023126269225031137, 0.013955741189420223, -0.008720876649022102, 0.021330540999770164, 0.12371231615543365, 0.018568770959973335, 0.058720335364341736, -0.016897650435566902, 0.05011502280831337, -0.02862859144806862, 0.09069063514471054, -0.05214124917984009, -0.023039741441607475, 0.10333560407161713, -0.29255807399749756, 0.3632143437862396, -0.09956131130456924, 0.01160636730492115, 0.00524767953902483, -0.004215809050947428, 0.012929575517773628, 0.11088511347770691, -0.02074761688709259, -0.023630449548363686, 0.0871129035949707, -0.044550821185112, -0.08565928786993027, 0.05012787505984306, -0.004429069813340902, 0.1271025836467743, -0.10529837757349014, 0.01526216696947813, 0.045552000403404236, 0.06553587317466736, -0.07348159700632095, -0.046721238642930984, 0.17063483595848083], [0.1292283535003662, -0.1993832141160965, 0.021163474768400192, -0.1643202155828476, -0.02998657524585724, -0.16863051056861877, 0.05923771485686302, -0.027496177703142166, -0.060418736189603806, -0.019526977092027664, -0.03631734475493431, 0.044131629168987274, 0.1507323533296585, -0.01881369948387146, 0.034747444093227386, 0.06441505998373032, -0.017955925315618515, 0.05684581398963928, 0.011932557448744774, 0.1265174150466919, 0.016935016959905624, -0.08926621824502945, 0.8394672274589539, 0.16446661949157715, -0.12715809047222137, 0.06928445398807526, -0.0731596127152443, 0.0611383430659771, 0.07955880463123322, -0.14148198068141937, -0.07607725262641907, 0.027201393619179726, -0.03770606219768524, -0.05465780198574066, 0.021846570074558258, -0.05654743313789368, 0.05588335543870926, -0.03806420788168907, 0.015614653006196022, 0.09849680215120316, -0.07699234038591385, -0.013169667683541775, -0.01933435909450054, 0.01980714686214924, -0.13380470871925354], [-0.018782250583171844, -0.03246406838297844, -0.06775736063718796, 0.10928637534379959, 0.07846115529537201, 0.4356372058391571, -0.09388663619756699, 0.033409234136343, -0.030563633888959885, -0.0017529220785945654, 0.04791459068655968, 0.17690877616405487, 0.007401495240628719, -0.014284886419773102, -0.007215352263301611, -0.04266294836997986, 0.11264900118112564, 0.0809573233127594, -0.06245129182934761, -0.06755371391773224, 0.010032723657786846, 0.10019758343696594, -0.607592761516571, -0.31640204787254333, 0.08388427644968033, -0.046282004565000534, 0.05176951363682747, -0.00865194108337164, 0.07308395951986313, 0.010337336920201778, 0.022786997258663177, -0.056952450424432755, 0.12330857664346695, 0.025495463982224464, 0.049461137503385544, 0.0407111756503582, 0.05840810015797615, 0.020013118162751198, -0.014927938580513, 0.05248914286494255, 0.055977243930101395, 0.0349448025226593, -0.0623839795589447, -0.010833547450602055, 0.12033674120903015], [0.04660746455192566, -0.17151381075382233, 0.12914671003818512, -0.1741517186164856, 0.05058523267507553, -0.11977264285087585, 0.07266734540462494, -0.03290485590696335, 0.002030598931014538, -0.07092580199241638, -0.01571641117334366, 0.036131780594587326, 0.19621458649635315, 0.04674889147281647, 0.12055433541536331, 0.008571437560021877, 0.01584409922361374, -0.05723350867629051, 0.017938578501343727, -0.030470706522464752, -0.04663528501987457, -0.1038273423910141, 0.8267472982406616, 0.10062232613563538, -0.16649146378040314, 0.028998779132962227, -0.0069574955850839615, 0.11866945028305054, -0.1350376307964325, -0.12039553374052048, 0.03629918769001961, 0.037230681627988815, -0.12334303557872772, -0.009255054406821728, 0.05946523696184158, -0.019423669204115868, -0.003346857847645879, -0.034991469234228134, 0.13978366553783417, 0.06585412472486496, 0.003785468637943268, -0.04863160476088524, 0.06252934783697128, -0.0575445294380188, -0.08168204128742218], [-0.07914112508296967, 0.08153382688760757, -0.0075149633921682835, -0.027264559641480446, 0.0478474460542202, -0.09736352413892746, -0.013798401691019535, 0.07863999903202057, -0.0686882883310318, 0.03492223098874092, 0.046307727694511414, -0.05196933448314667, -0.3485487699508667, -0.14105401933193207, -0.04351372271776199, -0.008120366372168064, 0.015817446634173393, -0.030856216326355934, 0.0019881094340234995, -0.059233833104372025, 0.12550944089889526, 0.08684789389371872, -0.32026585936546326, 0.08848809450864792, 0.06831793487071991, -0.06887689977884293, 0.0030660461634397507, -0.10573329031467438, 0.003610593266785145, 0.07718854397535324, -0.07136047631502151, -0.03248235210776329, 0.14568360149860382, -0.011932111345231533, -0.007080387324094772, 0.03514167293906212, 0.0508352667093277, -0.0483606792986393, -0.14201487600803375, -0.06985896825790405, 0.10199832916259766, 0.11952868849039078, -0.12640133500099182, 0.04972921311855316, 0.08798635751008987], [0.0659824013710022, 0.04397890344262123, -0.2021181285381317, -0.04801904037594795, -0.2194550484418869, -0.3316005766391754, -0.12653829157352448, 0.10362210869789124, -0.04079722240567207, -0.030927017331123352, -0.0017206515185534954, -0.24810479581356049, -0.15567190945148468, -0.09765920042991638, -0.08018779009580612, -0.16464807093143463, -0.06655830144882202, -0.03789611905813217, -0.10845889896154404, -0.03356270119547844, 0.08840738981962204, 0.10968392342329025, -0.09479198604822159, 0.3491729199886322, 0.09060884267091751, -0.08876365423202515, -0.01570775732398033, -0.006263737566769123, 0.016250094398856163, 0.1861206740140915, 0.15983846783638, -0.06710159778594971, 0.086422398686409, 0.06244191899895668, -0.021797312423586845, -0.06846199929714203, -0.1370895802974701, -0.09227988123893738, 0.048414360731840134, 0.02010961063206196, 0.04510173946619034, 0.1297706812620163, -0.08259691298007965, -0.0850447490811348, 0.12116560339927673], [-0.04357454553246498, -0.023580500856041908, -0.0501752570271492, 0.07768552005290985, -0.16553664207458496, 0.10513553768396378, -0.018642226234078407, 0.23981156945228577, 0.062062136828899384, 0.06277784705162048, 0.1865028589963913, 0.16542395949363708, 0.1340429037809372, 0.012289658188819885, -0.009522532112896442, -0.09234321117401123, 0.01661151647567749, -0.12621188163757324, -0.007647729478776455, -0.024666806682944298, 0.07844442129135132, -0.007846735417842865, -0.5737077593803406, -0.13642442226409912, -0.06984603404998779, -0.0795002207159996, 0.006527449004352093, -0.06485085189342499, -0.09420806914567947, 0.012155686505138874, -0.0004283119342289865, -0.03030470572412014, -0.059619538486003876, 0.00429576076567173, -0.027347130700945854, -0.028245210647583008, -0.12093240767717361, 0.28646335005760193, 0.05747991427779198, -0.07323677837848663, 0.01887936145067215, 0.011516809463500977, 0.00142546440474689, -0.054207563400268555, 0.11037702858448029], [0.008082671090960503, -0.009838401339948177, -0.1900300532579422, 0.13693317770957947, -0.12836721539497375, 0.03589221090078354, 0.019875695928931236, -0.06482185423374176, 0.009422656148672104, -0.02997571974992752, 0.0052538239397108555, 0.1773509979248047, 0.27715933322906494, 0.08735991269350052, -0.07010811567306519, -0.07903768122196198, 0.14825326204299927, -0.01806064136326313, -0.0010731338988989592, -0.08831736445426941, -0.021026430651545525, 0.031508609652519226, -0.4661581218242645, -0.16211333870887756, -0.10002102702856064, -0.14157766103744507, 0.08692986518144608, -0.03805254027247429, -0.011053310707211494, 0.07805101573467255, -0.10174420475959778, 0.04720750078558922, -0.09691399335861206, -0.010043937712907791, -0.03154291212558746, 0.033177558332681656, 0.10967786610126495, 0.20770621299743652, -0.05239040032029152, 0.046353403478860855, 0.02319934591650963, 0.08432215452194214, -0.055429086089134216, 0.052528031170368195, 0.05056769400835037], [-0.020641084760427475, 0.04265213385224342, 0.051900334656238556, -0.07039278745651245, 0.12365450710058212, -0.20207075774669647, -0.044325318187475204, -0.01558001060038805, -0.029214484617114067, 0.015079915523529053, 0.04775536060333252, -0.1521778255701065, -0.32169660925865173, -0.011027722619473934, 0.05611364170908928, 0.06275249272584915, 0.003052589250728488, 0.01585395261645317, 0.020461319014430046, 0.04352381452918053, 0.14088144898414612, 0.049108948558568954, 0.3425281047821045, 0.1426880806684494, 0.1703713983297348, 0.1391327977180481, 0.22605958580970764, 0.007897053845226765, 0.09012989699840546, -0.045004598796367645, 0.10622242093086243, -0.008476263843476772, 0.010012557730078697, -0.02297171950340271, 0.09327302873134613, 0.015768900513648987, 0.06952297687530518, -0.11399274319410324, 0.032743290066719055, 0.014807292260229588, 0.07442276179790497, 0.010664544068276882, 0.06545241922140121, 0.009777662344276905, 0.07798058539628983], [-0.017959564924240112, 0.10782556980848312, -0.07655970007181168, 0.07948944717645645, -0.1123298928141594, 0.056680481880903244, -0.05765381455421448, -0.09802546352148056, -0.016008231788873672, -0.06252068281173706, 0.012910429388284683, 0.14378298819065094, 0.18533915281295776, 0.03438584506511688, 0.03470602631568909, -0.06784551590681076, 0.08367536216974258, 0.02330349199473858, -0.01590871624648571, -0.03817659988999367, -0.06088576093316078, 0.0779459998011589, -0.6659998297691345, 0.016652921214699745, -0.012567657977342606, -0.03451572731137276, 0.2095053642988205, -0.0686223953962326, 0.09234949201345444, 0.037334419786930084, -0.041250646114349365, -0.08393047004938126, 0.048438381403684616, 0.0961560606956482, -0.14695744216442108, 0.028851574286818504, 0.03561382740736008, 0.1335972100496292, -0.08800415694713593, 0.06605222821235657, 0.026988012716174126, -0.04747355729341507, -0.04253195971250534, 0.03893725574016571, 0.15871131420135498], [-0.11292305588722229, 0.04450752213597298, -0.0032702982425689697, 0.1155635267496109, 0.11543422937393188, 0.30217090249061584, 0.0034788369666785, -0.13979089260101318, -0.03346730396151543, 0.013689331710338593, 0.013527735136449337, -0.1311234086751938, -0.22413791716098785, 0.03946281597018242, 0.049450233578681946, -0.004581437911838293, -0.11809583753347397, -0.09452816843986511, -0.10033278167247772, -0.08944106101989746, 0.1286461353302002, 0.011696997098624706, -0.13102492690086365, -0.32628217339515686, 0.13344453275203705, -0.005999536719173193, 0.056566447019577026, 0.04405932128429413, -0.07872432470321655, 0.05093931034207344, 0.08540906012058258, -0.044033993035554886, -0.014703323133289814, -0.013277201913297176, 0.07934661954641342, -0.0026687283534556627, 0.08118565380573273, -0.11919762939214706, -0.00592444371432066, 0.040601883083581924, -0.0006202137446962297, 0.07182037085294724, 0.029440883547067642, -0.11283907294273376, 0.031698305159807205], [0.07983545958995819, 0.04301470145583153, -0.2074907273054123, 0.10150850564241409, -0.25428202748298645, -0.002934542950242758, -0.10889178514480591, 0.07655344158411026, -0.0023040699306875467, -0.024239957332611084, -0.09824107587337494, 0.14974649250507355, -0.034907542169094086, -0.011511111631989479, 0.06415129452943802, 0.0038844947703182697, 0.10577920824289322, 0.018074218183755875, -0.16109366714954376, 0.03995300829410553, -0.041538313031196594, 0.07214609533548355, -0.5174242258071899, -0.025580275803804398, 0.14680051803588867, -0.09199340641498566, 0.15888430178165436, 0.19620268046855927, -0.07953301817178726, -0.00710070738568902, -0.024444904178380966, 0.18156790733337402, 0.006341631058603525, 0.11628815531730652, 0.019528701901435852, 0.08160167187452316, -0.06882298737764359, 0.11940471082925797, -0.005046304780989885, 0.01683804951608181, 0.08058478683233261, 0.0937822237610817, -0.10071592777967453, 0.028137052431702614, 0.08756132423877716], [0.012739378027617931, -0.05012151598930359, -0.03162210062146187, -0.2820758521556854, -0.05954880639910698, -0.4066255986690521, -0.002070481888949871, 0.05739664286375046, 0.003296654438599944, 0.0038662853185087442, 0.03168442100286484, -0.033073075115680695, 0.03264192119240761, -0.03732792288064957, 0.021790049970149994, -0.05000685900449753, -0.03611704334616661, -0.0038528037257492542, 0.07496662437915802, 0.0908607468008995, -0.010119261220097542, -0.07767056673765182, 0.20885632932186127, 0.46233007311820984, -0.10631690174341202, -0.041199926286935806, -0.1615234613418579, 0.11547119170427322, -0.05113327130675316, 0.10513933002948761, -0.062340959906578064, 0.06134504824876785, -0.026291217654943466, -0.017208116129040718, 0.0010889932746067643, 0.04143597185611725, -0.10421247035264969, 0.10206698626279831, -0.05932154506444931, 0.06595435738563538, -0.055503133684396744, -0.10220556706190109, -0.02161119505763054, -0.011811574921011925, -0.0019923539366573095], [-0.18972057104110718, 0.030914245173335075, -0.05288493260741234, -0.05677703022956848, 0.1537484973669052, 0.0025849053636193275, -0.10096555203199387, 0.05227980762720108, 0.03605680540204048, -0.05586029961705208, -0.032214127480983734, -0.2104802280664444, -0.37668904662132263, -0.08456554263830185, -0.030812779441475868, 0.04899682104587555, 0.04217815399169922, 0.06966336071491241, -0.022525489330291748, -0.11124736070632935, -0.02500894106924534, -0.1579481065273285, -0.2884279787540436, -0.006167254876345396, 0.09719976037740707, -0.029584456235170364, -0.004677193239331245, -0.0424596406519413, 0.1330854892730713, 0.09121721982955933, 0.009122323244810104, 0.034605443477630615, 0.028211256489157677, 0.05850676819682121, 0.08760017901659012, -0.0818263590335846, -0.04277590662240982, -0.055938608944416046, -0.019612038508057594, -0.023819366469979286, -0.016737889498472214, 0.013596915639936924, -0.010716849938035011, -0.117392398416996, 0.02709943614900112], [-0.030724450945854187, 0.0792277604341507, -0.023038119077682495, 0.21543708443641663, -0.08193175494670868, 0.20145562291145325, -0.051969628781080246, 0.1662643700838089, 0.06868323683738708, -0.01721258834004402, 0.07000170648097992, 0.08723970502614975, -0.11264089494943619, -0.09542132169008255, -0.03145943209528923, 0.019481979310512543, -0.013800100423395634, 0.0019708345644176006, -0.023714568465948105, -0.011709557846188545, 0.013272219337522984, 0.13673199713230133, -0.9508612155914307, -0.058324187994003296, 0.0044825393706560135, -0.09924004971981049, 0.09485436975955963, 0.0061242119409143925, -0.07450511306524277, 0.11158037185668945, -0.08298733085393906, -0.12903420627117157, 0.06491602957248688, 0.08549512177705765, -0.1091398298740387, 0.029497671872377396, 0.08499090373516083, 0.1422697901725769, -0.05818115174770355, -0.00431774090975523, 0.031252991408109665, 0.027557171881198883, -0.07062996178865433, 0.05147775262594223, 0.033215757459402084], [-0.16401182115077972, 0.019787831231951714, -0.01015701424330473, -0.029742320999503136, -0.050529032945632935, 0.04597385972738266, -0.08686109632253647, 0.07503270357847214, 0.017740100622177124, 0.027327967807650566, 0.04433657228946686, -0.2536386251449585, -0.4494001865386963, -0.02874015085399151, -0.013576322235167027, -0.02130928635597229, -0.08467443287372589, -0.02558300271630287, -0.02558913454413414, -0.07936396449804306, 0.06446745246648788, 0.015209785662591457, -0.20744891464710236, -0.029064154252409935, 0.16910892724990845, -0.037311673164367676, 0.23359718918800354, -0.024477828294038773, 0.14816899597644806, 0.11423434317111969, 0.08966614305973053, 0.001126179937273264, -0.024015821516513824, 0.08295664936304092, 0.18659646809101105, -0.015209164470434189, -0.015304199419915676, -0.08612753450870514, 0.0018323123222216964, -0.02509777806699276, 0.07413607090711594, 0.04523754119873047, -0.08486062288284302, -0.02387670800089836, 0.09567255526781082], [0.00043805898167192936, -0.023310011252760887, 0.07076539099216461, 0.15339694917201996, 0.018029144033789635, 0.45834100246429443, -0.012022195383906364, -0.0811169221997261, 0.03964575007557869, -0.0792459025979042, -0.0729292631149292, -0.06872452050447464, -0.15608805418014526, 0.058584149926900864, 0.10946549475193024, 0.05500434339046478, 0.06560846418142319, 0.03882843628525734, 0.02573069930076599, 0.03885480761528015, 0.012253222987055779, 0.027182335034012794, -0.11268790811300278, -0.49330413341522217, 0.09404121339321136, 0.11577649414539337, 0.07597716152667999, 0.04006246477365494, 0.10349361598491669, 0.026897991076111794, 0.1581227034330368, -0.012177744880318642, -0.037393201142549515, -0.0015848071780055761, 0.06820133328437805, 0.06425502896308899, -0.04043827950954437, -0.21566300094127655, 0.04986201599240303, 0.05696734040975571, 0.017165634781122208, 0.06990636885166168, 0.09408735483884811, 0.007935694418847561, -0.09220071136951447], [-0.20203107595443726, -0.03827947750687599, 0.18406325578689575, 0.1072990819811821, 0.13877616822719574, 0.41189882159233093, 0.10682165622711182, -0.07014348357915878, -0.03941211849451065, -0.026714343577623367, -0.012052075006067753, 0.018290793523192406, 0.12399835139513016, 0.05859306454658508, 0.057824160903692245, 0.0871034488081932, 0.04895859956741333, -0.00786573626101017, 0.03836151957511902, -0.11732485890388489, -0.0933237299323082, -0.05668645724654198, 0.08194828778505325, -0.41572919487953186, 0.08122099936008453, 0.13848073780536652, 0.026967862620949745, -0.11015602946281433, 0.09338302910327911, 0.05532452091574669, 0.06402502208948135, -0.03270420432090759, -0.0505097359418869, -0.053378742188215256, 0.12556852400302887, -0.10489282011985779, -0.0020210405346006155, -0.04491433873772621, 0.09856779873371124, -0.02516876347362995, -0.049550317227840424, 0.11862866580486298, -0.04789265617728233, -0.09883337467908859, -0.11748815327882767], [-0.14312012493610382, 0.04544302076101303, 0.17313143610954285, 0.1297788918018341, 0.18262311816215515, 0.22498713433742523, 0.057925403118133545, 0.07278858125209808, 0.012503143399953842, -0.008726549334824085, 0.013925228267908096, 0.03125561401247978, -0.30727192759513855, -0.05135483667254448, -0.02011241763830185, -0.12104589492082596, 0.12126751244068146, -0.02712315320968628, -0.036347053945064545, -0.10074111819267273, -0.04229053109884262, 0.00105201150290668, -0.49650269746780396, -0.26665058732032776, 0.04140682891011238, -0.03153011202812195, 0.07995761930942535, 0.065914586186409, -0.10027685761451721, -0.0006287236465141177, -0.08722091466188431, 0.017709823325276375, -0.058254487812519073, 0.00705223111435771, 0.02176404371857643, -0.020626632496714592, 0.003985793329775333, 0.01641104556620121, -0.08520103245973587, -0.06987617164850235, 0.014439116232097149, -0.03501998260617256, -0.03858238831162453, -0.00540632288902998, 0.019907623529434204], [0.09181281924247742, 0.017256567254662514, -0.23663319647312164, -0.0394788421690464, -0.343586266040802, -0.07647313177585602, -0.09076005220413208, 0.03274395316839218, 0.06384690850973129, -0.11921443045139313, 0.04826904088258743, -0.04353678971529007, -0.02743186056613922, -0.0899360179901123, -0.07080988585948944, -0.07077491283416748, -0.06319353729486465, -0.01718509942293167, -0.02983112260699272, 0.10490448772907257, -0.1266666054725647, -0.026606902480125427, -0.19212312996387482, 0.056929636746644974, 0.05850871279835701, -0.2139463573694229, 0.07006441056728363, 0.22903120517730713, 0.05262596160173416, 0.019836340099573135, -0.17678725719451904, 0.14084096252918243, 0.033220432698726654, -0.05843491107225418, 0.15412487089633942, 0.03528057411313057, -0.004854019731283188, 0.04421012103557587, -0.0027498339768499136, 0.1013139858841896, 0.0015279572689905763, -0.07368756830692291, 0.0995771735906601, 0.02412959560751915, 0.10432793200016022], [0.043681010603904724, -0.06661979109048843, 0.0982498973608017, -0.23952893912792206, 0.0782184824347496, -0.06230916082859039, 0.06878408044576645, -0.08422951400279999, -0.021640663966536522, -0.005499903112649918, -0.020986583083868027, -0.08198413997888565, 0.042784035205841064, -0.005735098384320736, 0.013499228283762932, -0.03794119134545326, -0.03850996866822243, -0.04503096640110016, -0.002659616759046912, 0.1044807881116867, 0.04927394911646843, -0.07780154794454575, 0.8068757653236389, 0.0860242247581482, -0.062091514468193054, 0.08793708682060242, -0.048193175345659256, -0.028235070407390594, -0.06980310380458832, -0.17846836149692535, 0.02020271308720112, 0.045548927038908005, -0.06720802187919617, -0.09476771205663681, 0.05491403862833977, 0.02992744743824005, -0.004592447075992823, -0.13599546253681183, 0.10441529750823975, -0.005805592052638531, -0.052573420107364655, -0.005531688686460257, 0.048800740391016006, 0.020800814032554626, -0.07574629038572311], [-0.09563997387886047, -0.0809059739112854, 0.041150495409965515, 0.10742945969104767, 0.0884733647108078, 0.517860472202301, 0.1080341637134552, -0.05902387574315071, 0.015794264152646065, 0.031204506754875183, 0.0025390246883034706, -0.0023981111589819193, 0.0797773078083992, 0.1091763898730278, 0.04474656656384468, 0.14533600211143494, -0.15753023326396942, -0.08126948773860931, 0.04715338721871376, -0.04760238528251648, -0.020193519070744514, -0.1175774484872818, 0.05597686767578125, -0.4408324956893921, -0.024211639538407326, 0.12712015211582184, -0.00879037193953991, -0.09308703243732452, -0.03942340984940529, -0.04951487481594086, 0.134489044547081, -0.0995405837893486, -0.11279743164777756, -0.02170848660171032, -0.021616147831082344, -0.009959418326616287, 0.1141510009765625, 0.02061692252755165, 0.11447454243898392, -0.12364668399095535, -0.07405734807252884, 0.11699758470058441, 0.07597699761390686, 0.01889730803668499, -0.09248252958059311], [-0.14717009663581848, -0.01982078328728676, 0.20681613683700562, 0.16973647475242615, 0.3547572195529938, 0.3323949873447418, 0.09768019616603851, 0.06224415823817253, 0.011443239636719227, -0.08683285117149353, 0.10559563338756561, -0.10094564408063889, -0.022033492103219032, -0.07111208885908127, -0.11696016788482666, -0.011317819356918335, -0.10577968508005142, -0.008655760437250137, 0.028494086116552353, -0.1683133840560913, -0.061401207000017166, -0.08868986368179321, -0.22436192631721497, -0.30721768736839294, -0.06708180159330368, -0.06148079037666321, 0.015084252692759037, -0.08343661576509476, 0.08607203513383865, 0.006826800759881735, -0.09724079817533493, -0.01717078685760498, -0.023343272507190704, 0.04648911952972412, 0.0756264328956604, -0.06419363617897034, 0.04745546728372574, 0.03677820786833763, -0.04972221329808235, -0.10205475986003876, -0.048528723418712616, 0.043141044676303864, 0.09597975760698318, -0.06870590895414352, -0.058478303253650665], [0.10024438798427582, -0.08936887979507446, 0.01759694330394268, -0.03027767315506935, -0.005879041738808155, 0.0881236121058464, 0.02687646634876728, 0.11144264042377472, 0.0064524197950959206, -0.021794434636831284, -0.07521121203899384, 0.05559703707695007, 0.43245938420295715, 0.09312640130519867, -0.08186069130897522, 0.15496321022510529, -0.03187093138694763, -0.16109007596969604, 0.15972737967967987, 0.055411484092473984, 0.022696752101182938, -0.02902781404554844, 0.2610084116458893, -0.14861871302127838, -0.046531498432159424, 0.10081128776073456, -0.08360336720943451, -0.1113630011677742, 0.050030745565891266, -0.12259570509195328, 0.10999258607625961, -0.06805729866027832, 0.02988049015402794, -0.07730885595083237, 0.06417840719223022, -0.024971727281808853, -0.11669175326824188, -0.15978066623210907, 0.10524642467498779, 0.2131733000278473, -0.03542599454522133, -0.11644631624221802, -0.041359398514032364, 0.005838647484779358, -0.04886665195226669], [0.16557186841964722, 0.08531229943037033, -0.19568778574466705, 0.18359671533107758, -0.2874258756637573, 0.1833517700433731, -0.08437693864107132, 0.03239775821566582, 0.02847897633910179, -0.0020173019729554653, -0.007949509657919407, 0.04041841998696327, 0.11458027362823486, 0.10784359276294708, 0.0064151170663535595, 0.004796267487108707, 0.041829489171504974, 0.044556234031915665, 0.13134507834911346, 0.024862682446837425, 0.04573158919811249, 0.005018100142478943, -0.2654554843902588, -0.14360776543617249, 0.16824616491794586, -0.05642319470643997, 0.11745540052652359, 0.0909377932548523, 0.08253747224807739, -0.009259907528758049, -0.1192389652132988, 0.016413932666182518, -0.048670634627342224, 0.07015412300825119, 0.02264188416302204, 0.0688788965344429, 0.006131191272288561, 0.07519465684890747, -0.04046843573451042, 0.01582534797489643, 0.04472564160823822, 0.04507756605744362, -0.011716587468981743, -0.09094493091106415, 0.06987836211919785], [-0.1618403196334839, 0.10657250881195068, -0.09937123209238052, 0.006083436775952578, -0.0608162023127079, -0.3052496016025543, 0.03176233544945717, -0.23445594310760498, 0.07657605409622192, -0.05888368934392929, -0.023197926580905914, -0.05867306515574455, -0.13211292028427124, -0.03995002806186676, -0.08224838227033615, -0.09628140926361084, 0.1654822826385498, 0.007027302403002977, 0.015571882016956806, -0.1352274864912033, 0.00991752278059721, 0.061077795922756195, -0.24557285010814667, 0.26375964283943176, 0.1597084105014801, -0.06896097213029861, 0.09723272919654846, 0.06869220733642578, 0.0572068877518177, 0.08581694215536118, -0.26105454564094543, -0.02031659707427025, 0.05655819922685623, -0.00356989330612123, 0.004561261273920536, -0.0815114751458168, 0.1258249580860138, 0.020104212686419487, -0.11645223945379257, -0.10619983822107315, 0.07979001849889755, 0.10431806743144989, 0.09074355661869049, -0.09574288129806519, 0.043525125831365585], [-0.18328507244586945, -0.01466470304876566, -0.07531236857175827, -0.05775237828493118, -0.08062882721424103, -0.02547212317585945, -0.1470831036567688, 0.05717739090323448, 0.015934081748127937, 0.004992050584405661, 0.05548809841275215, -0.17965438961982727, -0.2812395691871643, -0.10050783306360245, -0.09493831545114517, 0.05736038088798523, 0.030678467825055122, -0.02473372593522072, 0.0194223765283823, -0.0731276124715805, 0.0003897754359059036, -0.01844075694680214, -0.3824366629123688, -0.006132122594863176, 0.17640826106071472, -0.027101878076791763, -0.09853891283273697, 0.06729128956794739, 0.18429605662822723, 0.00435728020966053, 0.057746000587940216, -0.07445237785577774, 0.18795831501483917, -0.08899271488189697, 0.20573864877223969, -0.0028314313385635614, -0.09737434983253479, -0.04657461494207382, 0.02220551297068596, -0.035466305911540985, 0.07645774632692337, 0.008087806403636932, -0.011215711943805218, -0.008684172295033932, 0.042362578213214874], [-0.02327057346701622, 0.023422280326485634, 0.15544141829013824, 0.08848583698272705, 0.16194622218608856, 0.17773936688899994, 0.011426390148699284, 0.07031694799661636, -0.026990674436092377, 0.01554675679653883, 0.004782271105796099, -0.11435393244028091, -0.30215001106262207, -0.14119094610214233, -0.021460050716996193, -0.07858395576477051, -0.0460723377764225, -0.03403182327747345, -0.05463835969567299, -0.07447576522827148, 0.05321592092514038, -0.03941909596323967, -0.21770033240318298, -0.23313359916210175, -0.037466391921043396, 0.02794894017279148, -3.9603277400601655e-05, -0.07797649502754211, 0.03592374920845032, 0.08331679552793503, -0.006986815948039293, -0.09300324320793152, 0.018196353688836098, -0.009858014062047005, 0.027004564180970192, -0.07418646663427353, 0.14272013306617737, -0.059557508677244186, -0.018033165484666824, 0.028676798567175865, -0.04350310191512108, -0.025569621473550797, -0.04928614944219589, -0.010574089363217354, 0.1333795189857483], [0.07237639278173447, 0.10436194390058517, -0.10041948407888412, -0.03932055085897446, -0.04228154569864273, -0.20075936615467072, -0.18182416260242462, -0.05884755030274391, -0.026096194982528687, 0.060480840504169464, -0.007096538320183754, -0.20980650186538696, -0.20349620282649994, 0.05643868073821068, 0.014482472091913223, 0.07920201122760773, -0.11825715005397797, -0.2243642508983612, 0.010288822464644909, 0.05289831757545471, -0.0176647137850523, -0.03215000778436661, 0.19401317834854126, 0.0987505316734314, 0.07530821114778519, -0.10081060230731964, -0.04763467609882355, -0.05310188978910446, 0.038634639233350754, 0.09236951917409897, 0.23688867688179016, -0.12478290498256683, 0.07926902920007706, 0.06235480308532715, 0.1876366138458252, 0.02364160493016243, -0.1560339778661728, -0.03552507609128952, 0.14692020416259766, 0.16438627243041992, -0.07746422290802002, 0.02759600058197975, -0.005269368179142475, 0.038664184510707855, 0.06469284743070602], [0.03833768144249916, -0.009186279959976673, -0.044129274785518646, -0.14340174198150635, -0.10566219687461853, -0.3465454578399658, -0.026410913094878197, -0.0553346648812294, 0.05721938610076904, -0.0016134616453200579, -0.02852102369070053, -0.025161249563097954, 0.13130202889442444, 0.008003217168152332, -0.010972991585731506, -0.03975480794906616, 0.024631571024656296, 0.08981450647115707, -0.05796575918793678, 0.041053954511880875, -0.06008989363908768, -0.07825085520744324, 0.39906376600265503, 0.3432966470718384, -0.0842934176325798, 0.13505819439888, -0.04094625264406204, 0.11271438747644424, -0.11855834722518921, -0.0020400199573487043, -0.08536821603775024, 0.1309431493282318, 0.04110904410481453, -0.04231909289956093, 0.015282380394637585, 0.045671939849853516, -0.04255884140729904, -0.06408009678125381, 0.011558406054973602, 3.894891415257007e-05, -0.042095646262168884, -0.0068558198399841785, 0.06408839672803879, -0.002914197975769639, -0.0034337781835347414], [0.015065699815750122, 0.009278422221541405, 0.0415835902094841, -0.3028598427772522, 0.0997619479894638, -0.4539627134799957, 0.06497777998447418, 0.09253466129302979, 0.02486994117498398, 0.053446244448423386, 0.008151032030582428, -0.015717048197984695, -0.03524446487426758, -0.12398183345794678, -0.07323068380355835, -0.07266562432050705, 0.0281783789396286, 0.03174667805433273, -0.006954570300877094, -0.027107292786240578, 0.05850456282496452, -0.12456364184617996, 0.30940258502960205, 0.3668513596057892, -0.04477331042289734, -0.08405192196369171, -0.13481716811656952, -0.010019729845225811, -0.016958648338913918, -0.015469071455299854, 0.02291013114154339, 0.010294191539287567, 0.0821506455540657, -0.050961099565029144, -0.03536920249462128, 0.013326507061719894, -0.10357081890106201, 0.01668281853199005, -0.02681020274758339, 0.15873271226882935, 0.01343574933707714, 0.012346943840384483, 0.041589848697185516, -0.002614250173792243, -0.021961728110909462], [-0.1447359025478363, -0.003172536613419652, -0.01847376488149166, 0.17348048090934753, 0.03902716934680939, 0.2476605772972107, -0.01979651302099228, 0.045668624341487885, -0.02466675080358982, 0.017743414267897606, 0.06962781399488449, -0.07432810217142105, -0.3124678432941437, -0.021081792190670967, 0.04102892428636551, -0.0792112648487091, 0.06431291997432709, 0.07574205100536346, -0.11547422409057617, -0.08957293629646301, 0.05952158197760582, 0.046721138060092926, -0.3749925196170807, -0.25684306025505066, 0.096513532102108, 0.06729999929666519, -0.017764462158083916, 0.0641951933503151, 0.02613239362835884, 0.07358968257904053, 0.05511586740612984, -0.02394605614244938, 0.0731486827135086, 0.014844083227217197, 0.041852906346321106, 0.10830032080411911, 0.14744769036769867, 0.04548085480928421, -0.10492350906133652, 0.01444171741604805, -0.000365665735444054, -0.01604485511779785, -0.0014492678456008434, 0.10030242800712585, 0.06175212934613228], [0.00134214386343956, 0.07607268542051315, -0.06899122893810272, 0.2523556351661682, -0.1578083634376526, 0.44476979970932007, 0.04816988483071327, 0.009792392142117023, -0.10079482942819595, 0.004160153679549694, -0.03329767286777496, -0.015890244394540787, -0.08319534361362457, 0.12945567071437836, -0.004840975161641836, -0.09878797084093094, -0.02996712364256382, 0.028725596144795418, 0.016582418233156204, -0.01757403463125229, -0.004176336340606213, 0.03866551071405411, -0.263358473777771, -0.4177272915840149, 0.13929873704910278, -0.10065623372793198, 0.014194530434906483, 0.0755690410733223, 0.10848501324653625, 0.02070307545363903, -0.03390644118189812, -0.06069127842783928, -0.015828320756554604, 0.11114498972892761, -0.026391994208097458, 0.047161296010017395, -0.01096191443502903, -0.0021050297655165195, 0.10586365312337875, 0.08067627251148224, 0.010271603241562843, -0.05252811312675476, -0.02593332901597023, 0.14864741265773773, 0.08452525734901428], [0.03348664194345474, 0.007140322122722864, -0.06756283342838287, -0.06410402804613113, 0.024954453110694885, -0.31094789505004883, 0.07616078853607178, -0.015331028029322624, -0.048057034611701965, -0.05041973665356636, -0.04469332471489906, -0.17325015366077423, 0.0674717128276825, -0.02778237871825695, 0.05854174494743347, 0.005504282657057047, 0.01611301675438881, 0.000559208681806922, 0.07076258957386017, 0.06926809996366501, 0.1506602168083191, -0.03958267346024513, 0.5231613516807556, 0.3073086738586426, -0.09586085379123688, -0.0007374029373750091, 0.018789105117321014, -0.01646861992776394, 0.08309021592140198, 0.013954446651041508, -0.06705085188150406, -0.011638812720775604, -0.029521295800805092, 0.043758172541856766, 0.02390080876648426, -0.02995835244655609, 0.02964344620704651, -0.07433906942605972, -0.07451952993869781, -0.03834256902337074, 0.07563196122646332, 0.03216961771249771, -0.04060130938887596, 0.012959558516740799, 0.009903970174491405], [-0.0443536713719368, -0.061495572328567505, 0.1502685695886612, -0.20660080015659332, 0.16824623942375183, -0.14142265915870667, -0.01265657041221857, -0.03268584981560707, -0.011349436827003956, -0.007544802501797676, -0.04552005976438522, -0.017815837636590004, -0.09823542088270187, -0.11954003572463989, 0.049579083919525146, -0.01544451154768467, -0.075377456843853, 0.08155693113803864, 0.04894276335835457, -0.04057201370596886, 0.03847477585077286, -0.10380739718675613, 0.8967950344085693, 0.18400466442108154, -0.010864472016692162, 0.022237811237573624, -0.05780450627207756, 0.07832378894090652, 0.06157750263810158, -0.12772881984710693, 0.0008336012251675129, 0.060857512056827545, -0.040801580995321274, -0.10005371272563934, -0.034414924681186676, -0.0465901680290699, 0.0690145269036293, -0.11663956940174103, -0.012071149423718452, 0.0828394964337349, 0.07113034278154373, -0.0024229169357568026, 0.04807794466614723, 0.021857406944036484, -0.11239764839410782], [-0.11721520870923996, -0.10950037837028503, 0.01200092677026987, -0.04502517729997635, 0.013670939020812511, 0.030486788600683212, -0.1367780715227127, 0.03254014253616333, 0.01474121306091547, 0.0439552403986454, -0.019854379817843437, -0.2059529572725296, -0.3032880425453186, -0.03598807752132416, -0.05635053291916847, -0.05069151893258095, 0.03470347076654434, 0.014801494777202606, -0.11049598455429077, -0.21240422129631042, -0.042733460664749146, -0.03187905251979828, -0.20995253324508667, 0.021452587097883224, 0.009612425230443478, -0.04646534472703934, -0.0920708104968071, 0.04750162363052368, 0.11425948888063431, -0.059050846844911575, -0.012939582578837872, -0.11368703842163086, -0.02350689098238945, 0.038321904838085175, 0.07004157453775406, -0.09152403473854065, -0.07769463956356049, -0.07065265625715256, 0.06619259715080261, 0.007802249398082495, 0.08515048772096634, 0.06246181204915047, 0.04098134860396385, -0.1379171758890152, 0.011192581616342068], [0.18059535324573517, -0.04652823135256767, -0.05365613475441933, -0.07329226285219193, -0.10516031831502914, -0.3250639736652374, 0.0484166145324707, -0.08923067152500153, -0.08658595383167267, -0.06827929615974426, -0.04275449737906456, 0.010639937594532967, 0.1810617744922638, 0.04527889937162399, 0.049802929162979126, -0.038943879306316376, -0.05984815955162048, 0.010491137392818928, 0.1460317075252533, 0.16384033858776093, 0.09244200587272644, -0.0775005891919136, 0.584955096244812, 0.2462732046842575, -0.14675408601760864, -0.03644920140504837, -0.006312450394034386, 0.15184138715267181, 0.015837661921977997, -0.1179739460349083, -0.002585546812042594, 0.07563674449920654, -0.10679450631141663, -0.09131315350532532, 0.05914650112390518, -0.01887780800461769, -0.018779609352350235, 0.069661445915699, -0.05157225951552391, -0.0047398516908288, -0.07424376904964447, 0.013049927540123463, 0.07903511077165604, -0.08778169006109238, -0.0793326273560524], [0.13231338560581207, -0.07320976257324219, -0.025518758222460747, -0.09685681015253067, -0.026083294302225113, -0.010910265147686005, 0.03768623620271683, 0.09943879395723343, -0.1154329925775528, 0.043702904134988785, -0.07056485116481781, 0.21987158060073853, 0.3535727560520172, 0.08396181464195251, 0.06009909510612488, 0.10734614729881287, 0.0025510697159916162, -0.013773626647889614, 0.04449489340186119, 0.09839203208684921, 0.02850770764052868, 0.03430601954460144, 0.36538225412368774, 0.06361211091279984, -0.08219798654317856, -0.03741062805056572, -0.01807229593396187, -0.09262581169605255, -0.08102575689554214, 0.053363773971796036, 0.04608676955103874, -0.01142464205622673, 0.04973440244793892, -0.011990446597337723, -0.15917889773845673, 0.13928313553333282, 0.009718863293528557, 0.06660386174917221, 0.04402291029691696, 0.10421891510486603, 0.02442997507750988, -0.03999726101756096, -0.012363560497760773, 0.12065019458532333, -0.007561068516224623], [-0.07789987325668335, -0.025675242766737938, -0.2077322155237198, 0.027643825858831406, -0.21991023421287537, -0.007661459501832724, 0.03761419653892517, -0.06622203439474106, 0.0622415766119957, -0.13344235718250275, 0.01910058781504631, 0.059917911887168884, 0.25522658228874207, 0.07489871233701706, 0.019209731370210648, -0.010083682835102081, 0.045429106801748276, -0.05096648633480072, 0.08243256062269211, -0.0264972485601902, -0.09652125090360641, 0.077460877597332, -0.536475419998169, -0.03200594335794449, -0.047621529549360275, -0.11809588223695755, -0.05910459905862808, -0.01938336156308651, 0.008775755763053894, 0.0040513877756893635, -0.07620174437761307, 0.06948322802782059, 0.011409442871809006, -0.046204425394535065, 0.11486302316188812, -0.03545709326863289, -0.09533118456602097, 0.19153141975402832, 0.03723582625389099, -0.010450190864503384, -0.053793441504240036, 0.06498121470212936, 0.035794734954833984, -0.08975682407617569, 0.0010389770613983274], [0.0459786094725132, 0.030535155907273293, 0.11075440794229507, -0.09895823895931244, 0.17425061762332916, -0.08422394096851349, 0.09381541609764099, 0.12795405089855194, -0.13823789358139038, 0.012772439047694206, 0.05800826475024223, 0.08036577701568604, 0.14366461336612701, -0.05337226018309593, 0.011720492504537106, -0.049386076629161835, 0.009496483020484447, -0.04211385175585747, 0.05017584562301636, 0.027148352935910225, 0.07551577687263489, -0.023572783917188644, 0.24609880149364471, 0.09974727034568787, -0.1425599902868271, 0.11653713881969452, -0.03458762541413307, -0.1767341047525406, -0.058512549847364426, -0.040293723344802856, 0.07642956078052521, -0.1619744598865509, 0.041137486696243286, -0.06908354163169861, -0.13334737718105316, 0.024639304727315903, 0.09396211802959442, -0.09968110173940659, 0.05336643382906914, -0.03334086760878563, 0.021635757759213448, 0.011030390858650208, -0.014314773492515087, -0.010842777788639069, -0.10222971439361572], [-0.013620682060718536, 0.026138480752706528, -0.08342209458351135, 0.13948747515678406, -0.1331438273191452, 0.3818897604942322, -0.054046645760536194, -0.01253458857536316, -0.012430241331458092, 0.002947358414530754, 2.3645477995160036e-05, -0.05603398010134697, -0.03479136899113655, 0.15094539523124695, 0.07508283108472824, 0.018778910860419273, 0.0051641943864524364, -0.02183019183576107, -0.07096274197101593, 0.033110540360212326, 0.055911608040332794, 0.03356784209609032, -0.05401654914021492, -0.38832390308380127, 0.07365471869707108, 0.20317929983139038, 0.08223996311426163, 0.061262913048267365, 0.025204231962561607, -0.042668718844652176, 0.00403041485697031, -0.06147940829396248, -0.042715951800346375, -0.03858983516693115, 0.021600157022476196, 0.013623224571347237, -0.018147701397538185, -0.0910947248339653, 0.012987272813916206, -0.026363763958215714, 0.058471083641052246, -0.03805680572986603, -0.06498973071575165, -0.05123259499669075, 0.12791018187999725], [-0.02215179242193699, 0.09737380594015121, -0.0016684049041941762, 0.18958956003189087, 0.04980268329381943, 0.3765685260295868, -0.04134957492351532, -0.12091804295778275, 0.01681303232908249, -0.02732100896537304, -0.07180840522050858, -0.07154572010040283, -0.21382473409175873, 0.010540477000176907, -8.251293184002861e-05, -0.027423951774835587, 0.00603659451007843, 0.027691975235939026, -0.1658552885055542, 0.05977237969636917, 0.04724827781319618, 0.04531344026327133, -0.3246932625770569, -0.42801979184150696, 0.15769606828689575, 0.05838683992624283, 0.03803927078843117, 0.05801277980208397, -0.0358947217464447, 0.10089254379272461, 0.022779501974582672, 0.054869428277015686, -0.049974266439676285, 0.0009481565211899579, -0.009546130895614624, 0.031483300030231476, 0.03727398440241814, -0.061433080583810806, -0.010771027766168118, 0.08772868663072586, 0.012030500918626785, 0.028267890214920044, -0.057521406561136246, -0.04958794265985489, 0.10001818090677261], [-0.019305821508169174, 0.05642683431506157, -0.03717052564024925, 0.3304003179073334, -0.06550002098083496, 0.3630114495754242, -0.13807740807533264, -0.005510158371180296, -0.018786074593663216, 0.008818283677101135, 0.026622729375958443, 0.06369572877883911, -0.01513606496155262, 0.04093750938773155, 0.004555225372314453, -0.01358451135456562, -0.04088307172060013, 0.00023440414224751294, -0.023698559030890465, -0.06165388599038124, 0.06985856592655182, 0.061432309448719025, -0.5537908673286438, -0.3554321825504303, 0.05883706733584404, -0.03337431699037552, 0.06598366051912308, -0.11085285246372223, -0.0206211619079113, 0.05167685076594353, -0.016051096841692924, -0.07572147250175476, 0.059157922863960266, 0.072453074157238, -0.008736916817724705, -0.050906952470541, -0.013120773248374462, 0.04571421816945076, 0.07800347357988358, -0.018209103494882584, -0.030597252771258354, 0.05950336903333664, -0.026883434504270554, 0.06203584745526314, 0.10802943259477615], [-0.011644156649708748, 0.09872616082429886, -0.2640131413936615, 0.1286865621805191, -0.15955905616283417, 0.1903267651796341, -0.17188328504562378, 0.0013058942276984453, 0.04021972417831421, -0.0013673936482518911, 0.017768925055861473, -0.027203025296330452, 0.11396423727273941, 0.0809980258345604, 0.0873083770275116, 0.007301663048565388, 0.0493437834084034, 0.02715875394642353, 0.10998234152793884, -0.03478439152240753, 0.031635746359825134, 0.11646205931901932, -0.22237299382686615, -0.1590469628572464, 0.014462536200881004, 0.03418368846178055, 0.22475816309452057, 0.06190545856952667, 0.18726149201393127, 0.07649809122085571, -0.09037665277719498, 0.0020890438463538885, 0.004696881864219904, 0.03755061328411102, 0.0317353829741478, 0.013870947062969208, 0.010561651550233364, 0.11902280896902084, 0.000443622178863734, 0.009352258406579494, -0.010347990319132805, 0.06208448484539986, -0.002175666391849518, 0.004575271625071764, 0.034515686333179474], [-0.0872417539358139, 0.08153358846902847, -0.08978388458490372, 0.0850147232413292, -0.23470677435398102, -0.029908474534749985, -0.05140586569905281, -0.11473065614700317, 0.15449662506580353, -0.02191993035376072, 0.04436323046684265, -0.009566070511937141, -0.23562762141227722, 0.013974885456264019, 0.058963943272829056, -0.12865036725997925, 0.022262126207351685, -0.03364168480038643, 0.005870132241398096, 0.017575323581695557, -0.016220126301050186, 0.08641285449266434, -0.22767014801502228, 0.03873090445995331, 0.11685007065534592, -0.20283038914203644, 0.06539297103881836, 0.13299648463726044, 0.09261094033718109, 0.16428393125534058, -0.08604589104652405, -0.028834594413638115, -0.12184018641710281, 0.0707072764635086, 0.012864083051681519, -0.024916833266615868, 0.08605052530765533, 0.059446945786476135, -0.08436740189790726, 0.00657672667875886, 0.05074499174952507, -0.035401850938797, 0.018773898482322693, -0.029829787090420723, 0.0412154383957386], [0.028768278658390045, -0.03551635891199112, 0.13956177234649658, 0.020184215158224106, 0.05818843096494675, 0.3745622932910919, 0.10148299485445023, -0.07079944759607315, -0.012465117499232292, 0.055238980799913406, -0.027412137016654015, -0.10944987088441849, -0.03957148268818855, 0.09312973916530609, -0.040865708142519, 0.07965259253978729, -0.06808120757341385, -0.04871825501322746, -0.04965858533978462, 0.06022831052541733, -0.05914074182510376, -0.05868986248970032, 0.44888532161712646, -0.31819549202919006, -0.02195790223777294, -0.06983080506324768, -0.04407551884651184, 0.07332219183444977, 0.12490517646074295, -0.17929160594940186, -0.007731372024863958, 0.023093201220035553, -0.04347936436533928, -0.05924288555979729, 0.09357643127441406, -0.08594129234552383, 0.07109831273555756, -0.08810070902109146, 0.14091123640537262, 0.0671398937702179, -0.03505450859665871, -0.06440936774015427, 0.041310831904411316, -0.05673966184258461, -0.23968380689620972], [0.12674157321453094, -0.046948742121458054, 0.12922100722789764, -0.02881915122270584, -0.0566985160112381, 0.04407278448343277, 0.04472791403532028, 0.0510149784386158, -0.013045089319348335, -0.0650847777724266, -0.1284426748752594, -0.09134127199649811, 0.0992622822523117, 0.07804214209318161, 0.04310537502169609, 0.045811645686626434, -0.07856138050556183, -0.011386498808860779, -0.041497278958559036, 0.12238162010908127, -0.01909809187054634, -0.10913243889808655, 0.7422443628311157, 0.027527928352355957, -0.08997993916273117, 0.08857830613851547, 0.10768450796604156, 0.0631101205945015, -0.08435973525047302, -0.07898559421300888, 0.18453750014305115, 0.03900302201509476, -0.012578124180436134, -0.10110718756914139, 0.08737237006425858, 0.07259158790111542, -0.10298926383256912, -0.07488520443439484, 0.17510169744491577, 0.08442813158035278, -0.09374074637889862, 0.05427492782473564, -0.05345489829778671, -0.06279616057872772, 0.03193286061286926], [-0.13062520325183868, 0.03847499191761017, -0.21304725110530853, 0.04713163897395134, -0.21793314814567566, -0.08611860126256943, -0.08219608664512634, 0.0735403299331665, 0.026114657521247864, -0.030757073312997818, 0.011787885800004005, 0.003410777309909463, 0.012277191504836082, 0.003374833380803466, -0.0654665157198906, -0.04596903920173645, 0.022070808336138725, 0.05873366817831993, 0.022786689922213554, -0.007652152795344591, -0.033215273171663284, 0.011079579591751099, -0.6001854538917542, 0.049005404114723206, 0.07000943273305893, -0.1405540257692337, 0.019475681707262993, 0.0349762924015522, 0.015463055111467838, -0.0014976095408201218, -0.11640428006649017, 0.029751265421509743, 0.134831964969635, -0.042958103120326996, 0.05097699537873268, 0.005603541620075703, -0.018352309241890907, 0.06462480127811432, -0.04992886632680893, 0.059325143694877625, 0.03549732640385628, 0.060410987585783005, -0.029879022389650345, 0.07249809056520462, 0.06631949543952942], [0.14005662500858307, 0.048849936574697495, 0.17412592470645905, -0.20401939749717712, 0.07646726071834564, -0.32627400755882263, -0.037415046244859695, 0.024043289944529533, 0.060834456235170364, 0.0058598145842552185, 0.009407834149897099, -0.07805881649255753, -0.24549248814582825, -0.040312621742486954, -0.10018020123243332, -0.020955605432391167, -0.007312204223126173, 0.08888296782970428, -0.06877320259809494, 0.0643746554851532, 0.06080516427755356, -0.01877516880631447, 0.2844935357570648, 0.3828749358654022, -0.009496576152741909, 0.016561876982450485, -0.11593785136938095, 0.10725822299718857, -0.07348483800888062, 0.05610710382461548, -0.08253397792577744, 0.0672798678278923, -0.03269649296998978, -0.12235334515571594, -0.004920598119497299, 0.01549599226564169, 0.0800580158829689, -0.04110473766922951, -0.05516655743122101, 0.046714939177036285, 0.017267264425754547, 0.01957697793841362, 0.034105703234672546, -0.040323302149772644, 0.004975662101060152], [-0.1632160246372223, -0.034442853182554245, 0.14052505791187286, -0.18230070173740387, 0.28545475006103516, -0.24665173888206482, 0.037042971700429916, 0.018826397135853767, -0.025610024109482765, 0.15758177638053894, 0.0067047057673335075, -0.11872509121894836, 0.0989246666431427, -0.19001027941703796, -0.01649271883070469, -0.058373041450977325, 0.007367925252765417, 0.01849702000617981, -0.05295652523636818, -0.1377211958169937, -0.016294997185468674, 0.011280717328190804, 0.07609744369983673, 0.3333244323730469, -0.22057151794433594, -0.01931031048297882, -0.022894736379384995, -0.19553042948246002, -0.08505485951900482, 0.020956233143806458, 0.03582223504781723, -0.17323149740695953, 0.09533796459436417, 0.08430086076259613, 0.03796708583831787, -0.14748124778270721, 0.01777065359055996, -0.03674287348985672, -0.02089792490005493, -0.004339962266385555, -0.05031469836831093, -0.06553243845701218, 0.028993526473641396, -0.0246629249304533, 0.01650543324649334], [-0.12384860962629318, 0.017333587631583214, -0.09689486026763916, 0.19079448282718658, -0.05337999016046524, 0.34351372718811035, -0.061227403581142426, 0.10734032094478607, -0.035209864377975464, 0.09618818014860153, -0.0046178605407476425, 0.16328848898410797, 0.2504657804965973, 0.03901867941021919, -0.05082228034734726, -0.011151337996125221, 0.024316946044564247, -0.03737347573041916, 0.03278938680887222, -0.00011248567898292094, -0.003930212464183569, 0.02418319322168827, -0.5622866749763489, -0.3433248996734619, -0.12092892825603485, -0.07099878042936325, 0.036971718072891235, 0.02344914898276329, -0.012668927200138569, 0.002796874148771167, -0.04543376713991165, -0.09170019626617432, 0.031347621232271194, 0.03236991912126541, -0.09492141753435135, 0.024639490991830826, -0.060770224779844284, 0.143178328871727, 0.047224704176187515, -0.032978471368551254, 0.054404616355895996, 0.012471456080675125, -0.11180877685546875, -0.008710428141057491, 0.0990343764424324], [0.040784966200590134, -0.13370953500270844, 0.05102131888270378, -0.07507665455341339, -0.0009770671604201198, -0.10191494971513748, 0.07641992717981339, -0.14332595467567444, -0.0816677063703537, -0.08051646500825882, -0.022069422528147697, 0.04475463926792145, 0.2776215672492981, 0.07160171121358871, 0.04219590872526169, 0.008724348619580269, 0.04743305966258049, -0.0200212299823761, 0.1247745230793953, 0.07121062278747559, 0.028365952894091606, -0.08920789510011673, 0.5512707233428955, 0.10009001940488815, -0.15713372826576233, 0.023088881745934486, -0.16101443767547607, -0.022020205855369568, -0.04615999758243561, -0.09636107832193375, -0.0017240113811567426, 0.07192808389663696, -0.05692033842206001, 0.07231339067220688, 0.015345059335231781, -0.006101635750383139, -0.0701683834195137, -0.008403130806982517, 0.15713205933570862, 0.05170532688498497, -0.03183186799287796, 0.005426035728305578, 0.003348269499838352, -0.045119620859622955, -0.06227950379252434], [0.01817183382809162, 0.060197412967681885, -0.057920537889003754, 0.1958831250667572, -0.08708477020263672, 0.39206066727638245, 0.03922182694077492, 0.0704730972647667, 0.00765201635658741, 0.030006706714630127, 0.0863037109375, -0.005911567248404026, -0.12073633819818497, 0.05481622740626335, 0.08616580069065094, 0.0021548052318394184, -0.11317767947912216, -0.03217107057571411, 0.06305199861526489, -0.08224745839834213, -0.0004907646216452122, 0.14277152717113495, -0.5068718791007996, -0.34768977761268616, -0.0016500173369422555, 0.00018321129027754068, 0.0648714080452919, -0.07320450246334076, -0.02129056304693222, 0.1275341957807541, -0.008111180737614632, 0.014194154180586338, 0.037354521453380585, 0.03451378270983696, -0.0011088012252002954, 0.003017445094883442, 0.05547056719660759, 0.08703068643808365, -0.04066706821322441, -0.11724673211574554, 0.031721003353595734, -0.06334816664457321, 0.03762248903512955, -0.04356852173805237, 0.0970340296626091], [-0.21860414743423462, 0.035345740616321564, 0.09481903910636902, 0.020629286766052246, 0.1807001680135727, 0.11611702293157578, -0.002008030889555812, -0.01225262600928545, 0.08790029585361481, 0.026376573368906975, 0.1049821749329567, -0.1997600495815277, -0.3532080054283142, -0.0741938054561615, -0.018633002415299416, -0.0699189156293869, 0.08350745588541031, -0.08405093848705292, -0.018086383119225502, -0.22477468848228455, 0.006973859388381243, 0.10451432317495346, -0.11479386687278748, -0.09736577421426773, 0.0841035321354866, -0.05975305289030075, 0.09595470875501633, 0.05978617072105408, -0.017501214519143105, 0.07972796261310577, 0.06984103471040726, -0.048752956092357635, -0.05025622993707657, -0.02647351287305355, 0.1362726241350174, -0.10891355574131012, 0.09293234348297119, -0.0400916188955307, -0.09203016757965088, -0.12879957258701324, 0.0035892429295927286, 0.06062570586800575, -0.11761415749788284, 0.027951745316386223, 0.040177926421165466], [-0.05009688064455986, 0.12235412746667862, -0.08000427484512329, 0.020868266001343727, -0.03885437920689583, -0.1889829784631729, -0.14892442524433136, 0.10006862133741379, -0.012763644568622112, 0.051973968744277954, 0.11827833205461502, 0.020875126123428345, -0.14753679931163788, -0.12468494474887848, 0.0073377592489123344, -0.07992732524871826, 0.03745137155056, -0.007109535858035088, -0.0955541729927063, -0.03667552024126053, 0.03987955302000046, 0.10880400985479355, -0.6165259480476379, 0.06890830397605896, 0.14031952619552612, -0.10732259601354599, 0.11278069019317627, -0.16668902337551117, 0.020320534706115723, 0.1209917664527893, 0.08475121855735779, -0.13933990895748138, 0.12429111450910568, 0.09561393409967422, -0.03412832319736481, -0.06363315880298615, 0.008759904652833939, 0.020908096805214882, -0.062067944556474686, -0.023562971502542496, 0.0980127826333046, 0.07552224397659302, -0.10337575525045395, -0.024770352989435196, 0.05762963742017746], [-0.15099000930786133, 0.02997492253780365, 0.0009492767858318985, 0.136941060423851, -0.02491575852036476, 0.13926230370998383, -0.1007588803768158, 0.03429117426276207, -0.04058193042874336, 0.03400944545865059, 0.025003686547279358, -0.14308173954486847, -0.3798602819442749, -0.10262643545866013, 0.04286320134997368, 0.043558087199926376, -0.020987186580896378, -0.000606979476287961, -0.02487432211637497, -0.03317093476653099, 0.05911624804139137, 0.0814281702041626, -0.41154709458351135, -0.18209080398082733, 0.15320365130901337, 0.04242676496505737, 0.02620980702340603, -0.024325057864189148, -0.05322360247373581, 0.06988588720560074, 0.02548825740814209, 0.08370852470397949, 0.03839494660496712, -0.012050543911755085, 0.04484029486775398, 0.001816270756535232, 0.08532849699258804, -0.08004200458526611, -0.014798944815993309, 0.024327339604496956, 0.04675193503499031, 0.033003631979227066, 0.002535546664148569, 0.004597495310008526, 0.19748178124427795], [0.05862722173333168, -0.10513141006231308, 0.08997464925050735, -0.1148742139339447, 0.01679692231118679, -0.10559830069541931, 0.07332579046487808, -0.06669778376817703, 0.0278715081512928, -0.04691923409700394, -0.08091887831687927, -0.086378313601017, 0.18702515959739685, -0.05012592673301697, 0.06059024855494499, 0.13444960117340088, 0.0022105476818978786, 0.0791938379406929, 0.03706933557987213, 0.011538445949554443, -0.0182967372238636, -0.13818441331386566, 0.9303206205368042, -0.06844650954008102, -0.05639592558145523, 0.14911089837551117, -0.06120283156633377, 0.08076313138008118, 0.03800596296787262, -0.13199065625667572, -0.003370593534782529, 0.0891144871711731, -0.06657480448484421, -0.08816874027252197, -0.00026189329219050705, 0.008304985240101814, 0.07354710251092911, -0.1143038347363472, 0.22299067676067352, 0.012118740007281303, -0.103753000497818, -0.0882263034582138, 0.03040003962814808, -0.009725715965032578, -0.09330932050943375], [-0.03754858300089836, -0.08978007733821869, -0.029808202758431435, -0.2079954445362091, 0.06596468389034271, -0.24545522034168243, 0.16315455734729767, 0.04158329218626022, -0.0760084018111229, 0.08470697700977325, -0.004385754931718111, 0.22635099291801453, 0.23771552741527557, -0.00517987459897995, -0.05225927010178566, 0.06168156862258911, -0.0002880011161323637, -0.05978811904788017, 0.13995186984539032, 0.0628831535577774, -0.11692941933870316, -0.015736136585474014, 0.2399802953004837, 0.3299456238746643, -0.21390733122825623, 0.007467017043381929, -0.2217579185962677, -0.05923158675432205, -0.019569434225559235, -0.12121821939945221, -0.07702915370464325, -0.06558789312839508, -0.09787347167730331, -0.018395937979221344, -0.08589447289705276, -0.09856194257736206, 0.007538145873695612, 0.14022359251976013, 0.021639667451381683, 0.06782451272010803, -0.020305249840021133, -0.03145459294319153, 0.08875960856676102, -0.05006999894976616, -0.060941219329833984], [0.06490756571292877, 0.09258322417736053, -0.1661575585603714, 0.16032172739505768, -0.21132361888885498, 0.25667035579681396, 0.052402447909116745, 0.05777479708194733, -0.09180036932229996, -0.0350937657058239, 0.005675611086189747, 0.15360479056835175, 0.18737660348415375, 0.040033623576164246, -0.044963810592889786, 0.0648932233452797, 0.18539732694625854, 0.05835884436964989, 0.021195972338318825, -0.02379511296749115, -0.07963770627975464, 0.0029267205391079187, -0.4645245373249054, -0.23586983978748322, -0.06014293432235718, -0.025777168571949005, 0.06833193451166153, 0.05075781047344208, -0.07401908934116364, 0.006842006929218769, 0.006170167122036219, -0.0389707125723362, 0.01684846170246601, 0.02286234311759472, -0.07385628670454025, 0.00043803377775475383, -0.06583913415670395, 0.10483641922473907, 0.010186453349888325, 0.006215061526745558, -0.053047679364681244, -0.03950314223766327, -0.04607146978378296, 0.05408709496259689, 0.03011559322476387], [0.08574981242418289, -0.06368180364370346, -0.0703241303563118, -0.06549330055713654, -0.07156950235366821, 0.1309882402420044, 0.0732366144657135, -0.09072961658239365, 0.06570093333721161, -0.06820017099380493, 0.03246234357357025, 0.259074866771698, 0.28557875752449036, 0.08504191040992737, -0.03965139389038086, 0.03195057064294815, 0.03055308759212494, 0.036863259971141815, 0.06863516569137573, 0.0927882269024849, -0.05488906055688858, -0.03152706101536751, 0.16805535554885864, -0.2042033076286316, -0.11587739735841751, -0.17529338598251343, -0.09156502038240433, 0.08241087198257446, -0.11961276084184647, 0.030724406242370605, -0.06822721660137177, 0.03744187578558922, -0.14413250982761383, 0.0014658337458968163, -0.13953104615211487, -0.017009224742650986, 0.06964529305696487, 0.06404508650302887, 0.07759422063827515, 0.030240334570407867, -0.04549121484160423, -0.033731766045093536, 0.004435972310602665, 0.04144921153783798, -0.009352092631161213], [-0.08639112114906311, -0.11005309224128723, 0.16253668069839478, -0.06139032170176506, 0.23245549201965332, 0.2141977995634079, 0.18411977589130402, -0.25334373116493225, 0.008943499065935612, -0.10983532667160034, -0.13130100071430206, -0.06042613834142685, -0.025828732177615166, -0.05750103294849396, 0.011829163879156113, -0.013034289702773094, 0.07112611830234528, 0.1402571052312851, -0.1271151900291443, -0.10388676822185516, -0.041212137788534164, -0.05615072697401047, -0.027901161462068558, -0.20366217195987701, 0.10449743270874023, 0.00028303207363933325, -0.031109126284718513, 0.03693416714668274, 0.13300389051437378, -0.07255212962627411, -0.1182149201631546, 0.005777635145932436, 0.006345526780933142, -0.04122546315193176, 0.0036110065411776304, 0.011700688861310482, 0.023031339049339294, -0.13512703776359558, -0.13476485013961792, 0.007689265068620443, -0.07952998578548431, 0.003793330630287528, 0.17137104272842407, 0.016988391056656837, -0.1011623665690422], [0.13958311080932617, 0.07945238053798676, -0.026357118040323257, -0.008608045056462288, -0.09065432101488113, -0.292196661233902, 0.04209655895829201, 0.07246749848127365, -0.0317535325884819, -0.03800126165151596, -0.06227172538638115, 0.1204637959599495, 0.3915528357028961, -0.014003032818436623, 0.03709673509001732, -0.02416473999619484, 0.06566178798675537, -0.10096096992492676, 0.13704320788383484, 0.09045720845460892, -0.018394576385617256, 0.01757224276661873, -0.17276817560195923, 0.34981608390808105, -0.09622091799974442, -0.044603440910577774, 0.01816263422369957, -0.08781636506319046, 0.018874268978834152, 0.10982352495193481, -0.2643049657344818, 0.013515952974557877, -0.0656147375702858, 0.09437675774097443, -0.24642035365104675, 0.0350058414041996, 0.026496196165680885, 0.2190081626176834, -0.08406596630811691, -0.08545312285423279, 0.037682678550481796, 0.034711796790361404, -0.024367813020944595, 0.009801913052797318, -0.031183045357465744], [-0.08895774930715561, 0.007226336281746626, 0.058352597057819366, 0.04121234267950058, 0.08334832638502121, 0.13189566135406494, -0.022917000576853752, -0.019656432792544365, -0.007896743714809418, 0.005714762024581432, 0.0509626567363739, -0.10726753622293472, -0.46734532713890076, -0.09482800215482712, -0.03082975372672081, -0.038314200937747955, -0.025417529046535492, -0.013847430236637592, -0.022357773035764694, -0.13363613188266754, 0.04679606109857559, 0.054966602474451065, -0.323054701089859, -0.06324418634176254, 0.18616938591003418, 0.06809985637664795, -0.003576140385121107, 0.0018590405816212296, 0.09898687154054642, 0.12994837760925293, -0.0995984748005867, -0.035027503967285156, 0.11043277382850647, -0.022418677806854248, 0.05519682168960571, -0.012572422623634338, 0.04805397242307663, -0.03358812630176544, -0.031280022114515305, -0.09157521277666092, 0.04684249684214592, 0.11311673372983932, -0.0740177184343338, 0.07195950299501419, 0.12233100086450577], [0.013873112387955189, 0.08523289114236832, -0.20843921601772308, 0.033660318702459335, -0.4150860905647278, -0.007807112764567137, -0.18364481627941132, -0.19983793795108795, 0.0950312688946724, 0.002373055787757039, -0.06687717884778976, 0.0027596582658588886, -0.08193344622850418, 0.07713653892278671, 0.07195503264665604, 0.007406709715723991, 0.009357805363833904, 0.07157711684703827, -0.10198286175727844, -0.044630568474531174, 0.06513883918523788, -0.021852558478713036, 0.17621862888336182, 0.06521753966808319, 0.13079144060611725, 0.00680763041600585, 0.024796372279524803, 0.053600478917360306, 0.07025185227394104, -0.08321061730384827, 0.017662551254034042, -0.02958986721932888, -0.007089823950082064, 0.09306994825601578, 0.12750904262065887, 0.055614858865737915, 0.08671959489583969, -0.05465811491012573, 0.02860337495803833, 0.06378452479839325, 0.012531360611319542, -0.0506979338824749, 0.0030694894958287477, 0.060001030564308167, 0.05282808840274811], [0.13414610922336578, -0.05092080682516098, 0.08681424707174301, -0.17667719721794128, 0.0034174148458987474, -0.19597601890563965, -0.05111333355307579, 0.09401001781225204, -0.045122887939214706, -0.014779768884181976, -0.0305586326867342, -0.19682015478610992, -0.08195719867944717, -0.027672961354255676, 0.06404586136341095, 0.03945641219615936, -0.005592233967036009, 0.10676401108503342, 0.01920487731695175, 0.08374153822660446, 0.0696096271276474, -0.06771740317344666, 0.7541002035140991, 0.25143465399742126, 0.062178224325180054, 0.12899130582809448, -0.013946138322353363, -0.030711673200130463, -0.0852624922990799, -0.03405506908893585, 0.13231562077999115, -0.0027951765805482864, -0.06518002599477768, 0.002305740024894476, 0.1528516709804535, -0.05857909843325615, -0.07163763791322708, -0.0895109698176384, 0.148433119058609, 0.007008012384176254, -0.010256563313305378, 0.0199897363781929, 0.07606657594442368, 0.028982246294617653, -0.09243699908256531], [-0.016376210376620293, -0.051958806812763214, 0.11063770949840546, 0.15774975717067719, 0.2308346927165985, 0.5321277379989624, 0.016632236540317535, -0.07505552470684052, -0.026855504140257835, 0.03484619781374931, 0.05191483348608017, -0.0647418349981308, -0.16498683393001556, 0.05437687411904335, 0.03957071155309677, 0.05081668496131897, 0.0642620250582695, -0.05259685218334198, -0.11318127065896988, -0.049101557582616806, 0.04621890187263489, -0.06422723084688187, 0.05319581553339958, -0.41410645842552185, 0.017847279086709023, 0.15533554553985596, 0.03623564541339874, -0.04395202174782753, 0.06497061997652054, -0.0638556107878685, 0.038730088621377945, 0.01235826127231121, 0.03330903500318527, 0.08700989186763763, 0.07923584431409836, -0.07796581089496613, 0.02767861634492874, -0.04927071928977966, 0.07694488763809204, 0.04059239849448204, -0.014260574243962765, 0.020802129060029984, 0.0005032146582379937, -0.05121834576129913, -0.13149000704288483], [-0.025954147800803185, -0.0981360450387001, 0.041502468287944794, -0.29332205653190613, 0.12240166962146759, -0.33711522817611694, 0.023267162963747978, 0.07400935888290405, 0.014984066598117352, -0.029604297131299973, -0.0035361365880817175, 0.022017190232872963, 0.06097354739904404, -0.13287441432476044, -0.042830098420381546, 0.04291800409555435, 0.01758909411728382, -0.017604345455765724, -0.0274660624563694, 0.021954001858830452, -0.004562965128570795, 0.057860661298036575, 0.3421761691570282, 0.3922739624977112, -0.10146631300449371, -0.11439280211925507, -0.033060960471630096, -0.05540333688259125, -0.016902713105082512, 0.018338724970817566, 0.04259740561246872, -0.00971599854528904, 0.07123029977083206, -0.04979189485311508, -0.027561044320464134, -0.022622767835855484, -0.007348302751779556, 0.034071460366249084, 0.05391625314950943, -0.04229256510734558, -0.03101770393550396, 0.025559909641742706, 0.08064933121204376, -0.07653933763504028, -0.0071478639729321], [-0.05817938596010208, 0.028640860691666603, -0.1363365650177002, 0.22059975564479828, -0.15382763743400574, 0.23779559135437012, -0.0517006553709507, -0.0005138164851814508, 0.03599933162331581, -0.012677428312599659, -0.008809329010546207, 0.13599449396133423, 0.2794230282306671, 0.06791208684444427, -0.029101531952619553, 0.0570208914577961, 0.02553551085293293, -0.02228885516524315, -0.006422313861548901, 0.10111580044031143, -0.08320027589797974, 0.008760897442698479, -0.6169970631599426, -0.2307351529598236, -0.1003442332148552, -0.05710846185684204, 0.06904380768537521, -0.11342953145503998, -0.01207790244370699, -0.027196340262889862, -0.08337289094924927, -0.06880882382392883, 0.03344041854143143, 0.030095867812633514, -0.02400442212820053, 0.0657712072134018, -0.05336186662316322, 0.06679871678352356, 0.0407857708632946, 0.0457986481487751, 0.04925766587257385, 0.00849971268326044, -0.12294954806566238, 0.05168454349040985, 0.00035343016497790813], [-0.07783310860395432, -0.0683707594871521, 0.23154760897159576, 0.13275417685508728, 0.2215607464313507, 0.3789418339729309, 0.1542743593454361, 0.1336219310760498, -0.07612685859203339, 0.016277840360999107, -0.018317580223083496, 0.14837811887264252, 0.03129450976848602, 0.06928005069494247, 0.029302092269062996, 0.05016641691327095, 0.06230867654085159, 0.026853185147047043, -0.14258895814418793, 0.03856110945343971, -0.05416485667228699, -0.07733714580535889, 0.021534942090511322, -0.4779582619667053, -0.09190941601991653, 0.12504830956459045, 0.11794823408126831, 0.011332071386277676, -0.07238247245550156, -0.08993357419967651, 0.057733599096536636, 0.09042948484420776, 0.07392890751361847, -0.004915345460176468, -0.06175420433282852, -0.035606615245342255, 0.04582609981298447, -0.1252475380897522, 0.005161608103662729, 0.08880523592233658, 0.032206691801548004, -0.06700126826763153, -0.018324268981814384, 0.004683449864387512, -0.07594498246908188], [-0.10966376960277557, -0.005880153737962246, 0.0032940946985036135, 0.0906950831413269, -0.04587753862142563, 0.21308565139770508, -0.05495930835604668, -0.034424103796482086, 0.02832457236945629, 0.02743678167462349, 0.025598125532269478, -0.09877385199069977, -0.3912176191806793, 0.010776253417134285, 0.00756634958088398, 0.02496553771197796, 0.005209591705352068, 0.054082248359918594, -0.18849627673625946, -0.1002422422170639, -0.005931009538471699, 0.007752866949886084, -0.15334203839302063, -0.2333955466747284, 0.03414174169301987, 0.05688050761818886, 0.0004352395189926028, 0.1215372234582901, -0.07631470263004303, 0.12507416307926178, -0.07271785289049149, 0.02913299761712551, -0.015383468940854073, 0.0197959765791893, 0.05716712027788162, -0.012969130650162697, -0.004339067731052637, -0.08224336802959442, -0.05922712758183479, 0.036095406860113144, 0.009199081920087337, 0.04761084169149399, 0.07522530853748322, -0.11427707970142365, 0.11582580953836441], [0.07854218780994415, 0.0439772829413414, -0.13047680258750916, 0.10882604122161865, -0.06877351552248001, 0.09762749820947647, 0.11650770902633667, -0.15263454616069794, -0.09337814897298813, -0.06554191559553146, -0.03769645467400551, 0.06787555664777756, 0.4001443088054657, 0.03917533531785011, 0.04075342044234276, -0.005290387198328972, -0.024227706715464592, -0.11791395395994186, 0.016347160562872887, 0.07529562711715698, -0.03700186684727669, 0.0038855390157550573, 0.2978837490081787, -0.0326833501458168, -0.12471719831228256, -0.019793381914496422, -0.018827619031071663, 0.020924532786011696, -0.0011257595615461469, -0.07864250987768173, -0.0099504878744483, 0.08589067310094833, -0.14145496487617493, 0.01595243811607361, -0.19526790082454681, 0.03889278694987297, -0.00608775345608592, 0.036720938980579376, 0.020260047167539597, -0.003999515902251005, -0.018308810889720917, -0.020941952243447304, 0.011474689468741417, -0.032148029655218124, 0.02762354351580143], [-0.060161665081977844, 0.11279457807540894, -0.003997330088168383, 0.129750594496727, -0.04692317172884941, 0.15750667452812195, -0.009240472689270973, -0.07913423329591751, -0.0423429012298584, -0.02792223170399666, -0.021495727822184563, -0.20381756126880646, -0.42948874831199646, -0.09269202500581741, 0.024112682789564133, -0.08012057840824127, -0.06364207714796066, 0.03064057044684887, -0.09033973515033722, 0.06659077107906342, 0.07113400846719742, 0.07264700531959534, -0.2393077313899994, -0.20305508375167847, 0.15599468350410461, -0.08422370254993439, 0.07966116070747375, 0.11450908333063126, -0.02275368757545948, 0.06505298614501953, 0.010852944105863571, 0.060515258461236954, -0.01437506452202797, -0.0565723218023777, 0.09362678229808807, 0.10338477045297623, -0.07706456631422043, -0.13109557330608368, 0.10045371949672699, 0.08236908167600632, -0.013730664737522602, 0.039573438465595245, 0.03955242410302162, -0.030363917350769043, 0.08310989290475845], [-0.023458629846572876, 0.1303367167711258, 0.06606269627809525, 0.12237025797367096, -0.040765661746263504, 0.23933468759059906, -0.061962567269802094, -0.06285268813371658, 0.07007178664207458, -0.052090369164943695, 0.06880640983581543, -0.21358957886695862, -0.27184706926345825, -0.03466567397117615, -0.0345945730805397, -0.0448899008333683, 0.015166401863098145, 0.017970101907849312, -0.09821222722530365, -0.05594690144062042, 0.015322049148380756, 0.025277364999055862, 0.023959225043654442, -0.23457853496074677, 0.09852716326713562, 0.10292982310056686, 0.07026587426662445, 0.12120306491851807, 0.22081215679645538, -0.00047575958888046443, 0.04823082312941551, 0.12173808366060257, -0.043403998017311096, -0.07593529671430588, 0.09212766587734222, -0.09209316968917847, 0.07550189644098282, -0.01817244477570057, -0.03638460859656334, -0.0898011326789856, -0.02093546837568283, -0.0015467617195099592, 0.07203113287687302, -0.05670590698719025, 0.020932499319314957], [0.011494232341647148, 0.01673087850213051, 0.053425733000040054, -0.2316817343235016, 0.09807519614696503, -0.319804310798645, 0.0058189318515360355, 0.018764687702059746, 0.008864707313477993, 0.06564481556415558, 0.017043177038431168, -0.0019592943135648966, -0.1805640161037445, -0.021667512133717537, -0.014192181639373302, -0.09453893452882767, -0.035244934260845184, 0.07699047774076462, 0.026372354477643967, 0.004090479575097561, -0.07246456295251846, -0.08096182346343994, 0.3587459921836853, 0.40083199739456177, 0.006716911215335131, -0.16976241767406464, -0.13917121291160583, 0.10040697455406189, -0.11848551779985428, -0.04753598943352699, -0.016517972573637962, 0.03868234157562256, 0.03962588682770729, -0.029009012505412102, -0.03369547799229622, 0.036593180149793625, -0.08927180618047714, -0.12577977776527405, -0.080423504114151, 0.0736236646771431, -0.03834712505340576, 0.021080410107970238, -0.016196532174944878, -0.024214059114456177, -0.06685929745435715], [-0.09305357933044434, 0.04349185898900032, -0.004326351452618837, 0.14876426756381989, 0.2782508432865143, 0.22537121176719666, 0.06425637006759644, -0.000772328581660986, 0.03022136725485325, 0.02695460431277752, 0.12183930724859238, -0.07055871933698654, -0.2539516091346741, -0.0040808385238051414, 0.00020750571275129914, -0.03316987678408623, 0.009504804387688637, -0.04280112683773041, -0.08097904920578003, -0.07198892533779144, 0.06651737540960312, 0.0656588077545166, -0.24431200325489044, -0.22888115048408508, 0.09308459609746933, -0.018734639510512352, 0.13669301569461823, -0.05390027165412903, -0.012411649338901043, -0.009635129012167454, 0.03664899989962578, -0.05436599254608154, -0.04178815707564354, 0.017597099766135216, 0.0643540546298027, -0.07078415155410767, 0.11647889018058777, -0.04792112112045288, -0.05452169105410576, -0.039472658187150955, 0.0719577819108963, 0.05403547361493111, -0.024332279339432716, 0.0027964774053543806, 0.13260160386562347], [0.04735150560736656, 0.08484172821044922, -0.048453640192747116, 0.1368057131767273, -0.11607658863067627, 0.3430269956588745, -0.06284718960523605, -0.002671358408406377, 0.03637223690748215, -0.0625557228922844, 0.03161336109042168, 0.012588118202984333, 0.08793793618679047, 0.19130581617355347, 0.06926460564136505, 0.044659484177827835, 0.004999429918825626, -0.09984008967876434, -0.005906167905777693, 0.04418027028441429, -0.0863996371626854, -0.07382293045520782, -0.02023138850927353, -0.36421793699264526, 0.0013679005205631256, 0.10380899161100388, -0.0404430516064167, 0.08283635973930359, 0.11032784730195999, -0.08924377709627151, -0.004240864422172308, 0.04599723592400551, 0.006338747683912516, -0.028222087770700455, 0.039097223430871964, 0.0037036228459328413, 0.09403954446315765, -0.0012919072760269046, 0.10308439284563065, -0.014990674331784248, -0.06035785749554634, 0.08339560031890869, 0.05495075136423111, 0.02772802673280239, 0.13559238612651825], [0.14267458021640778, -0.03451566398143768, 0.01892836019396782, -0.1677350401878357, -0.11286543309688568, -0.0813688412308693, 0.06493111699819565, -0.05724814161658287, 0.04615981504321098, -0.0026801100466400385, -0.14113634824752808, -0.09179011732339859, 0.09854847192764282, 0.04875459894537926, 0.014792102389037609, 0.0795815959572792, 0.051843516528606415, 0.029542269185185432, 0.05900699272751808, 0.10215737670660019, -0.03154434263706207, -0.15912804007530212, 0.8764439821243286, 0.13481034338474274, -0.03253746032714844, 0.002087636385113001, 0.04310523718595505, 0.030585527420043945, -0.018134742975234985, -0.09102070331573486, 0.1588250994682312, 0.07114634662866592, -0.0028919510077685118, 0.0026876376941800117, 0.20430399477481842, -0.014633642509579659, -0.1086251512169838, -0.11557585746049881, 0.26365751028060913, 0.07758839428424835, 0.007634851615875959, 0.01587146334350109, 0.02654210291802883, -0.059548527002334595, -0.016225872561335564], [-0.06582906097173691, -0.021058861166238785, -0.15707561373710632, 0.048976439982652664, -0.12215010076761246, 0.025923175737261772, 0.046892199665308, -0.004966588690876961, 0.03811481595039368, -0.0071638766676187515, 0.08379760384559631, 0.22583730518817902, 0.27443063259124756, 0.045753203332424164, 0.0015732801984995604, -0.06936246156692505, 0.10827537626028061, 0.011496133171021938, 0.09646963328123093, -0.02586713247001171, -0.14607766270637512, -0.05413416773080826, -0.4734063744544983, -0.0487029142677784, -0.1470555067062378, -0.08778668940067291, -0.07070328295230865, 0.05188397690653801, -0.009674879722297192, -0.051291003823280334, -0.1338760107755661, 0.0001384541974402964, -0.10411149263381958, 0.03621697798371315, -0.04516461491584778, -0.04808768257498741, -0.06698297709226608, 0.1387593001127243, -0.09773971885442734, 0.024538127705454826, -0.015473012812435627, 0.029103117063641548, -0.020157549530267715, -0.018802577629685402, 0.052511684596538544], [0.09595047682523727, -0.1154620423913002, -0.05713694170117378, -0.09301936626434326, -0.0921495109796524, -0.17002497613430023, 0.04252961650490761, -0.11206331104040146, 0.03536767140030861, -0.09856567531824112, -0.1302819550037384, -0.0025648113805800676, 0.13773612678050995, 0.07808325439691544, 0.03968530520796776, 0.004481041803956032, -0.03540974110364914, 0.04471440240740776, 0.0023146802559494972, 0.08736226707696915, 0.034313950687646866, -0.053651805967092514, 0.8795217871665955, 0.11387679725885391, -0.20422816276550293, -0.023896383121609688, 0.0814787745475769, 0.10981982946395874, -0.09682082384824753, -0.17409153282642365, 0.04785734787583351, 0.14410744607448578, -0.12281426787376404, -0.04393261298537254, 0.015140252187848091, 0.01732155866920948, -0.05961437150835991, -0.04430631548166275, 0.1273316591978073, -0.03179105371236801, -0.12847530841827393, 0.056245356798172, 0.05677659437060356, 0.0712408646941185, -0.07665944844484329], [0.11596503853797913, 0.016260452568531036, -0.15468156337738037, 0.19937703013420105, -0.25332334637641907, 0.3688284158706665, -0.062051016837358475, 0.02365383505821228, -0.054586827754974365, -0.0057655503042042255, 0.019383693113923073, 0.11814430356025696, 0.07689321041107178, 0.18227361142635345, 0.09708820283412933, 0.047818370163440704, -0.10762009024620056, -0.023969480767846107, 0.012300719507038593, 0.16828858852386475, -0.0269776564091444, 0.04170016571879387, -0.035085998475551605, -0.5120682716369629, 0.07890290021896362, 0.0059705814346671104, -0.07250812649726868, -0.06851045042276382, 0.08887580037117004, -0.09389708191156387, 0.13892489671707153, -0.03494478017091751, 0.10808583348989487, -0.05899877846240997, 0.049224045127630234, 0.08171505481004715, -0.07337842136621475, -0.18152691423892975, 0.1504688262939453, 0.13931596279144287, 0.020314211025834084, -0.01158110424876213, -0.06285752356052399, 0.05249433591961861, -0.06310421973466873], [-0.0494307242333889, -0.07508621364831924, 0.06721240282058716, -0.1631394922733307, 0.17300273478031158, -0.013187438249588013, 0.11272194236516953, -0.034734297543764114, 0.033064015209674835, -0.03815319016575813, -0.08337744325399399, -0.17846855521202087, -0.09142877906560898, 0.002451355569064617, 0.04864903539419174, 0.033868178725242615, -0.09427698701620102, 0.06832735240459442, -0.05305325984954834, -0.04927297309041023, -0.03409930318593979, -0.06126989796757698, 0.6345801949501038, -0.041174452751874924, 0.021121516823768616, -0.020253924652934074, -0.07786858081817627, 0.11334317177534103, 0.02517971396446228, -0.14680007100105286, -0.05988981947302818, 0.08960995823144913, -0.06826917827129364, -0.11333134770393372, 0.09218653291463852, -0.0536835603415966, 0.03895648568868637, -0.17196764051914215, 0.12991836667060852, 0.06022999808192253, 0.02946016564965248, -0.0065244706347584724, 0.08492197096347809, -0.03229423612356186, -0.0826897919178009], [-0.06500102579593658, -0.000478210422443226, 0.004453590605407953, 0.12589596211910248, 0.1284753382205963, 0.21592186391353607, -0.1208948940038681, 0.004224044736474752, 0.04973945766687393, 0.05023694038391113, 0.05202765017747879, -0.1737438589334488, -0.3376736342906952, 0.013893825933337212, -0.011997407302260399, 0.011460890993475914, 0.06100191920995712, 0.03531492501497269, -0.02722005918622017, -0.11996603012084961, 0.1380607634782791, -0.0054946355521678925, -0.12464602291584015, -0.23617972433567047, 0.18189337849617004, 0.06246811896562576, 0.17371997237205505, 0.04612324386835098, -0.049778178334236145, 0.07464843988418579, 0.0513177253305912, 0.04487600922584534, 0.02461959607899189, -0.020478995516896248, -0.0016568213468417525, 0.02707909792661667, 0.07212692499160767, -0.07292836904525757, -0.07237650454044342, 0.006925296038389206, -0.06377588957548141, -0.009300540201365948, -0.0246074628084898, -0.007204527501016855, 0.06587888300418854], [-0.050679467618465424, 0.07387170940637589, 0.047388430684804916, 0.17053420841693878, -0.008239204064011574, 0.2016020566225052, 0.024621402844786644, 0.017016291618347168, -0.02230353094637394, 0.08263113349676132, 0.07705917954444885, -0.004435965791344643, -0.14114660024642944, -0.048194922506809235, -0.005996808409690857, 0.003067341633141041, 0.008798817172646523, 0.009559810161590576, -0.06872066110372543, -0.14236053824424744, -0.009818250313401222, 0.06753898411989212, -0.8745042681694031, -0.18108917772769928, 0.1275182068347931, 0.009014613926410675, 0.023778732866048813, -0.1253042072057724, 0.12402848899364471, 0.09823425859212875, -0.06637365370988846, -0.09565059840679169, 0.1183362677693367, 0.07589738070964813, -0.041321221739053726, -0.08682381361722946, 0.08879011869430542, 0.07101815193891525, -0.14271922409534454, 0.0008601016597822309, 0.060157410800457, 0.051931336522102356, -0.03797545284032822, 0.07865211367607117, 0.07367081195116043], [0.018234245479106903, 0.014510195702314377, -0.023857075721025467, 0.12828943133354187, -0.0934063270688057, 0.12641040980815887, -0.04243873059749603, 0.1618715226650238, -0.07824567705392838, 0.03440365940332413, 0.08348581939935684, 0.167255699634552, 0.07280372828245163, -0.01570800133049488, -0.1278734803199768, -0.12459214776754379, 0.021678611636161804, 0.034872930496931076, -0.02376032993197441, 0.08777247369289398, -0.03586481511592865, 0.12425146251916885, -0.7972131967544556, -0.15440259873867035, 0.028220001608133316, -0.0933564081788063, 0.04939659684896469, -0.10926114767789841, 0.04459583759307861, 0.0019657292868942022, -0.06372122466564178, -0.1249777302145958, 0.11001560837030411, 0.17785407602787018, -0.08458873629570007, 0.163066104054451, 0.020561998710036278, 0.09506318718194962, -0.09767808765172958, 0.06992565095424652, 0.0038130953907966614, 0.047566622495651245, -0.0814286395907402, 0.08267022669315338, 0.13116757571697235], [0.034150950610637665, 0.01525845192372799, -0.012366008013486862, -0.052563171833753586, -0.03862611949443817, -0.42800474166870117, -0.017570726573467255, -0.00630775885656476, 0.00026509090093895793, -0.10041876882314682, 0.03318389132618904, -0.08069108426570892, -0.27709662914276123, -0.15679623186588287, -0.0001855895679909736, -0.012638049200177193, -0.03897494077682495, -0.052222367376089096, -0.13598814606666565, 0.0537538155913353, 0.09992434084415436, 0.04372474178671837, 0.41947320103645325, 0.45765435695648193, 0.1977696418762207, -0.10142292827367783, 0.02579200081527233, -0.042323946952819824, 0.10907018184661865, 0.05996044725179672, 0.07179054617881775, -0.02883508987724781, 0.06563027948141098, -0.057790979743003845, 0.029342981055378914, -0.020435350015759468, 0.01850798726081848, -0.11506300419569016, -0.07201281934976578, 0.0620502308011055, 0.029015619307756424, 0.0008723654900677502, 0.11273422092199326, 0.016147945076227188, 0.07744814455509186], [-0.028845885768532753, 0.03844085708260536, 0.043279293924570084, 0.15131056308746338, -0.026490584015846252, 0.06869165599346161, -0.16427427530288696, 0.24621595442295074, 0.040835075080394745, 0.10612139850854874, 0.09966850280761719, -0.03520701825618744, -0.2891770601272583, -0.028782261535525322, 0.017942817881703377, -0.02265402302145958, -0.00902191549539566, -0.030405202880501747, -0.03184184804558754, -0.050179097801446915, -0.0649210587143898, 0.13051417469978333, -0.5180156826972961, -0.10817711800336838, 0.11464670300483704, -0.049967579543590546, 0.07522054761648178, -0.05877503380179405, -0.011835348792374134, 0.10443699359893799, -0.004021056927740574, -0.2010943442583084, 0.09602304548025131, 0.04870222508907318, 0.051916200667619705, 0.0009810837218537927, 0.026741651818156242, -0.024635137990117073, 0.018773511052131653, -0.003670270787551999, 0.08180060237646103, 0.05446983873844147, -0.07644263654947281, -0.020154668018221855, 0.09754227846860886], [-0.026050209999084473, 0.06241267919540405, 0.07165399193763733, 0.1965787410736084, -0.03249076008796692, 0.5162366032600403, 0.006797400303184986, -0.08810663223266602, -0.02508207969367504, -0.024255558848381042, -0.0106417927891016, -0.18574993312358856, -0.08793306350708008, 0.11055814474821091, 0.020121004432439804, 0.060914378613233566, -0.04154843091964722, 0.019635934382677078, 0.052730560302734375, 0.0435173474252224, 0.047693632543087006, 0.08896438032388687, -0.13072916865348816, -0.3853348195552826, 0.0796070247888565, -0.001504329266026616, 0.03036951832473278, 0.005663948133587837, 0.05934195965528488, -0.010351262986660004, 0.043877895921468735, -0.034644924104213715, -0.10895136743783951, -0.011001928709447384, -0.047044944018125534, -0.08190631121397018, 0.10130766034126282, -0.16385623812675476, -0.005066277459263802, 0.03871649131178856, -0.054894521832466125, 0.01063275896012783, -0.006329721305519342, 0.048231761902570724, 0.039501115679740906], [0.03318535163998604, 0.11649199575185776, -0.2221350371837616, 0.1609615534543991, -0.1739838421344757, -0.04700260981917381, 