{"version": 1, "obs_dim": 45, "act_dim": 10, "hidden": 128, "layers": [{"name": "hidden_0", "weight": [[0.05666682496666908, -0.015228497795760632, 0.016388004645705223, -0.12977607548236847, -0.02435361221432686, -0.39820539951324463, -0.030286073684692383, 0.0022320423740893602, 0.02320103347301483, 0.02394731342792511, -0.01969464123249054, -0.0636913850903511, -0.01124858669936657, 0.05692124739289284, 0.013164948672056198, -0.0009762421250343323, -0.032029036432504654, 0.04413219913840294, -0.15237309038639069, 0.03603010252118111, -0.08155269920825958, -0.000730853178538382, 0.36216971278190613, 0.346016526222229, -0.01804966852068901, 0.031555503606796265, 0.05551734194159508, 0.06501692533493042, -0.0899798646569252, 0.005222825333476067, 0.03254648298025131, 0.03422461077570915, 0.028982387855648994, -0.06659775972366333, -0.020764309912919998, -0.0960259735584259, -0.12833066284656525, -0.09153028577566147, 0.06350919604301453, 0.019196642562747, 0.04105877876281738, 0.020974162966012955, 0.03335925191640854, 0.06922249495983124, -0.060160912573337555], [0.03408994525671005, -0.08055974543094635, 0.1513153463602066, -0.14617285132408142, 0.11889689415693283, -0.2704998850822449, 0.05602848902344704, -0.020628882572054863, -0.017581716179847717, 0.032086942344903946, 0.06114710867404938, -0.09023533016443253, -0.09651226550340652, -0.05507684126496315, -0.08064703643321991, 0.08173191547393799, -0.05850694328546524, -0.004262873902916908, -0.05159412696957588, -0.01825026050209999, -0.010602842085063457, -0.07491898536682129, 0.4504548907279968, 0.2761509418487549, -0.06837361305952072, 0.07554689794778824, -0.03271659091114998, 0.03671965003013611, -0.05199439078569412, -0.10474300384521484, 0.017306210473179817, 0.05774587392807007, -0.058732252568006516, -0.058908332139253616, -0.09460815042257309, -0.011399556882679462, -0.021372796967625618, -0.12748591601848602, 0.003695359919220209, 0.06479167193174362, -0.003947749733924866, 0.06323502957820892, 0.04351384937763214, 0.07193063944578171, -0.05705774202942848], [-0.10950826853513718, 0.0862559825181961, -0.023002009838819504, 0.10866149514913559, -0.022520456463098526, 0.14265935122966766, 0.009665252640843391, -0.01838761940598488, 0.014600533992052078, 0.08717072755098343, -0.024553552269935608, 0.0749836415052414, 0.007532795891165733, 0.008784184232354164, -0.10372810810804367, 0.012535719200968742, -0.015745101496577263, 0.017569649964571, 0.12884564697742462, -0.09519403427839279, -0.001241424703039229, -0.027360351756215096, -0.8376354575157166, -0.08182062953710556, -0.03524046018719673, 0.053582657128572464, -0.1595257818698883, -0.07229427993297577, 0.08422432094812393, 0.1551433503627777, -0.10243311524391174, -0.005106881260871887, 0.11669401079416275, 0.0037853638641536236, -0.10990532487630844, -0.061942484229803085, 0.04212334379553795, 0.06262113153934479, -0.06199552118778229, -0.04789399355649948, 0.1078224703669548, 0.023975789546966553, -0.038244303315877914, 0.08954666554927826, 0.0493016354739666], [0.00937021803110838, -0.11602956056594849, -0.2695111334323883, -0.051713939756155014, -0.24194952845573425, 0.07796113193035126, -0.025216206908226013, 0.05737217888236046, -0.01327632274478674, -0.09118928015232086, -0.04365623742341995, 0.05027461051940918, -0.07188061624765396, -0.07886185497045517, -0.08370497077703476, 0.03966986760497093, 0.03443056717514992, -0.023517753928899765, 0.021697068586945534, 0.028789563104510307, -0.1510208249092102, -0.1118851751089096, -0.13331229984760284, 0.02269642986357212, 0.08000911772251129, -0.23058174550533295, 0.11670687049627304, 0.21408045291900635, -0.02790217287838459, -0.06331340223550797, -0.0597049742937088, 0.10418400168418884, -0.015642380341887474, -0.15602660179138184, 0.0817272961139679, 0.015289096161723137, 0.06334076821804047, 0.15737484395503998, 0.04610869288444519, -0.009073222987353802, 0.003576632123440504, -0.03700840473175049, 0.0560205839574337, 0.006407686043530703, -0.05282364413142204], [-0.15405815839767456, 0.07786937803030014, -0.11367166042327881, 0.04990478232502937, 0.040448784828186035, -0.18991664052009583, -0.1700449287891388, -0.0019072055583819747, -0.06331782788038254, 0.06806740164756775, -0.022902660071849823, 0.01600135862827301, -0.22566086053848267, -0.04259740933775902, -0.06030648946762085, 0.038489628583192825, 0.03412874415516853, -0.018948381766676903, 0.022446271032094955, -0.052732914686203, 0.04004645720124245, 0.08726490288972855, -0.3826797604560852, 0.2174721360206604, 0.1444990038871765, 0.08159393817186356, 0.06076319143176079, -0.08332954347133636, 0.06330287456512451, 0.07728641480207443, 0.0556388683617115, -0.0934370681643486, 0.14924199879169464, 0.10797632485628128, -0.018894972279667854, -0.004834969062358141, 0.04276981204748154, -0.10234201699495316, -0.03418509289622307, 0.013609831221401691, 0.10663619637489319, 0.10377178341150284, -0.033041030168533325, 0.06493008881807327, 0.17944186925888062], [-0.040440045297145844, -0.008591581135988235, 0.10256705433130264, -0.15315452218055725, 0.14855289459228516, -0.20257823169231415, 0.012263879179954529, 0.13804566860198975, -0.11387845128774643, -0.01895718462765217, -0.014068672433495522, -0.06465853750705719, -0.03961644321680069, -0.05721073970198631, 0.04094342887401581, 0.010017422959208488, -0.14223256707191467, -0.09176600724458694, -0.09233254194259644, -0.04073379188776016, -0.025200162082910538, -0.041097793728113174, 0.27616873383522034, 0.2780204713344574, -0.07576610147953033, -0.01227838359773159, -0.09121210873126984, 0.028505824506282806, -0.1135515421628952, -0.05953066796064377, 0.02213449962437153, 0.03537766635417938, 0.07086194306612015, 0.014683233574032784, 0.0040509640239179134, -0.015448963269591331, -0.11160411685705185, -0.029116477817296982, 0.0878654196858406, -0.05224975198507309, -0.030564524233341217, 0.04440194368362427, -0.003067054320126772, -0.01463809609413147, -0.07479558140039444], [0.04786868020892143, -0.10936453938484192, 0.08714216947555542, -0.07293888181447983, 0.06483812630176544, -0.06229456141591072, 0.06574587523937225, -0.047278184443712234, 0.009707977995276451, -0.012742196209728718, 0.03357386216521263, -0.12495315819978714, 0.17350010573863983, -0.018392017111182213, 0.07980379462242126, -0.05074666440486908, -0.06884311139583588, -0.042569540441036224, 0.007577011827379465, 0.14925026893615723, -0.0037374927196651697, -0.05110890418291092, 0.6235649585723877, 0.12353231757879257, -0.017030557617545128, -0.023007145151495934, -0.02605580724775791, 0.036104168742895126, -0.08120978623628616, -0.16456866264343262, 0.03288644552230835, 0.008946414105594158, -0.015098808333277702, -0.009304966777563095, -0.0894770696759224, 0.02089930884540081, 0.02405722253024578, 0.0014320365153253078, 0.0067952340468764305, -0.017663439735770226, 0.002837548963725567, -0.016680728644132614, 0.08403540402650833, 0.005750037729740143, -0.01783355139195919], [0.27137914299964905, 0.08145911246538162, -0.18409745395183563, -0.060531605035066605, -0.14308175444602966, -0.3442836105823517, -0.11287491768598557, 0.05439892038702965, -0.0092921182513237, 0.014653166756033897, 0.044501159340143204, 0.026250507682561874, 0.03677493706345558, -0.0652938261628151, -0.027928465977311134, -0.030114565044641495, -0.03582477197051048, 0.039430681616067886, -0.04837051033973694, 0.24505142867565155, -0.059549055993556976, 0.046545885503292084, 0.0664261132478714, 0.39752981066703796, 0.015411566942930222, -0.025500241667032242, 0.06849797815084457, 0.015086287632584572, 0.09112106263637543, 0.04434243217110634, -0.1226477101445198, -0.05368742346763611, -0.0065576802007853985, -0.028489531949162483, -0.06476917862892151, 0.010453158989548683, -0.08663707226514816, -0.004506013821810484, -0.06586501747369766, -0.0211026631295681, 0.047422345727682114, -0.08629845827817917, -0.05305548012256622, 0.05667966976761818, 0.11985501646995544], [-0.04882686585187912, -0.04966890066862106, -0.021332576870918274, 0.1908721923828125, -0.03581734374165535, 0.38866886496543884, 0.059072207659482956, -0.04179947450757027, -0.025836382061243057, 0.007343124598264694, -0.0615108348429203, 0.10879301279783249, 0.029919590801000595, 0.08096041530370712, 0.0625162273645401, 0.07985854893922806, 0.018512964248657227, -0.026678670197725296, -0.01208534650504589, -0.05483444780111313, 0.06548754870891571, -0.05904915928840637, -0.19034431874752045, -0.3617475628852844, 0.14657282829284668, -0.04981910064816475, -0.0012822081334888935, 0.07995391637086868, -0.021038757637143135, -0.013865220360457897, 0.005505436100065708, -0.029791755601763725, -0.031777430325746536, -0.01810075342655182, 0.11191107332706451, -0.05015815049409866, -0.0034587164409458637, -0.029988471418619156, 0.028310008347034454, -0.02675587497651577, -0.09220234304666519, -0.04927924647927284, 0.06409946829080582, 0.028733741492033005, -0.05539823696017265], [-0.020522551611065865, 0.02150408737361431, 0.04906048998236656, 0.19257120788097382, 0.0065744188614189625, 0.2212515026330948, 0.07891359180212021, -0.054149217903614044, 0.06056850403547287, -0.04658357426524162, -0.03324759751558304, -0.07264398038387299, -0.18403878808021545, -0.0629521831870079, 0.059311892837285995, 0.022273626178503036, 0.08305700868368149, -0.04240253567695618, -0.036556437611579895, 0.018278196454048157, 0.05328361690044403, 0.03624390438199043, -0.03500330075621605, -0.19197319447994232, 0.09444703906774521, -0.061929985880851746, 0.006469597574323416, 0.044214896857738495, 0.019530750811100006, -0.06093432754278183, 0.07160686701536179, 0.06066930294036865, -0.03327692672610283, 0.005079707596451044, 0.08126955479383469, 0.009310165420174599, 0.08922659605741501, 0.022561661899089813, -0.015268935821950436, -0.007473722565919161, 0.09409760683774948, -0.07548090815544128, 0.06514375656843185, -0.037448424845933914, -0.03297717869281769], [0.07898420095443726, -0.20770294964313507, 0.1318821907043457, -0.08146482706069946, 0.05108468607068062, 0.2395155131816864, 0.10118570178747177, -0.0404452309012413, -0.007246578577905893, 0.057681914418935776, -0.007872547954320908, 0.020325109362602234, 0.10961680114269257, 0.05540269613265991, -0.028275152668356895, 0.05561753362417221, 0.048670679330825806, 0.02280457690358162, -0.09843138605356216, -0.002378867706283927, -0.025526944547891617, -0.16097797453403473, 0.6156750321388245, -0.24336352944374084, -0.16290074586868286, 0.0034179040230810642, -0.09458152204751968, 0.07420235127210617, -0.05760432034730911, -0.17238427698612213, 0.12813061475753784, 0.05145920813083649, -0.11558490991592407, -0.05598803609609604, 0.11296571046113968, 0.03033936768770218, -0.08695026487112045, -0.07891666889190674, 0.06979835033416748, 0.010284346528351307, -0.007727432530373335, -0.02509758621454239, 0.016746841371059418, 0.010025025345385075, -0.13133062422275543], [-0.009375587105751038, 0.01225201040506363, -0.005297867115586996, 0.04114316776394844, -0.10652277618646622, 0.2950234115123749, 0.048847783356904984, -0.1642913818359375, 0.0395071916282177, 0.0564497746527195, 0.10002129524946213, 0.05318519473075867, 0.1991707682609558, 0.0794571191072464, 0.05624021962285042, 0.020414672791957855, 0.11070441454648972, 0.09602495282888412, -0.07326552271842957, -0.010674961842596531, 0.0675044059753418, -0.05890529230237007, -0.07871229201555252, -0.2864232659339905, -0.07418518513441086, -0.023908091709017754, -0.015223327092826366, 0.03624730557203293, 0.06537456810474396, 0.03408738225698471, -0.09057018905878067, 0.08128155022859573, -0.029480906203389168, 0.09999395161867142, -0.09754864871501923, -0.0072977193631231785, 0.08150994032621384, -0.016034597530961037, -0.03203413635492325, -0.031334295868873596, 0.05394122749567032, -0.1280357539653778, 0.04819146916270256, 0.015940647572278976, -0.04605357348918915], [-0.07979666441679001, -0.04774309694766998, 0.11070051044225693, 0.03411291912198067, 0.24550467729568481, 0.347632497549057, 0.15371409058570862, -0.006505284458398819, 0.0063481745310127735, -0.01564463973045349, -0.04098924249410629, -0.14735548198223114, -0.16340608894824982, -0.09174605458974838, 0.07638154923915863, 0.014600362628698349, 0.11748441308736801, 0.04644583538174629, -0.020963991060853004, -0.05574658140540123, 0.00962053146213293, -0.10076922178268433, 0.20859424769878387, -0.20444811880588531, 0.07856620103120804, -0.08771070837974548, -0.13926361501216888, 0.02461930178105831, 0.1371496468782425, -0.1317977011203766, 0.1329394429922104, 0.04582904651761055, -0.09129802137613297, -0.08732220530509949, 0.06216217949986458, -0.04512259364128113, 0.09100934863090515, -0.1438116580247879, -0.04273025318980217, 0.03971990570425987, -0.0592472106218338, -0.018306981772184372, 0.044950131326913834, -0.014305166900157928, -0.1071029007434845], [-0.010190009139478207, -0.013014831580221653, 0.11178885400295258, -0.036841701716184616, 0.19382068514823914, -0.15795713663101196, 0.121144138276577, 0.008478260599076748, 0.022295404225587845, 0.052352599799633026, 0.018933406099677086, -0.06955046951770782, -0.009746691212058067, 0.049232061952352524, 0.06070493161678314, 0.022170329466462135, 0.039257775992155075, -0.03627711534500122, -0.01806003786623478, -0.015288597904145718, 0.03256804496049881, 0.016048915684223175, 0.4396790564060211, 0.07530553638935089, -0.09523236751556396, 0.10976865887641907, -0.0651845782995224, -0.07926102727651596, -0.15391427278518677, 0.035848651081323624, 0.021672867238521576, -0.12307220697402954, -0.06994451582431793, -0.035322368144989014, -0.08367609232664108, 0.07140085101127625, -0.014083793386816978, -0.0840604156255722, 0.020646438002586365, 0.14706668257713318, 0.005220996215939522, 0.024543501436710358, 0.027269862592220306, 0.007728327997028828, -0.04592475667595863], [-0.10983920842409134, 0.003869215492159128, -0.030542992055416107, 0.14266951382160187, -0.006343931425362825, 0.057675208896398544, 0.060783326625823975, -0.0430167056620121, 0.036693841218948364, -0.01387739833444357, -0.07908429950475693, -0.0739806741476059, -0.2809896171092987, 0.02610759437084198, 0.036961838603019714, 0.0037865140475332737, 0.013511061668395996, 0.05155635252594948, 0.017029304057359695, -0.12864944338798523, 0.0014346718089655042, 0.06593053787946701, -0.295432448387146, -0.17168359458446503, 0.1566341519355774, -0.05424479395151138, -0.01860327646136284, 0.10447393357753754, 0.14353394508361816, -0.07548129558563232, 0.01149718090891838, 0.04497360810637474, -0.02865642122924328, 0.0714162066578865, 0.07600166648626328, 0.07553078234195709, 0.049099233001470566, -0.01514146476984024, 0.00977383553981781, -0.04009341448545456, -0.0022961341310292482, -0.1067686602473259, 0.06459672003984451, -0.052720218896865845, 0.010444048792123795], [0.12102914601564407, 0.08339332044124603, -0.07060544192790985, -0.07510242611169815, -0.1245017945766449, -0.3398153483867645, -0.11822337657213211, 0.15162710845470428, -0.030291913077235222, 0.04075927287340164, -0.00918129738420248, -0.00148238695692271, 0.07624722272157669, -0.0003695300256367773, 0.03952997922897339, -0.016897650435566902, -0.0071782213635742664, -0.020864807069301605, 0.011060096323490143, -0.0553310327231884, -0.04735059663653374, 0.09130597114562988, -0.3134442865848541, 0.2872347831726074, -0.04758993908762932, 0.05233868211507797, 0.07065796852111816, -0.008069014176726341, 0.022971557453274727, 0.10728928446769714, -0.06562698632478714, -0.020620444789528847, 0.11722709983587265, -0.003194121178239584, -0.08138632774353027, 0.008272233419120312, -0.026245631277561188, 0.04998799040913582, -0.06935051083564758, -0.011725020594894886, 0.049109529703855515, 0.0674266666173935, -0.07306279242038727, -0.01674318127334118, 0.16132785379886627], [0.14545726776123047, -0.1948840320110321, 0.045088768005371094, -0.14772114157676697, -0.0030202907510101795, -0.1274350881576538, 0.06363145262002945, 0.01792675070464611, -0.04239848256111145, 0.008077134378254414, 0.026597144082188606, 0.03880831226706505, 0.1173863485455513, -0.03088223561644554, 0.03222907707095146, 0.06441505998373032, -0.009198895655572414, 0.045864470303058624, -0.05937415733933449, 0.14274632930755615, -0.004523072857409716, -0.08476687967777252, 0.7278101444244385, 0.12327128648757935, -0.17614774405956268, 0.046345025300979614, -0.03512923792004585, 0.051120370626449585, 0.04798859357833862, -0.11753365397453308, -0.08885442465543747, -0.028697792440652847, -0.015332041308283806, -0.016542939469218254, 0.004816335625946522, -0.07160207629203796, 0.02177189663052559, 0.015596333891153336, -0.01285484991967678, 0.08680303394794464, -0.07516797631978989, 0.008571499958634377, -0.05260394141077995, 0.009885841980576515, -0.13874982297420502], [0.002209348836913705, -0.03555251285433769, -0.05368050932884216, 0.08436166495084763, 0.0726509690284729, 0.3880321681499481, -0.08686128258705139, 0.034175243228673935, -0.02124622091650963, -0.0010020266054198146, 0.036893218755722046, 0.1529873162508011, 0.04637519642710686, 0.010966164059937, 0.008778966031968594, -0.04266294836997986, 0.11355449259281158, 0.08242995291948318, 0.00328067340888083, -0.0465623214840889, 0.02907716855406761, 0.09710874408483505, -0.47455117106437683, -0.26879701018333435, 0.09770859032869339, 0.036171432584524155, -0.011713337153196335, -0.00923101045191288, 0.11148818582296371, 0.04551658779382706, 0.08959784358739853, -0.017467139288783073, 0.0512658953666687, -0.009124476462602615, 0.11554796248674393, 0.025118162855505943, 0.03474050387740135, 0.0003479653096292168, 0.022147051990032196, 0.030028071254491806, 0.04166175425052643, 0.019544241949915886, -0.022739285603165627, -0.02172338403761387, 0.11070961505174637], [0.054518669843673706, -0.1692802757024765, 0.13235831260681152, -0.16902819275856018, 0.045645542442798615, -0.09087540209293365, 0.055025797337293625, 0.02224280871450901, 0.02257205918431282, -0.04405428096652031, 0.05420208349823952, 0.04232902079820633, 0.15193484723567963, 0.03573441877961159, 0.12241148203611374, 0.008571437560021877, 0.020423855632543564, -0.06589915603399277, -0.06361295282840729, -0.02255944162607193, -0.062370143830776215, -0.10159507393836975, 0.7397260069847107, 0.07172514498233795, -0.19768743216991425, -0.01716313511133194, 0.019441619515419006, 0.12182195484638214, -0.17871715128421783, -0.10650541633367538, 0.02191861905157566, -0.006894933991134167, -0.095367930829525, 0.039688531309366226, 0.0268983393907547, -0.02049359492957592, -0.019203798845410347, 0.03385622054338455, 0.1020476445555687, 0.06566324084997177, 0.00605392549186945, -0.018016185611486435, 0.02606179751455784, -0.07364523410797119, -0.0811065286397934], [-0.07210041582584381, 0.08928458392620087, -0.0016173102194443345, -0.012005231343209743, 0.04847517982125282, -0.13028353452682495, -0.0020607896149158478, 0.04592953994870186, -0.05536230653524399, -0.0010850339895114303, -0.0388643816113472, -0.06590038537979126, -0.2849186658859253, -0.13124488294124603, -0.050234679132699966, -0.008120366372168064, 0.007628098130226135, -0.024219825863838196, 0.0831703245639801, -0.05219348892569542, 0.13032594323158264, 0.09459865093231201, -0.36691513657569885, 0.12140827625989914, 0.07415403425693512, -0.05613979324698448, -0.036119189113378525, -0.09924914687871933, 0.05146310105919838, 0.05438501760363579, -0.08379141241312027, 0.026431690901517868, 0.13492652773857117, -0.05029836669564247, -0.005658168811351061, 0.046457186341285706, 0.07237595319747925, -0.15631462633609772, -0.11084156483411789, -0.05568438023328781, 0.09727723151445389, 0.05508923903107643, -0.07353974878787994, 0.05123993754386902, 0.08308229595422745], [0.02673416957259178, 0.03206508979201317, -0.1815957874059677, -0.049340035766363144, -0.11880036443471909, -0.2981226146221161, -0.05603722855448723, 0.17946282029151917, -0.08551834523677826, -0.028308754786849022, -0.024021873250603676, -0.12413698434829712, -0.19186757504940033, -0.11308721452951431, -0.0795990377664566, -0.16464807093143463, -0.06134776771068573, -0.05238373577594757, -0.10946726053953171, -0.07281055301427841, 0.09068380296230316, 0.09776995331048965, -0.08626489341259003, 0.3156949579715729, 0.13009417057037354, -0.06114118918776512, 0.13749907910823822, -0.0004603523120749742, -0.062714584171772, 0.1045948714017868, 0.16684186458587646, -0.04799623042345047, 0.06538821011781693, 0.033964499831199646, -0.09546703100204468, -0.0430971160531044, -0.06825824826955795, -0.12305120378732681, 0.05553075671195984, 0.05547049641609192, 0.060165975242853165, 0.09161791205406189, -0.08788646757602692, -0.029843218624591827, 0.12199235707521439], [-0.04097161442041397, -0.03048088774085045, -0.06241001933813095, 0.07252773642539978, -0.1733885258436203, 0.11344750225543976, -0.04990913346409798, 0.13374023139476776, 0.021284442394971848, 0.07771304994821548, 0.0955592691898346, 0.11919964104890823, 0.10890515148639679, 0.019835080951452255, -0.006457159761339426, -0.09234321117401123, -0.051724180579185486, -0.12892943620681763, -0.04078223183751106, -0.022063864395022392, 0.08210334926843643, -0.014747058041393757, -0.47346231341362, -0.14473605155944824, 0.004341484047472477, -0.013688184320926666, -0.004525166004896164, -0.07766679674386978, -0.014450625516474247, 0.04867524653673172, -0.015392190776765347, 0.012621496804058552, -0.06706757843494415, 0.02545468509197235, 0.02822837419807911, -0.08136627823114395, -0.1352655589580536, 0.20783305168151855, 0.1187794879078865, -0.1225011870265007, 0.020396199077367783, 0.0409700945019722, 0.03861520439386368, -0.07071154564619064, 0.10919661819934845], [0.03018612042069435, -0.016543272882699966, -0.17925159633159637, 0.12267978489398956, -0.1247006207704544, 0.04415065795183182, 0.01296330988407135, -0.08306508511304855, 0.01982438750565052, -0.009430032223463058, 0.026652326807379723, 0.1331673562526703, 0.26650866866111755, 0.09682541340589523, -0.0638786107301712, -0.07903768122196198, 0.09328215569257736, -0.015392228029668331, -0.03079690970480442, -0.06621380150318146, -0.016711849719285965, 0.0248036477714777, -0.3718402087688446, -0.1703713834285736, -0.08353433758020401, -0.0922931581735611, 0.05425291508436203, -0.028582582250237465, 0.04150508716702461, 0.12940184772014618, -0.08351194113492966, 0.04157693684101105, -0.08957746624946594, -0.011376839131116867, 0.05033865198493004, -0.013018682599067688, 0.08243069797754288, 0.22592128813266754, -0.005043004173785448, -0.025426950305700302, 0.012614377774298191, 0.07731454074382782, -0.03773210197687149, 0.0560767725110054, 0.03931004926562309], [-0.03324020653963089, 0.03387262299656868, 0.04382825270295143, -0.07019112259149551, 0.11654602736234665, -0.21224460005760193, -0.033616553992033005, -0.016112113371491432, -0.03779827058315277, 0.0063676657155156136, 0.049348972737789154, -0.13605523109436035, -0.2845916450023651, -0.027168981730937958, 0.03291058540344238, 0.06275249272584915, 0.02927970327436924, 0.011204585433006287, 0.07667545974254608, 0.03092464804649353, 0.1167231872677803, 0.04032943770289421, 0.23532132804393768, 0.15286213159561157, 0.14504802227020264, 0.05637235939502716, 0.19700078666210175, 0.0002920535334851593, 0.0886763408780098, -0.07499255985021591, 0.0899868831038475, -0.0046499427407979965, -0.0013586255954578519, -0.029738731682300568, 0.022440146654844284, 0.03355197608470917, 0.09266919642686844, -0.16424982249736786, -0.0105788204818964, 0.07354244589805603, 0.08812497556209564, -0.028961384668946266, 0.06346156448125839, 0.0246141254901886, 0.08015232533216476], [0.01108301617205143, 0.08671437203884125, -0.07215012609958649, 0.049372684210538864, -0.12100636214017868, 0.07631491869688034, -0.06899378448724747, -0.07912716269493103, -0.010606822557747364, -0.052211251109838486, 0.06114572659134865, 0.10836943238973618, 0.18009237945079803, 0.03135741874575615, 0.026738423854112625, -0.06784551590681076, 0.06126675754785538, 0.027541372925043106, -0.03353521600365639, -0.009133972227573395, -0.07297013700008392, 0.05683477595448494, -0.6008986234664917, -0.002981698140501976, 0.00966899935156107, -0.009368831291794777, 0.20398877561092377, -0.04241477698087692, 0.15235909819602966, 0.06498046219348907, 0.002373495837673545, -0.07506515830755234, 0.019334614276885986, 0.08884460479021072, -0.06764230132102966, -0.021077532321214676, -0.002719097537919879, 0.13511882722377777, -0.055335063487291336, -0.0033977804705500603, 0.02057153545320034, -0.06140497699379921, -0.032166097313165665, 0.05333110690116882, 0.1469801664352417], [-0.11399955302476883, 0.03667033463716507, -0.021043725311756134, 0.0848861113190651, 0.06805161386728287, 0.19362454116344452, 0.011970214545726776, -0.08841243386268616, -0.039149049669504166, -0.00015277905913535506, 0.011534331366419792, -0.08124206960201263, -0.18907374143600464, 0.043591856956481934, 0.05043137073516846, -0.004581437911838293, -0.08406060189008713, -0.08440760523080826, -0.02269398793578148, -0.090517558157444, 0.13306327164173126, 0.0038598463870584965, -0.11582310497760773, -0.21773551404476166, 0.12745453417301178, -0.06804275512695312, 0.044659972190856934, 0.05856344476342201, -0.09903272986412048, -0.01785985566675663, 0.11483968794345856, -0.0028767194598913193, -0.047315970063209534, -0.05700330808758736, 0.0486968457698822, 0.05148642510175705, 0.14028477668762207, -0.10454527288675308, -0.04021458700299263, 0.09261658042669296, -0.0001267205661861226, 0.02332504279911518, 0.04081321880221367, -0.11558868736028671, 0.039014026522636414], [0.060908615589141846, 0.02594096027314663, -0.16355562210083008, 0.07324583828449249, -0.1712859869003296, -0.00578940287232399, -0.07700657844543457, 0.06103016808629036, -0.03307594731450081, -0.0072397044859826565, -0.08448728173971176, 0.11838223040103912, -0.01591353490948677, -0.001364714466035366, 0.06333163380622864, 0.0038844947703182697, 0.03454744815826416, 0.012712511233985424, -0.14860475063323975, 0.02102641761302948, -0.02554599940776825, 0.05507264658808708, -0.40296104550361633, -0.02272542379796505, 0.1368490755558014, 0.03143175318837166, 0.09274616837501526, 0.0976240485906601, 0.051818445324897766, 0.03142121434211731, 0.02605244144797325, 0.11204903572797775, -0.06614165753126144, 0.07234873622655869, 0.07556960731744766, 0.020133402198553085, -0.0937853530049324, 0.11119171231985092, 0.02080586552619934, -0.02156584896147251, 0.07492717355489731, 0.029027238488197327, -0.07800036668777466, 0.04957994446158409, 0.07881245017051697], [-0.02128451131284237, -0.053350575268268585, -0.04600668326020241, -0.24883946776390076, -0.05360467731952667, -0.3377701938152313, -0.024095427244901657, 0.004930064547806978, -0.03283673897385597, 0.02967340499162674, -0.004680784419178963, -0.05422397330403328, -0.016212258487939835, -0.061528753489255905, 0.0022672771010547876, -0.05000685900449753, -0.06787805259227753, -0.043968331068754196, 0.057809025049209595, 0.05683669447898865, -0.02464442141354084, -0.08089977502822876, 0.1390586793422699, 0.39347466826438904, -0.10408681631088257, 0.06617818772792816, -0.08972438424825668, 0.04389243945479393, -0.05112341046333313, 0.12326140701770782, -0.0945199579000473, -0.006772859022021294, 0.017507370561361313, -0.014394150115549564, -0.0034947232343256474, -0.01801564358174801, -0.09573139995336533, 0.08320818841457367, -0.031689222902059555, 0.02493070438504219, -0.05075332522392273, -0.09304026514291763, -0.025902681052684784, 0.015496859326958656, -0.0030869857873767614], [-0.1970992237329483, 0.05379125103354454, -0.052895233035087585, -0.02631561830639839, 0.16142047941684723, 0.0015922512393444777, -0.09817018359899521, 0.03619693964719772, 0.032687991857528687, -0.07016423344612122, -0.08725206553936005, -0.140501007437706, -0.34862563014030457, -0.06658167392015457, -0.009245974943041801, 0.04899682104587555, 0.07997031509876251, 0.054901380091905594, 0.040966782718896866, -0.11862649768590927, 0.010321877896785736, -0.13507191836833954, -0.300392210483551, -0.005174695514142513, 0.13000023365020752, 0.014337236061692238, 0.031047044321894646, -0.041715387254953384, 0.09419841319322586, 0.045001231133937836, 0.036132894456386566, 0.05779440328478813, -0.003801584243774414, 0.0053619747050106525, 0.05173911899328232, -0.03679047152400017, 0.011445402167737484, -0.06460973620414734, -0.009129022248089314, -0.007217742502689362, -0.0158944483846426, -0.019178714603185654, -0.009212367236614227, -0.0844176858663559, 0.03138675540685654], [-0.05026821792125702, 0.07302375137805939, -0.04409410431981087, 0.2053317129611969, -0.08518432825803757, 0.18339042365550995, -0.05652545392513275, 0.06495943665504456, 0.04995245859026909, -0.04250386357307434, -0.019000278785824776, 0.04458662495017052, -0.07460083812475204, -0.0816100463271141, -0.033252838999032974, 0.019481979310512543, -0.05145405977964401, 0.010860507376492023, 0.0551164336502552, -0.03125328570604324, 0.033341340720653534, 0.13052740693092346, -0.811616063117981, -0.04025913402438164, 0.046622950583696365, -0.021231472492218018, 0.027236228808760643, -0.008951641619205475, -0.002631763694807887, 0.13377737998962402, -0.07338446378707886, -0.0930059626698494, 0.03617698699235916, 0.04961920157074928, -0.04636459797620773, 0.008725591003894806, 0.07837127149105072, 0.06963824480772018, -0.009035262279212475, -0.020490547642111778, 0.02523082122206688, 0.017797494307160378, -0.026613842695951462, 0.046952445060014725, 0.033927302807569504], [-0.18139192461967468, 0.033300742506980896, -0.005422508809715509, -0.025360260158777237, -0.007901866920292377, 0.006931725889444351, -0.032949239015579224, 0.11161255091428757, 0.0307050459086895, 0.01444824319332838, 0.026842771098017693, -0.1527053564786911, -0.40048396587371826, -0.012907284311950207, 0.0045351809822022915, -0.02130928635597229, -0.054960500448942184, -0.011650844477117062, 0.03491438925266266, -0.09674342721700668, 0.09581167995929718, 0.028722655028104782, -0.20988284051418304, 0.00997807364910841, 0.18891285359859467, -0.026484504342079163, 0.27106887102127075, -0.03970037400722504, 0.12056268006563187, 0.03653405234217644, 0.1052841991186142, 0.046036362648010254, -0.05781526491045952, 0.04024222120642662, 0.13214093446731567, 0.03150184452533722, 0.04649665579199791, -0.10647737979888916, 0.008964785374701023, 0.011023934930562973, 0.0797513872385025, 0.002862578723579645, -0.0720287561416626, -0.0010170178720727563, 0.10758140683174133], [-0.008357908576726913, -0.033608611673116684, 0.06860300153493881, 0.11449818313121796, 0.016261901706457138, 0.3599167764186859, -0.002127917716279626, -0.06063973903656006, 0.04851536452770233, -0.07843665778636932, -0.06299100816249847, -0.04563254490494728, -0.09868836402893066, 0.0694725438952446, 0.11422612518072128, 0.05500434339046478, 0.11713289469480515, 0.049779899418354034, 0.0898788720369339, 0.030058695003390312, 0.026298081502318382, 0.01688378117978573, -0.06620826572179794, -0.39487990736961365, 0.06262492388486862, 0.016875416040420532, -0.009147721342742443, 0.032745592296123505, 0.1060573011636734, -0.020481538027524948, 0.18728989362716675, -0.009383046999573708, -0.055233728140592575, -0.041032981127500534, 0.08251843601465225, 0.10241855680942535, -0.022778138518333435, -0.16495457291603088, 0.03048255667090416, 0.08069931715726852, 0.016500957310199738, 0.04451544210314751, 0.10166086256504059, -0.007250018883496523, -0.08403504639863968], [-0.1387794464826584, -0.028465639799833298, 0.18114076554775238, 0.09761060774326324, 0.07480473071336746, 0.35127782821655273, 0.08349136263132095, -0.04225250706076622, 0.014350959099829197, -0.01789143681526184, 0.024526001885533333, -0.008167081512510777, 0.15693221986293793, 0.08010486513376236, 0.07383033633232117, 0.0871034488081932, 0.08292852342128754, 0.01388564519584179, 0.03728921711444855, -0.054072290658950806, -0.09180070459842682, -0.04687253385782242, 0.13930809497833252, -0.35510820150375366, 0.08666170388460159, 0.06626848131418228, -0.05999034643173218, -0.02156323753297329, 0.10450682789087296, 0.037974655628204346, 0.07930264621973038, 0.06119972839951515, -0.045532017946243286, -0.06944319605827332, 0.1472795605659485, -0.015539268963038921, -0.025463759899139404, 0.006835123989731073, 0.07040052115917206, 0.02826043777167797, -0.05840196833014488, 0.13326747715473175, -0.05420508235692978, -0.11994405835866928, -0.11512095481157303], [-0.16410565376281738, 0.05159290134906769, 0.14266805350780487, 0.1261858344078064, 0.1537729948759079, 0.1585664600133896, 0.045422740280628204, 0.031013445928692818, 0.027559245005249977, -0.029122456908226013, -0.04123024642467499, 0.008332104422152042, -0.242614284157753, -0.03007277473807335, -0.012705053202807903, -0.12104589492082596, 0.12651444971561432, -0.03208639845252037, 0.062130607664585114, -0.1217259019613266, 0.004402315244078636, 0.007201612461358309, -0.3958241939544678, -0.20022960007190704, 0.05382711440324783, 0.013253236189484596, -0.008701799437403679, 0.05215710401535034, -0.06275900453329086, -0.008918007835745811, -0.0612378865480423, 0.04860923811793327, -0.08615610003471375, -0.04827610030770302, 0.05992669612169266, -0.0039965431205928326, 0.0407610759139061, -0.006753487978130579, -0.06085105240345001, -0.06695766001939774, 0.005820025689899921, -0.06284789741039276, -0.009681646712124348, -0.0057300906628370285, 0.023967966437339783], [0.0404534786939621, -0.002706370083615184, -0.24128299951553345, -0.060572549700737, -0.2968555688858032, -0.039462242275476456, -0.08424956351518631, 0.03185563534498215, -0.002406330779194832, -0.11411069333553314, 0.07555951178073883, 0.00390729121863842, -0.06975763291120529, -0.10601574182510376, -0.07527080923318863, -0.07077491283416748, -0.05921296030282974, -0.05696779862046242, -0.01267757173627615, 0.05354510620236397, -0.12492738664150238, -0.046570003032684326, -0.1757931113243103, 0.01991853676736355, 0.055453822016716, -0.1959983855485916, 0.18088683485984802, 0.16441693902015686, -0.015552166849374771, -0.04645376279950142, -0.14052008092403412, 0.08074928820133209, 0.014949893578886986, -0.12026163190603256, 0.14648030698299408, 0.0014297324232757092, 0.02944863773882389, 0.08782275021076202, 0.007763859815895557, 0.0599527470767498, 0.006536314729601145, -0.10922373086214066, 0.09284158796072006, 0.06646693497896194, 0.11719204485416412], [0.05727000907063484, -0.057957783341407776, 0.10002206265926361, -0.22373266518115997, 0.06470012664794922, -0.0468108132481575, 0.05928293243050575, -0.02509152516722679, -0.01183608639985323, 0.010872037149965763, 0.034099165350198746, -0.05181901156902313, 0.0100101288408041, -0.01876797340810299, 0.013755161315202713, -0.03794119134545326, -0.009965358301997185, -0.05069468915462494, -0.0826866552233696, 0.11806860566139221, 0.0323658362030983, -0.06913942098617554, 0.6795880794525146, 0.07052551209926605, -0.0981021597981453, 0.0041061947122216225, -0.0027097004931420088, -0.018420210108160973, -0.13643556833267212, -0.18881043791770935, -0.008643454872071743, 0.018100658431649208, -0.031219203025102615, -0.052302226424217224, 0.003782097715884447, 0.04833221435546875, -0.013017430901527405, -0.0853605568408966, 0.06233781948685646, 0.009916262701153755, -0.04542231187224388, 0.015744350850582123, 0.017792170867323875, 0.006899488158524036, -0.07307786494493484], [-0.06421422958374023, -0.0732363685965538, 0.03362375125288963, 0.09079567342996597, 0.05482076480984688, 0.4445074498653412, 0.08941618353128433, -0.035768527537584305, 0.05116484314203262, 0.018761854618787766, -0.01470253337174654, 0.005272146314382553, 0.08460859209299088, 0.1289190649986267, 0.06536582857370377, 0.14533600211143494, -0.12108352035284042, -0.05166572332382202, 0.014175341464579105, -0.01617719605565071, -0.007363918237388134, -0.10990750789642334, 0.10163792967796326, -0.3674778640270233, -0.030899986624717712, 0.01669476367533207, -0.07282543927431107, -0.010681248269975185, -0.04743252322077751, -0.036609720438718796, 0.14394167065620422, -0.055484965443611145, -0.10310065001249313, -0.005370520055294037, 0.005625058896839619, 0.030382966622710228, 0.0874018594622612, 0.06071805581450462, 0.09364211559295654, -0.09411899745464325, -0.07949211448431015, 0.14792421460151672, 0.07479667663574219, -0.01936824806034565, -0.0885586068034172], [-0.13917487859725952, -0.004319810774177313, 0.1736583113670349, 0.17302961647510529, 0.2841612994670868, 0.2649196684360504, 0.057638004422187805, 0.03722388669848442, 0.04216384142637253, -0.12762798368930817, 0.032096777111291885, -0.09431992471218109, -0.013660483062267303, -0.048344697803258896, -0.09209351986646652, -0.011317819356918335, -0.0888323038816452, -0.020780572667717934, 0.07900363206863403, -0.16031834483146667, -0.029810922220349312, -0.07318846136331558, -0.15621085464954376, -0.23974251747131348, -0.05460953712463379, -0.04769790172576904, -0.007295776624232531, -0.044422049075365067, 0.03196917101740837, -0.004060831386595964, -0.05812408775091171, 0.0240536667406559, -0.046079639345407486, 0.009547066874802113, 0.10609835386276245, -0.015000643208622932, 0.05992591753602028, 0.04805177077651024, -0.03916177898645401, -0.08112748712301254, -0.05095699429512024, 0.03932202607393265, 0.10098437964916229, -0.06651898473501205, -0.05574774369597435], [0.1396668404340744, -0.0836961567401886, 0.03265858441591263, -0.0345536507666111, -0.03359957039356232, 0.08301333338022232, 0.014921451918780804, 0.12179483473300934, -0.01118391938507557, -0.015619282610714436, -0.0372098945081234, 0.08830852806568146, 0.3647579550743103, 0.09423430263996124, -0.06548513472080231, 0.15496321022510529, -0.030278438702225685, -0.14016057550907135, 0.08671927452087402, 0.09483420848846436, 0.006765720434486866, -0.023354889824986458, 0.29836955666542053, -0.14350734651088715, -0.01991919055581093, 0.03802419826388359, -0.029925771057605743, -0.05940735340118408, 0.016578184440732002, -0.1081700399518013, 0.08350098133087158, -0.052773382514715195, 0.05928056314587593, -0.0018928787903860211, 0.056805454194545746, -0.019139401614665985, -0.13519801199436188, -0.12268751859664917, 0.10732317715883255, 0.20337194204330444, -0.03328711912035942, -0.030200067907571793, -0.05422210693359375, -0.029499800875782967, -0.03328648582100868], [0.1300874799489975, 0.06498734652996063, -0.17365168035030365, 0.10809691995382309, -0.23338264226913452, 0.1617700606584549, -0.05032390356063843, 0.027560565620660782, 0.012987243942916393, 0.012984105385839939, 0.03773505613207817, 0.09243335574865341, 0.11459680646657944, 0.1152077242732048, 0.01961313560605049, 0.004796267487108707, 0.03614398092031479, 0.07084333151578903, 0.0025853938423097134, -0.010621017776429653, 0.0584649033844471, -0.01530708372592926, -0.163397878408432, -0.12202616780996323, 0.14684714376926422, -0.03706389665603638, 0.12961186468601227, 0.012378393672406673, 0.02906888909637928, -0.05773096904158592, -0.04870886728167534, -0.025740735232830048, -0.1280517578125, 0.06599494814872742, 0.02985139563679695, 0.015204712748527527, 0.017078865319490433, 0.10228177905082703, -0.028147917240858078, -0.018985556438565254, 0.052846893668174744, 0.03857532516121864, -0.013890660367906094, -0.06838930398225784, 0.07271510362625122], [-0.14577890932559967, 0.10362880676984787, -0.08741966634988785, 0.02171122469007969, -0.047109149396419525, -0.2706955075263977, 0.050580646842718124, -0.23840631544589996, 0.062339965254068375, -0.04327189922332764, 0.002222863957285881, -0.04972156882286072, -0.11149211972951889, -0.04258619621396065, -0.09269450604915619, -0.09628140926361084, 0.1575593501329422, 0.017778629437088966, 0.0714736059308052, -0.11916708201169968, 0.00015775274368934333, 0.05813411623239517, -0.2722981870174408, 0.22920538485050201, 0.16171221435070038, -0.06714113801717758, 0.1400376558303833, 0.07585091888904572, 0.08649430423974991, 0.050717826932668686, -0.2705353796482086, -0.02476103976368904, 0.05992179363965988, -0.06450594961643219, -0.050447721034288406, -0.06941118836402893, 0.17504559457302094, 0.008879169821739197, -0.14197054505348206, -0.0912361592054367, 0.08028855919837952, -0.005325417499989271, 0.0752708911895752, -0.028528857976198196, 0.042988549917936325], [-0.17955558001995087, -0.0024512377567589283, -0.0577910915017128, -0.04329947382211685, -0.06324267387390137, -0.012354896403849125, -0.10352034866809845, 0.08067867159843445, 0.0015354584902524948, -0.008351881057024002, 0.04105014726519585, -0.062434930354356766, -0.2851560711860657, -0.09303690493106842, -0.07514733821153641, 0.05736038088798523, 0.05412697792053223, -0.04335816949605942, 0.06875576078891754, -0.06939791887998581, 0.018385954201221466, -0.006227219011634588, -0.3621709942817688, -0.01924946717917919, 0.20944571495056152, 0.02289423532783985, 0.020525654777884483, 0.07647202908992767, 0.11179891228675842, -0.059527166187763214, 0.09809966385364532, -0.03427870571613312, 0.1397150158882141, -0.1300247609615326, 0.1547028124332428, 0.02441888488829136, -0.026660241186618805, -0.07259491831064224, 0.04109572991728783, -0.018797079101204872, 0.08592965453863144, -0.025780241936445236, -0.0037810704670846462, 0.026877792552113533, 0.04800580441951752], [-0.023915689438581467, 0.026056228205561638, 0.1421440690755844, 0.09028150141239166, 0.13307783007621765, 0.1458764672279358, 0.016810821369290352, 0.06819962710142136, -0.02307434007525444, -0.004132662434130907, -0.05529582500457764, -0.1254991739988327, -0.26025331020355225, -0.13931192457675934, -0.02888837829232216, -0.07858395576477051, -0.02363327331840992, -0.05243748798966408, 0.02369828149676323, -0.0751207023859024, 0.060578059405088425, -0.03678521141409874, -0.24325883388519287, -0.2012706995010376, -0.0424494631588459, 0.026843897998332977, -0.03568637743592262, -0.0689363032579422, 0.040158163756132126, 0.060970816761255264, 0.0019486068049445748, -0.03837279602885246, -0.005821682047098875, -0.043944038450717926, 0.0309582632035017, -0.03311538323760033, 0.15808013081550598, -0.11292719095945358, -0.0026457260828465223, 0.05600523576140404, -0.046829573810100555, -0.06012222543358803, -0.015351604670286179, -0.03232765942811966, 0.13964177668094635], [0.03338184580206871, 0.10551216453313828, -0.11334474384784698, -0.055504847317934036, -0.011797266080975533, -0.22233028709888458, -0.12412463873624802, 0.01267346553504467, -0.0636175125837326, 0.038116056472063065, 0.007329123094677925, -0.06356629729270935, -0.19052347540855408, 0.05821909382939339, 0.029216861352324486, 0.07920201122760773, -0.07659508287906647, -0.20850256085395813, 0.06294262409210205, 0.013903546147048473, 0.0045143305324018, -0.03100004233419895, 0.18239110708236694, 0.12032239139080048, 0.09122361987829208, -0.13839319348335266, 0.05938795953989029, -0.06761564314365387, -0.06342492252588272, 0.023177873343229294, 0.2272307127714157, -0.11551108956336975, 0.07715338468551636, 0.03969976678490639, 0.11212266236543655, 0.05672017112374306, -0.06453444808721542, -0.04647089168429375, 0.13599959015846252, 0.2128087878227234, -0.06079773232340813, -0.0048760538920760155, -0.001222867053002119, 0.0599898062646389, 0.08173032104969025], [0.016722416505217552, -0.0037628705613315105, -0.022563345730304718, -0.12121301144361496, -0.039018403738737106, -0.2827710211277008, -0.01854253187775612, -0.01221715658903122, 0.05774606391787529, 0.047006480395793915, 0.0297941192984581, -0.02413797937333584, 0.10128087550401688, -0.0016920180059969425, -0.010164998471736908, -0.03975480794906616, 0.030986716970801353, 0.06245974451303482, -0.1353766769170761, 0.019438711926341057, -0.058318037539720535, -0.07282709330320358, 0.3526807129383087, 0.27952221035957336, -0.11185263097286224, 0.1570851355791092, -0.006318037863820791, 0.07718099653720856, -0.13639196753501892, 0.007663422729820013, -0.08578197658061981, 0.05269436910748482, 0.0600423663854599, -0.018814343959093094, -0.01267819944769144, 0.048995912075042725, -0.04984447360038757, 0.022796548902988434, -0.022480832412838936, -0.00516498601064086, -0.04142429307103157, 0.014640671201050282, 0.019715161994099617, 0.010679241269826889, -0.004545177333056927], [0.01188324298709631, 0.016305452212691307, 0.03939337283372879, -0.24607543647289276, 0.0958390161395073, -0.3903045952320099, 0.05645519122481346, 0.07942607998847961, 0.01825430803000927, 0.0521116629242897, -0.03846362605690956, -0.046564772725105286, -0.0632065087556839, -0.14412826299667358, -0.09132559597492218, -0.07266562432050705, 4.43311728304252e-05, 0.0008014047634787858, -0.017262909561395645, -0.03028952330350876, 0.043210726231336594, -0.11753696948289871, 0.22203722596168518, 0.30319324135780334, -0.053333088755607605, 0.03377099335193634, -0.042675528675317764, -0.03683455288410187, -0.027405839413404465, 0.0027759468648582697, -0.004677720367908478, -0.018899939954280853, 0.105255626142025, -0.06375110149383545, -0.054112840443849564, -0.009805426932871342, -0.09648273885250092, -0.014336991123855114, -0.02049674466252327, 0.15087208151817322, 0.01521499827504158, 0.024139830842614174, 0.030700337141752243, 0.016550695523619652, -0.0265191663056612], [-0.1565490961074829, -0.010191569104790688, -0.02168039046227932, 0.1606559306383133, 0.041861481964588165, 0.17512789368629456, 0.013206717558205128, 0.030437489971518517, -0.012166816741228104, 0.00452797906473279, 0.03827013447880745, -0.07013352960348129, -0.24741220474243164, -0.01411040686070919, 0.035170260816812515, -0.0792112648487091, 0.09163568913936615, 0.09187444299459457, -0.03451447933912277, -0.10138595104217529, 0.07497971504926682, 0.03970218822360039, -0.3326322138309479, -0.18430820107460022, 0.09091485291719437, 0.07933280616998672, -0.09741545468568802, 0.054386842995882034, 0.052631452679634094, 0.03375221788883209, 0.07863235473632812, 0.02237594872713089, 0.03984749689698219, -0.0351112075150013, 0.05245647206902504, 0.12291865795850754, 0.16456109285354614, 0.004535446409136057, -0.09058702737092972, 0.029670575633645058, -0.004065775778144598, -0.06644155085086823, 0.03489263355731964, 0.10230100899934769, 0.060744237154722214], [-0.00030482732108794153, 0.06700552254915237, -0.06501921266317368, 0.20153094828128815, -0.15077772736549377, 0.3665256202220917, 0.05951934680342674, 0.047821689397096634, -0.09320701658725739, -0.006157052703201771, -0.030883928760886192, 0.018815631046891212, -0.050666578114032745, 0.14584366977214813, 0.00878297258168459, -0.09878797084093094, 0.004992456641048193, 0.04432620480656624, 0.0702032744884491, -0.0192211102694273, 0.011504336260259151, 0.029598651453852654, -0.18509738147258759, -0.3394831120967865, 0.1455078423023224, -0.14171773195266724, -0.030000269412994385, 0.0863356739282608, 0.10888566821813583, -0.015208404511213303, 0.01217519398778677, -0.026859939098358154, -0.0649150088429451, 0.06182006374001503, -0.011121023446321487, 0.08232923597097397, 0.016202686354517937, 0.0191616453230381, 0.10746362805366516, 0.09204372018575668, 0.007151687517762184, -0.086445152759552, -0.012585096061229706, 0.1517922282218933, 0.09042628109455109], [0.06004292890429497, -0.001349812839180231, -0.05953526124358177, -0.062008898705244064, 0.004629938397556543, -0.26711535453796387, 0.08817834407091141, 0.07119280099868774, -0.025155073031783104, -0.03168322890996933, 0.010451959446072578, -0.13994115591049194, 0.03748251125216484, -0.056360941380262375, 0.0399908684194088, 0.005504282657057047, 0.0289913397282362, 0.015095978043973446, -0.009893899783492088, 0.09582440555095673, 0.09749400615692139, -0.048072699457407, 0.41286933422088623, 0.2634761333465576, -0.1273767203092575, -0.11333927512168884, 0.07758872210979462, 0.018540743738412857, 0.038563307374715805, -0.012867252342402935, -0.1000065803527832, -0.025449125096201897, -0.003499212907627225, 0.07713310420513153, -0.02333497628569603, -0.0224082563072443, 0.012084283865988255, -0.06599628925323486, -0.10820141434669495, -0.026078607887029648, 0.08316584676504135, 0.04371032863855362, -0.06722822785377502, 0.017446322366595268, 0.01086208876222372], [-0.023320255801081657, -0.047927889972925186, 0.16828219592571259, -0.1734694540500641, 0.17000354826450348, -0.11949707567691803, -0.005495173390954733, 0.027728889137506485, 0.005631060339510441, -0.0030682203359901905, -0.017854107543826103, -0.01265776064246893, -0.10327127575874329, -0.12755556404590607, 0.045728594064712524, -0.01544451154768467, -0.05068373680114746, 0.07750558853149414, 0.004715320188552141, -0.019538631662726402, 0.021902460604906082, -0.09023959934711456, 0.7741934061050415, 0.16207937896251678, -0.0629270151257515, -0.04913319647312164, -0.0460369698703289, 0.0978790670633316, 0.024256762117147446, -0.12599174678325653, -0.021229851990938187, 0.0397530198097229, -0.030896656215190887, -0.09541898965835571, -0.06219733878970146, -0.015920231118798256, 0.04840101674199104, -0.09851087629795074, -0.05396448075771332, 0.10005432367324829, 0.06992809474468231, -0.006839874666184187, 0.023525137454271317, 0.015831228345632553, -0.11272289603948593], [-0.1117573082447052, -0.08434105664491653, 0.013029363937675953, -0.009984237141907215, 0.014710590243339539, 0.0636213943362236, -0.11494340747594833, 0.0010706452885642648, -0.015850640833377838, 0.035641852766275406, -0.03808746486902237, -0.11573029309511185, -0.3271084725856781, -0.02231350541114807, -0.03096768818795681, -0.05069151893258095, 0.057443905621767044, -0.008224590681493282, -0.06544212251901627, -0.2069462239742279, -0.014117196202278137, -0.0067194607108831406, -0.21493713557720184, -0.01168192271143198, 0.05923328921198845, 0.016150766983628273, 0.02824185974895954, 0.019356461241841316, 0.03157376870512962, -0.0918150395154953, 0.016937267035245895, -0.10063416510820389, -0.0652729719877243, 0.013021357357501984, 0.019755894318223, -0.06799572706222534, -0.014735804870724678, -0.08778809010982513, 0.0861571654677391, 0.011590685695409775, 0.09141816198825836, 0.053771261125802994, 0.04921853914856911, -0.12654437124729156, 0.015722323209047318], [0.17985333502292633, -0.05141299217939377, -0.03166405111551285, -0.06911240518093109, -0.05634016543626785, -0.26020199060440063, 0.05210615321993828, -0.04431219398975372, -0.09858459234237671, -0.030300380662083626, 0.026826560497283936, 0.03739133104681969, 0.13654835522174835, 0.028201013803482056, 0.04655968025326729, -0.038943879306316376, -0.056606635451316833, 0.00887362752109766, 0.06131032481789589, 0.1630983203649521, 0.06929512321949005, -0.08238523453474045, 0.522566020488739, 0.18140996992588043, -0.17455637454986572, -0.07696375250816345, 0.04455560818314552, 0.12306436896324158, -0.015577075071632862, -0.12501870095729828, -0.011205309070646763, 0.004174976609647274, -0.08367712050676346, -0.055801987648010254, 0.03510885685682297, -0.04456790164113045, -0.03111230581998825, 0.13237875699996948, -0.08206918090581894, -0.0160333514213562, -0.0629974827170372, 0.03248774632811546, 0.04464073106646538, -0.08439529687166214, -0.07603032141923904], [0.15010756254196167, -0.07526588439941406, -0.021200604736804962, -0.09698528051376343, -0.05032315477728844, -0.010569540783762932, 0.02132408693432808, 0.10105881094932556, -0.11569566279649734, 0.05273671820759773, -0.05992359668016434, 0.17056190967559814, 0.3211559057235718, 0.0797455757856369, 0.05797216668725014, 0.10734614729881287, -0.025280848145484924, -0.007347538135945797, -0.026293477043509483, 0.11618522554636002, 0.009583552367985249, 0.03224952146410942, 0.3604238033294678, 0.06327104568481445, -0.0953793153166771, -0.05544913932681084, -0.023581957444548607, -0.09518690407276154, -0.06312009692192078, 0.11480005085468292, 0.02367621660232544, -0.04588395729660988, 0.07694950699806213, 0.03158010542392731, -0.1259593963623047, 0.084666907787323, -0.051999371498823166, 0.0694844052195549, 0.0390392541885376, 0.07434871047735214, 0.02115560509264469, 0.0078367805108428, -0.01832619495689869, 0.09045116603374481, -0.021433014422655106], [-0.07468344271183014, -0.03213167190551758, -0.19310897588729858, 0.02132505364716053, -0.19077607989311218, 0.020082753151655197, 0.02862331084907055, -0.07827544957399368, 0.0625896155834198, -0.13939480483531952, 0.02515709027647972, 0.05127338320016861, 0.21365272998809814, 0.07469121366739273, 0.02507113851606846, -0.010083682835102081, 0.0009349306928925216, -0.04279319941997528, 0.007104796357452869, -0.023280618712306023, -0.09369365870952606, 0.07100453972816467, -0.46957916021347046, -0.05975009500980377, -0.010250821709632874, -0.06184757500886917, -4.805699427379295e-05, 0.004957982338964939, 0.020897090435028076, 0.038263436406850815, -0.09040170907974243, 0.05793892964720726, 0.04559364169836044, -0.032151948660612106, 0.13822710514068604, -0.05912747606635094, -0.0908665806055069, 0.2124791145324707, 0.07008510828018188, -0.05083164572715759, -0.059494324028491974, 0.06927407532930374, 0.02907477505505085, -0.0665990561246872, -0.0033788520377129316], [0.09025580435991287, 0.04291010648012161, 0.10127238184213638, -0.0743052139878273, 0.1165567934513092, -0.0823080837726593, 0.062152691185474396, 0.10741022974252701, -0.1040617823600769, -0.0003320544201415032, 0.015553450211882591, 0.02570136822760105, 0.14310665428638458, -0.05291746184229851, 0.007481900509446859, -0.049386076629161835, -0.004228945821523666, -0.025837620720267296, -0.0014526104787364602, 0.07142562419176102, 0.05246724933385849, -0.011197775602340698, 0.21017375588417053, 0.09783141314983368, -0.13417121767997742, 0.10965213924646378, -0.07774874567985535, -0.09975562989711761, -0.021631693467497826, 0.012880523689091206, 0.04578670114278793, -0.09400779753923416, 0.05610865727066994, -0.0038288524374365807, -0.10092192143201828, 0.01073656976222992, 0.03236718475818634, -0.15710404515266418, 0.05942634493112564, -0.03392927721142769, 0.01483805850148201, 0.06703212857246399, -0.012744849547743797, -0.029494818300008774, -0.11161598563194275], [-0.011920916847884655, 0.016200866550207138, -0.08737371861934662, 0.08065531402826309, -0.14093440771102905, 0.31726890802383423, -0.04227403178811073, 0.0726643055677414, -0.017726996913552284, 0.012483851052820683, 0.0411795936524868, 0.007419213652610779, -0.026650389656424522, 0.15986129641532898, 0.08964848518371582, 0.018778910860419273, 0.049416739493608475, -0.006691667251288891, -0.07034417241811752, 0.034810129553079605, 0.0611654557287693, 0.023630185052752495, -0.004984119441360235, -0.3237030506134033, 0.08768359571695328, 0.07793392986059189, 0.07971981167793274, 0.06232272833585739, -0.02064434252679348, -0.09853807091712952, 0.05204400420188904, -0.04836122319102287, -0.09957174211740494, -0.02663087658584118, -0.0013449329417198896, 0.04568476974964142, -0.0012918174033984542, -0.053798262029886246, -0.005113839637488127, 0.004121989943087101, 0.06463021785020828, -0.05777491256594658, -0.0609152726829052, -0.06693162769079208, 0.13433866202831268], [-0.031248224899172783, 0.09017539024353027, -0.005546258296817541, 0.15694688260555267, 0.045078571885824203, 0.27127858996391296, -0.02639341913163662, -0.09969023615121841, 0.012170055881142616, -0.020282141864299774, -0.06603449583053589, -0.03200972452759743, -0.15903586149215698, 0.025015680119395256, 0.008609579876065254, -0.027423951774835587, 0.04665590450167656, 0.03288731351494789, -0.09884703904390335, 0.05067560821771622, 0.06856512278318405, 0.03811483830213547, -0.2541550397872925, -0.32272985577583313, 0.14940129220485687, 0.007027518004179001, -0.019498059526085854, 0.043604712933301926, -0.03287820890545845, 0.03884823992848396, 0.052624478936195374, 0.06176701560616493, -0.07631947845220566, -0.050263796001672745, -0.006754335016012192, 0.06941195577383041, 0.08850566297769547, -0.028384264558553696, -0.022170694544911385, 0.1138993501663208, 0.009466247633099556, -0.020078353583812714, -0.04874325916171074, -0.03882170096039772, 0.10718576610088348], [-0.00623144069686532, 0.0464499406516552, -0.037642624229192734, 0.2869437038898468, -0.07681460678577423, 0.29893937706947327, -0.13690559566020966, 0.006689360365271568, -0.01854134351015091, 0.0008853104081936181, 0.008851509541273117, 0.07119609415531158, 0.009160863235592842, 0.05513672158122063, 0.012813624925911427, -0.01358451135456562, -0.03614408150315285, 0.01457692589610815, 0.026274768635630608, -0.048579808324575424, 0.07929086685180664, 0.05145535245537758, -0.4704287350177765, -0.29136011004447937, 0.09048917889595032, -0.03213673084974289, 0.0218462273478508, -0.08222001791000366, 0.007976783439517021, 0.04503433778882027, 0.02120942808687687, -0.00872371532022953, 0.012510192580521107, 0.051642242819070816, 0.022522157058119774, -0.04287093132734299, 0.003038543276488781, 0.005012230947613716, 0.10348480194807053, -0.011366956867277622, -0.038354501128196716, 0.046430911868810654, 0.005565823521465063, 0.06360926479101181, 0.10851138830184937], [0.009427857585251331, 0.08260798454284668, -0.22271256148815155, 0.060820937156677246, -0.10235872864723206, 0.1683213710784912, -0.12321291863918304, -0.0137626426294446, 0.022695254534482956, 0.01815822720527649, 0.036208827048540115, 0.005286537576466799, 0.12061164528131485, 0.08572445064783096, 0.09321406483650208, 0.007301663048565388, 0.024418901652097702, 0.06582579761743546, 0.014893735758960247, -0.0137125039473176, 0.028283577412366867, 0.10034389048814774, -0.148060142993927, -0.1370416283607483, 0.004846582189202309, -0.013097823597490788, 0.24659134447574615, 0.05487741902470589, 0.19580480456352234, 0.01762334071099758, -0.05060701444745064, -0.0025641771499067545, -0.05629396066069603, 0.0029426703695207834, 0.025374839082360268, -0.01631038822233677, 0.00708024064078927, 0.0703384131193161, 0.006183916237205267, -0.004578927531838417, 3.244170511607081e-05, 0.007796416524797678, 0.007395235821604729, 0.036241598427295685, 0.035085007548332214], [-0.11093508452177048, 0.07189753651618958, -0.07318484783172607, 0.07774905860424042, -0.17080537974834442, -0.03300757706165314, -0.01361253671348095, -0.17709596455097198, 0.1261206716299057, -0.02346838265657425, 0.020422888919711113, 0.012275490909814835, -0.19008226692676544, 0.016875432804226875, 0.050330955535173416, -0.12865036725997925, -0.004925055429339409, -0.008619178086519241, 0.06562844663858414, -0.006117851007729769, -0.008155863732099533, 0.07677680253982544, -0.2201378494501114, 0.041829995810985565, 0.12444256991147995, -0.17821338772773743, 0.03139008209109306, 0.09090158343315125, 0.12752746045589447, 0.1259743720293045, -0.09388700127601624, -0.0324845165014267, -0.14003971219062805, 0.029236363247036934, 0.0024857560638338327, -0.046612951904535294, 0.11292727291584015, -0.012152004055678844, -0.060974594205617905, 0.007314953021705151, 0.056926798075437546, -0.10157055407762527, 0.048341263085603714, -0.009817272424697876, 0.04176066443324089], [0.0354544073343277, -0.02657303959131241, 0.15273720026016235, 0.008055582642555237, 0.061375658959150314, 0.3229207396507263, 0.11454381793737411, -0.009836437180638313, 0.0046656494960188866, 0.059922363609075546, -0.002894457196816802, -0.041487738490104675, -0.03276059404015541, 0.10326576977968216, -0.019762946292757988, 0.07965259253978729, 0.006504500284790993, -0.03156961128115654, -0.06976649910211563, 0.0669146254658699, -0.04669343680143356, -0.049746714532375336, 0.45518752932548523, -0.266554057598114, -0.06555458158254623, -0.15564322471618652, -0.060957908630371094, 0.10028718411922455, 0.01429297961294651, -0.20742221176624298, 0.04887959361076355, 0.03463092818856239, -0.08941885828971863, -0.05293654277920723, 0.05312018841505051, -0.013303257524967194, 0.07622303813695908, -0.019699832424521446, 0.0935434103012085, 0.12820668518543243, -0.029384179040789604, -0.053401604294776917, 0.018422361463308334, -0.06934227794408798, -0.23382143676280975], [0.12253537774085999, -0.04745408147573471, 0.14060501754283905, -0.03933537378907204, -0.03622947260737419, 0.03787263110280037, 0.04723195359110832, 0.10564220696687698, -0.028386717662215233, -0.026343226432800293, -0.03849764168262482, -0.038173090666532516, 0.0638493075966835, 0.06785524636507034, 0.04908183962106705, 0.045811645686626434, -0.04952802136540413, -0.008259092457592487, -0.1389641910791397, 0.11817570775747299, -0.02662559226155281, -0.10963764041662216, 0.6866227388381958, 0.03372781723737717, -0.11091554164886475, -0.006941613275557756, 0.13216532766819, 0.05480087175965309, -0.13339915871620178, -0.09908806532621384, 0.16939392685890198, -0.002547888085246086, 0.011696197092533112, -0.0504925511777401, 0.0437459871172905, 0.08668254315853119, -0.1070895716547966, -0.007823978550732136, 0.139968603849411, 0.09983831644058228, -0.08163842558860779, 0.08710025995969772, -0.08852721005678177, -0.0715043842792511, 0.03863894194364548], [-0.12531821429729462, 0.03104209527373314, -0.20117181539535522, 0.04699903354048729, -0.2012343853712082, -0.06198007985949516, -0.07105650007724762, 0.04701164364814758, -0.012015468440949917, -0.04041999951004982, -0.012253127992153168, 0.009111763909459114, -0.008261092938482761, 0.0044893305748701096, -0.06332609802484512, -0.04596903920173645, -0.007841359823942184, 0.035319238901138306, 0.059157852083444595, -0.002345222281292081, -0.030304472893476486, 0.0036465185694396496, -0.5373790860176086, 0.024867083877325058, 0.10448216646909714, 0.017727218568325043, 0.11891395598649979, 0.005261899903416634, 0.0022181326057761908, -0.004371221177279949, -0.03859054669737816, 0.008646581321954727, 0.05333413928747177, -0.07501715421676636, 0.05400171875953674, -0.042364250868558884, 0.009702577255666256, 0.0649019181728363, -0.02280239760875702, 0.023106997832655907, 0.037521008402109146, 0.021254686638712883, -0.021696968004107475, 0.10985222458839417, 0.062008991837501526], [0.06175335869193077, 0.04182480648159981, 0.15755103528499603, -0.1725703328847885, 0.11157604306936264, -0.2593875527381897, -0.03191991522908211, -0.021732062101364136, 0.035430584102869034, 0.007133808918297291, -0.017689649015665054, -0.09156350046396255, -0.2410098761320114, -0.06246473267674446, -0.1232813149690628, -0.020955605432391167, -0.002118486911058426, 0.04445138946175575, -0.02347586117684841, -0.013928421773016453, 0.062145769596099854, -0.02580001950263977, 0.21577733755111694, 0.3159880042076111, -0.037540603429079056, 0.08366113156080246, -0.10516045987606049, -0.0015382703859359026, -0.09215863794088364, 0.026082679629325867, -0.11536756902933121, -0.01258990541100502, -0.01037973165512085, -0.13775604963302612, -0.022654522210359573, 0.005143678281456232, 0.0897383913397789, -0.0347890667617321, -0.05683866888284683, 0.05670735612511635, 0.01981314830482006, 0.010156502015888691, 0.0164144616574049, -0.01298546139150858, 0.009026634506881237], [-0.11072863638401031, -0.014961469918489456, 0.11032436788082123, -0.11264891177415848, 0.20982664823532104, -0.2049665004014969, -0.006444806233048439, 0.049496520310640335, -0.014676620252430439, 0.1438220739364624, -0.041584741324186325, -0.16277728974819183, 0.0663439929485321, -0.20065084099769592, -0.02664390578866005, -0.058373041450977325, -0.0023965630680322647, 0.00484596099704504, -0.054521866142749786, -0.08523291349411011, -0.03505107760429382, 0.03076203726232052, -0.00468246266245842, 0.2916392683982849, -0.15737469494342804, 0.05052153766155243, 0.06364533305168152, -0.10411223769187927, -0.08146438002586365, 0.07224874943494797, 0.003988098818808794, -0.09812843054533005, 0.1308552473783493, 0.11172950267791748, 0.011405564844608307, -0.1251133680343628, 0.03523654118180275, -0.06547028571367264, -0.012410186231136322, -0.014917736873030663, -0.049694888293743134, -0.024135565385222435, 0.023975448682904243, -0.025517385452985764, 0.014120308682322502], [-0.08051063120365143, 0.016439136117696762, -0.08502479642629623, 0.1745269000530243, -0.06663786619901657, 0.3117968440055847, -0.07472024112939835, 0.10094256699085236, -0.034179870039224625, 0.11967277526855469, -0.03267215937376022, 0.14140985906124115, 0.24765737354755402, 0.05965206027030945, -0.03268647938966751, -0.011151337996125221, -0.02433587610721588, -0.01963428594172001, 0.009241476655006409, 0.04322533309459686, 0.005857447627931833, 0.023288805037736893, -0.44698086380958557, -0.3116080164909363, -0.07337373495101929, -0.003948365803807974, 0.0033992889802902937, 0.02941936068236828, 0.04747314751148224, 0.029302723705768585, -0.025628287345170975, -0.04886159300804138, 0.018680093809962273, 0.03490368649363518, -0.021081706508994102, -0.020762231200933456, -0.07783874869346619, 0.12341318279504776, 0.10123546421527863, -0.0902804285287857, 0.050090886652469635, 0.03639001026749611, -0.07606098055839539, -0.02641756646335125, 0.0936320573091507], [0.06197238340973854, -0.13056321442127228, 0.057544007897377014, -0.06925953179597855, -0.026678739115595818, -0.07658113539218903, 0.05063304677605629, -0.06845664232969284, -0.049836453050374985, -0.07604274898767471, 0.0350712351500988, 0.03829434514045715, 0.23293592035770416, 0.06420540809631348, 0.04534578695893288, 0.008724348619580269, 0.04623567685484886, -0.02118505910038948, 0.04786769300699234, 0.09239770472049713, 0.00784729141741991, -0.08606135100126266, 0.4981125593185425, 0.0747562050819397, -0.17439855635166168, -0.031170854344964027, -0.13014960289001465, 0.009928983636200428, -0.07547763735055923, -0.06788063049316406, -0.013468391261994839, 0.03601422160863876, -0.02436952106654644, 0.11122281104326248, -0.0007605053833685815, -0.0011164663592353463, -0.09098144620656967, 0.06429655849933624, 0.10808374732732773, 0.058006949722766876, -0.031771790236234665, 0.028405610471963882, -0.04027099907398224, -0.04291989281773567, -0.06520594656467438], [-0.003129327204078436, 0.04702143743634224, -0.0731910765171051, 0.154643714427948, -0.0950099304318428, 0.32913100719451904, 0.03507604822516441, 0.033761270344257355, -0.0012935377890244126, 0.01919545792043209, 0.03792426362633705, 0.0029479903168976307, -0.08857724815607071, 0.06554931402206421, 0.08976972103118896, 0.0021548052318394184, -0.10644698888063431, -0.019051257520914078, 0.11334981769323349, -0.10354876518249512, 0.01554369367659092, 0.12959501147270203, -0.4331125319004059, -0.28476011753082275, 0.03109823912382126, -0.0020101231057196856, -0.006371604278683662, -0.0665007159113884, 0.00898218434303999, 0.10944854468107224, 0.011772559024393559, 0.07305223494768143, 0.007220178376883268, 0.0052850572392344475, 0.035768404603004456, 0.012550764717161655, 0.06862805038690567, 0.03459572792053223, -0.007248172536492348, -0.11206913739442825, 0.024645138531923294, -0.07091349363327026, 0.07375971227884293, -0.0449734590947628, 0.09526178240776062], [-0.22995059192180634, 0.04511934146285057, 0.07810993492603302, 0.02383614331483841, 0.15581707656383514, 0.06868860870599747, 0.006530769169330597, -0.042821936309337616, 0.10303524136543274, -0.005621160846203566, 0.05871035158634186, -0.16333237290382385, -0.3063405454158783, -0.06370577216148376, -0.01329714898020029, -0.0699189156293869, 0.09552381932735443, -0.08777821809053421, 0.05527013912796974, -0.23612113296985626, 0.026310425251722336, 0.11428837478160858, -0.1422591209411621, -0.04993731528520584, 0.10370055586099625, -0.045905157923698425, 0.06896793842315674, 0.050896577537059784, -0.016624391078948975, 0.017434122040867805, 0.09289263933897018, 0.0035541474353522062, -0.08933412283658981, -0.06116616353392601, 0.12400390952825546, -0.08110164105892181, 0.13383696973323822, -0.09235216677188873, -0.07013645023107529, -0.10772623121738434, 0.0067024026066064835, 0.038068611174821854, -0.09141892939805984, 0.03106820397078991, 0.052823103964328766], [-0.049502111971378326, 0.12003635615110397, -0.07729112356901169, 0.027876337990164757, -0.030351296067237854, -0.19540072977542877, -0.141090989112854, 0.056249622255563736, -0.022533010691404343, 0.02237953618168831, -0.002263730624690652, -0.01400695089250803, -0.10984073579311371, -0.11693427711725235, -0.0013822506880387664, -0.07992732524871826, -0.004706628620624542, 0.0005021606339141726, -0.016640137881040573, -0.03608108311891556, 0.044958099722862244, 0.10648637264966965, -0.5787318348884583, 0.07532685995101929, 0.1756788194179535, -0.041118502616882324, 0.1122104674577713, -0.14959056675434113, 0.08699854463338852, 0.1433538794517517, 0.06614454090595245, -0.08665629476308823, 0.10052012652158737, 0.05805744603276253, -0.01641106605529785, -0.06636512279510498, 0.03596379980444908, -0.0830153077840805, -0.02243303693830967, -0.02328222244977951, 0.08797082304954529, 0.03651895746588707, -0.06903883814811707, -0.005290152505040169, 0.051513176411390305], [-0.16523821651935577, 0.03326200693845749, -0.000642797676846385, 0.13070224225521088, -0.005454459693282843, 0.0617661252617836, -0.05013637617230415, 0.019130809232592583, -0.04002290219068527, 0.014216428622603416, 0.004551667720079422, -0.08851021528244019, -0.31020334362983704, -0.08942563831806183, 0.04830528050661087, 0.043558087199926376, 0.007710454054176807, 0.03531592711806297, 0.04721902310848236, -0.0474177822470665, 0.08346167206764221, 0.0847155898809433, -0.3971831500530243, -0.10459408909082413, 0.15931154787540436, 0.039004404097795486, -0.01876305602490902, -0.038295138627290726, -0.05326613783836365, -0.0010065837996080518, 0.04132617264986038, 0.12566712498664856, 0.007843424566090107, -0.04448801651597023, 0.029598142951726913, 0.02449702098965645, 0.12586522102355957, -0.1305539906024933, 0.005683472845703363, 0.05477653816342354, 0.055829521268606186, -0.010643335059285164, 0.0379939042031765, 0.024079252034425735, 0.20765985548496246], [0.07028960436582565, -0.10027435421943665, 0.11081299185752869, -0.11096344143152237, 0.03323572129011154, -0.08970218896865845, 0.08066403120756149, 0.012183284386992455, 0.03783603385090828, -0.016001110896468163, 0.017177831381559372, -0.05920008197426796, 0.15611328184604645, -0.06260687857866287, 0.06250842660665512, 0.13444960117340088, 0.03539441153407097, 0.06266073137521744, -0.04355848208069801, 0.023200932890176773, -0.03535303846001625, -0.13332732021808624, 0.8051613569259644, -0.08434270322322845, -0.10392234474420547, 0.07742846757173538, -0.0341055653989315, 0.07984805852174759, -0.015898989513516426, -0.15303774178028107, -0.0009214942110702395, 0.04664250463247299, -0.047573886811733246, -0.047856882214546204, -0.03334939479827881, 0.021499747410416603, 0.04792249575257301, -0.03312421590089798, 0.1801418662071228, 0.018943356350064278, -0.09697230160236359, -0.06286134570837021, -0.009809636510908604, -0.01620611734688282, -0.0901137962937355], [-0.013943452388048172, -0.07469881325960159, -0.026054931804537773, -0.16841022670269012, 0.05482451617717743, -0.16566404700279236, 0.1342313438653946, 0.0048980205319821835, -0.05220234766602516, 0.075370192527771, -0.020838486030697823, 0.1582299917936325, 0.19645088911056519, -0.006133174989372492, -0.05256684496998787, 0.06168156862258911, -0.04240328073501587, -0.05881664901971817, 0.08674891293048859, 0.08648820966482162, -0.1255446970462799, -0.0006543154595419765, 0.20815743505954742, 0.2501560151576996, -0.2108561247587204, 0.07818105816841125, -0.19468475878238678, -0.04274603724479675, -0.002686701947823167, -0.014369207434356213, -0.10477211326360703, -0.06843902170658112, -0.06793007999658585, 2.2745158275938593e-05, -0.06013258174061775, -0.13481973111629486, -0.04221542924642563, 0.12088711559772491, 0.03421051427721977, 0.0353454053401947, -0.036985643208026886, 0.015375782735645771, 0.08104830980300903, -0.06389323621988297, -0.07005014270544052], [0.07106193155050278, 0.08751238882541656, -0.15326108038425446, 0.12612786889076233, -0.1942128837108612, 0.2359704226255417, 0.05970453470945358, 0.0475095771253109, -0.08069900423288345, -0.023177992552518845, 0.03897828236222267, 0.15067574381828308, 0.18864475190639496, 0.05664071440696716, -0.0287476759403944, 0.0648932233452797, 0.15533626079559326, 0.0728340819478035, 0.004579974338412285, -0.017640486359596252, -0.06320729106664658, -0.0021440964192152023, -0.37176206707954407, -0.21516989171504974, -0.044265080243349075, 0.05682537332177162, 0.026716861873865128, 0.02836710400879383, -0.01574593223631382, 0.05036125332117081, 0.06246734410524368, -0.05328420549631119, -0.014610960148274899, 0.024096323177218437, 0.029522830620408058, -0.05876729264855385, -0.11013080924749374, 0.1446305811405182, 0.056900475174188614, -0.06411752849817276, -0.06565123796463013, -0.030652061104774475, -0.02828766033053398, 0.054153576493263245, 0.017501190304756165], [0.08446722477674484, -0.0693458765745163, -0.07629942148923874, -0.07213546335697174, -0.07955437898635864, 0.16719049215316772, 0.05521117523312569, -0.10124236345291138, 0.054178159683942795, -0.028565194457769394, 0.10048828274011612, 0.21346500515937805, 0.24347582459449768, 0.08322807401418686, -0.03587689995765686, 0.03195057064294815, 0.015061432495713234, 0.010418135672807693, 0.014166681095957756, 0.09150553494691849, -0.05531727895140648, -0.037190694361925125, 0.2240913212299347, -0.24040541052818298, -0.13187932968139648, -0.158081516623497, -0.10278197377920151, 0.059202298521995544, -0.11375151574611664, 0.10443265736103058, -0.06790454685688019, -0.02906494401395321, -0.12136784195899963, 0.02840537391602993, -0.07880879193544388, -0.07178768515586853, 0.007922051474452019, 0.12627938389778137, 0.07853057980537415, -0.027965499088168144, -0.056821148842573166, 0.020419560372829437, -0.006339510437101126, 0.0036225744988769293, -0.017544839531183243], [-0.06309183686971664, -0.09293977171182632, 0.16656820476055145, -0.03555520623922348, 0.18612661957740784, 0.23052360117435455, 0.15077535808086395, -0.16887988150119781, 0.020442791283130646, -0.10751485824584961, -0.045152634382247925, -0.0888856053352356, -0.023032329976558685, -0.04806158319115639, 0.024621378630399704, -0.013034289702773094, 0.10405001789331436, 0.09591558575630188, -0.07121608406305313, -0.080587238073349, -0.02878948487341404, -0.039037760347127914, -0.0018378851236775517, -0.21998785436153412, 0.05627007409930229, 0.004079260863363743, -0.062138643115758896, 0.03861247003078461, 0.08915901929140091, -0.04723355546593666, -0.07974269986152649, -0.027634480968117714, 0.015539294108748436, -0.05976133048534393, 0.01713307946920395, 0.05144856497645378, 0.004993820562958717, -0.0023805564269423485, -0.17307566106319427, 0.024732742458581924, -0.08615782111883163, 0.013241785578429699, 0.14623385667800903, 0.0113993464037776, -0.09379972517490387], [0.15999752283096313, 0.07556064426898956, -0.02678152360022068, 0.0005768565461039543, -0.10805445164442062, -0.19511374831199646, 0.022377479821443558, 0.047567885369062424, -0.018591392785310745, -0.05308809503912926, -0.013803668320178986, 0.08218948543071747, 0.3697517216205597, -0.018443692475557327, 0.0337546169757843, -0.02416473999619484, 0.02017323486506939, -0.06618672609329224, 0.06459397822618484, 0.11087141931056976, -0.03709283471107483, 0.01368063222616911, -0.15403515100479126, 0.25273337960243225, -0.07698395848274231, -0.06041485071182251, 0.02932550571858883, -0.07210494577884674, 0.04811669886112213, 0.1399010270833969, -0.28212225437164307, -0.0036291233263909817, -0.03315531089901924, 0.1281408816576004, -0.20247198641300201, -0.01671041175723076, -0.027130553498864174, 0.18939732015132904, -0.07176653295755386, -0.11736468970775604, 0.03533961623907089, 0.05360770225524902, -0.03015620820224285, 0.025399766862392426, -0.0456937700510025], [-0.10108979791402817, 0.013133625499904156, 0.058275021612644196, 0.04291704297065735, 0.10190297663211823, 0.08017018437385559, 0.010633428581058979, -0.03342359513044357, -0.019118495285511017, -0.025027060881257057, 0.0175020769238472, -0.07546411454677582, -0.39836642146110535, -0.08450190722942352, -0.029139602556824684, -0.038314200937747955, -0.0016239493852481246, -0.0006575040169991553, 0.050244830548763275, -0.14576898515224457, 0.06656834483146667, 0.06087379530072212, -0.3558105528354645, -0.011518251150846481, 0.18263687193393707, 0.08048751205205917, -0.045674875378608704, -0.015972290188074112, 0.10886535793542862, 0.06691788882017136, -0.08669603615999222, 0.003664543619379401, 0.08446963876485825, -0.07009436190128326, 0.04366999864578247, 0.009686756879091263, 0.08207161724567413, -0.07769233733415604, -0.011695672757923603, -0.07651366293430328, 0.046778660267591476, 0.06328041851520538, -0.03523179888725281, 0.06762886792421341, 0.1301232874393463], [-0.012143107131123543, 0.07632332295179367, -0.15365342795848846, 0.01211775466799736, -0.30666399002075195, -0.005938217043876648, -0.10200072824954987, -0.1651761829853058, 0.04722761735320091, 0.018993034958839417, 0.03111349791288376, 0.0686650201678276, -0.0674983486533165, 0.07401115447282791, 0.07189356535673141, 0.007406709715723991, 0.01551290974020958, 0.09907465428113937, -0.11579801887273788, -0.07064665853977203, 0.06488588452339172, -0.03076266124844551, 0.15509706735610962, 0.06334859132766724, 0.07759957760572433, -0.010974036529660225, 0.05265871062874794, -0.015242173336446285, 0.08936279267072678, -0.07342946529388428, -0.0022982079535722733, -0.10903110355138779, -0.008070516400039196, 0.0804504007101059, 0.09019146114587784, 0.019687416031956673, 0.07693023234605789, -0.050771284848451614, 0.004763565957546234, 0.05776580423116684, 0.01571333408355713, -0.07734470814466476, -0.010156258940696716, 0.06693235784769058, 0.05533545836806297], [0.09833032637834549, -0.04475637897849083, 0.08880909532308578, -0.1567939817905426, 0.028951220214366913, -0.1736922264099121, -0.04353715851902962, 0.1363661289215088, -0.04515432193875313, -0.0013669958570972085, -0.004419566132128239, -0.1432701051235199, -0.09817440062761307, -0.04572686180472374, 0.05692313611507416, 0.03945641219615936, 0.03697822242975235, 0.10249718278646469, -0.022689349949359894, 0.04792439565062523, 0.05969952791929245, -0.06155284866690636, 0.6243510842323303, 0.22915104031562805, 0.03412934020161629, 0.05013490468263626, 0.04228587448596954, -0.03041546419262886, -0.16331738233566284, -0.07592908293008804, 0.09655323624610901, -0.01889687590301037, -0.05450986325740814, 0.0027854994405061007, 0.06490948796272278, 0.00713327107951045, -0.0453355573117733, -0.07079848647117615, 0.09963368624448776, 0.06428959220647812, -0.004237259738147259, 0.033775828778743744, 0.036131784319877625, 0.038703516125679016, -0.0857170894742012], [-0.014894728548824787, -0.0525883324444294, 0.101007841527462, 0.13378483057022095, 0.20835967361927032, 0.450695663690567, 0.012242342345416546, -0.02990838512778282, -0.0024631270207464695, 0.026977237313985825, 0.022826720029115677, -0.05749371275305748, -0.12975917756557465, 0.06632831692695618, 0.046568192541599274, 0.05081668496131897, 0.10778709501028061, -0.038506053388118744, -0.06714045256376266, -0.04761970415711403, 0.060035109519958496, -0.0648568794131279, 0.078031525015831, -0.33267495036125183, -0.00784082431346178, 0.09049919247627258, -0.03459258750081062, 0.021410902962088585, 0.049890074878931046, -0.07600406557321548, 0.07412691414356232, 0.06850381195545197, -0.0021329273004084826, 0.068345807492733, 0.07274118065834045, -0.005751022603362799, 0.05206665024161339, -0.017006540670990944, 0.03719934821128845, 0.09597018361091614, -0.01911759190261364, 0.011235618032515049, -0.0005627505015581846, -0.06775225698947906, -0.12475215643644333], [-0.00410846620798111, -0.08244046568870544, 0.046392135322093964, -0.23645859956741333, 0.1127123087644577, -0.265249639749527, 0.012727201916277409, 0.06508154422044754, 0.015558567829430103, -0.039062194526195526, -0.026303252205252647, -0.006156272254884243, 0.02511821687221527, -0.14476433396339417, -0.051300399005413055, 0.04291800409555435, -0.023944780230522156, -0.02901226095855236, -0.08191177994012833, 0.0437997467815876, -0.020274676382541656, 0.07355572283267975, 0.2606648802757263, 0.3204083740711212, -0.08396726846694946, -0.03624081239104271, 0.0425315760076046, -0.04247378185391426, -0.024112336337566376, 0.04727994650602341, 0.011687410064041615, -0.0037509032990783453, 0.09447268396615982, -0.017568184062838554, -0.05048584192991257, -0.042819611728191376, -0.021389644593000412, -0.0012715591583400965, 0.05773288384079933, -0.05169980600476265, -0.029011664912104607, 0.054519038647413254, 0.06607707589864731, -0.06739744544029236, -0.011220165528357029], [-0.05005136504769325, 0.01765483431518078, -0.13503392040729523, 0.1801721751689911, -0.1531173586845398, 0.21597181260585785, -0.053998760879039764, -0.009161034598946571, 0.034577660262584686, -0.0006619737832807004, 0.016357682645320892, 0.1300499588251114, 0.27072450518608093, 0.07767482846975327, -0.018656179308891296, 0.0570208914577961, -0.0039911731146276, -0.00824474636465311, -0.03921302407979965, 0.1092439740896225, -0.0742497444152832, -0.002225128235295415, -0.5147011876106262, -0.20891137421131134, -0.0775841698050499, -0.020820852369070053, 0.04481775313615799, -0.12530477344989777, 0.045607056468725204, 0.006801437586545944, -0.07000194489955902, -0.06544362008571625, 0.04753052815794945, 0.03825025632977486, 0.04848567396402359, 0.016865279525518417, -0.07382375001907349, 0.09169494360685349, 0.09092257916927338, -0.019100528210401535, 0.03953566774725914, 0.04612896963953972, -0.09525220841169357, 0.02672841213643551, -0.0057770246639847755], [-0.04458899050951004, -0.0630069375038147, 0.20758627355098724, 0.1163463294506073, 0.15695501863956451, 0.32992425560951233, 0.11988715827465057, 0.10270311683416367, -0.03888530284166336, 0.0365949347615242, -0.023127777501940727, 0.0562119297683239, 0.07116858661174774, 0.08440385013818741, 0.03394706919789314, 0.05016641691327095, 0.05132949724793434, 0.025208167731761932, -0.09695485979318619, 0.07180523127317429, -0.04878905043005943, -0.07197330892086029, 0.08706755191087723, -0.42894068360328674, -0.0834730714559555, 0.15219780802726746, -0.03513772785663605, 0.024194464087486267, -0.011091787368059158, -0.06380030512809753, 0.09889286756515503, 0.15183612704277039, 0.04239751771092415, -0.02728518843650818, 0.015292195603251457, 0.0012383767170831561, 0.0008274394203908741, -0.10314931720495224, 0.023047752678394318, 0.07515154033899307, 0.0186128169298172, -0.04615121707320213, 0.0046872035600245, -0.03916482999920845, -0.08471241593360901], [-0.14066621661186218, -0.005424294155091047, 0.0036235065199434757, 0.07954638451337814, -0.006693875417113304, 0.1360105723142624, -0.003864201018586755, -0.02552851103246212, 0.023585153743624687, 0.019154855981469154, 0.008001784794032574, -0.05958851799368858, -0.32712486386299133, 0.023405425250530243, 0.012523705139756203, 0.02496553771197796, 0.033167317509651184, 0.054929643869400024, -0.10867217928171158, -0.1312447190284729, 0.027724837884306908, 0.008208786137402058, -0.14233477413654327, -0.1563204675912857, 0.027127757668495178, 0.06521020084619522, -0.05290531739592552, 0.06946925073862076, -0.053384702652692795, 0.06852105259895325, -0.05712622404098511, 0.032094936817884445, -0.035730991512537, -0.03751223161816597, 0.05418573319911957, -0.013128918595612049, 0.039190519601106644, -0.1027444526553154, -0.038490377366542816, 0.03451048210263252, 0.00986086018383503, 0.01931210607290268, 0.10353084653615952, -0.12454325705766678, 0.12675707042217255], [0.11565318703651428, 0.03606529161334038, -0.11226712912321091, 0.09342902153730392, -0.08572544157505035, 0.08658521622419357, 0.11065130680799484, -0.0618441104888916, -0.059737544506788254, -0.04571385681629181, 0.02782604470849037, 0.07485522329807281, 0.36636635661125183, 0.035660408437252045, 0.04475970193743706, -0.005290387198328972, -0.037370093166828156, -0.07206680625677109, -0.05277876928448677, 0.11240662634372711, -0.06225721910595894, -0.004026377107948065, 0.34543484449386597, -0.021640829741954803, -0.14309631288051605, -0.10086368024349213, -0.0014153368538245559, 0.06164615973830223, -0.021369559690356255, -0.06576107442378998, -0.010454962961375713, 0.05661648139357567, -0.1210804209113121, 0.05314168334007263, -0.19102764129638672, 0.02840965986251831, -0.03877212479710579, 0.10539402067661285, -0.020574357360601425, -0.0030566726345568895, -0.014346451498568058, -0.0083977235481143, -0.016873463988304138, -0.027431616559624672, 0.026601603254675865], [-0.07961162179708481, 0.11156798154115677, -0.0022765290923416615, 0.11732175946235657, -0.01563441753387451, 0.07206084579229355, 0.03386913612484932, -0.07745005935430527, -0.06050586327910423, -0.037155747413635254, -0.03399499133229256, -0.13461458683013916, -0.36705684661865234, -0.08311092108488083, 0.028329012915492058, -0.08012057840824127, -0.03300957381725311, 0.06229131296277046, -0.02084929309785366, 0.047141171991825104, 0.09240937978029251, 0.07142040878534317, -0.2249780297279358, -0.11760944873094559, 0.15737712383270264, -0.11805083602666855, 0.03900441154837608, 0.09050507843494415, -0.03421452268958092, -0.02697199396789074, 0.023615995422005653, 0.07317182421684265, -0.03734521195292473, -0.09958851337432861, 0.058807373046875, 0.14563602209091187, -0.015118030831217766, -0.13203631341457367, 0.08488012850284576, 0.12521503865718842, 0.0004228500183671713, -0.024217380210757256, 0.05310223996639252, -0.010749797336757183, 0.0949646383523941], [-0.0382218100130558, 0.12300030142068863, 0.07339116185903549, 0.1053888276219368, -0.008692375384271145, 0.17776621878147125, -0.002965471474453807, -0.07049228250980377, 0.05988261103630066, -0.03677794709801674, 0.08946558088064194, -0.14008823037147522, -0.2140621840953827, -0.03336244449019432, -0.03647162765264511, -0.0448899008333683, 0.048721861094236374, 0.04959918186068535, -0.03910768777132034, -0.07070981711149216, 0.021114032715559006, 0.01794114150106907, 0.020458349958062172, -0.17301006615161896, 0.0835065022110939, 0.05259738489985466, 0.029043620452284813, 0.09767308086156845, 0.2147274762392044, -0.10293751955032349, 0.0672173798084259, 0.12480294704437256, -0.0691763386130333, -0.11698555946350098, 0.06402665376663208, -0.0648920089006424, 0.11458712071180344, -0.020266342908143997, -0.05650654435157776, -0.05610901862382889, -0.007426286581903696, -0.04567572847008705, 0.0799841433763504, -0.05428752675652504, 0.030587375164031982], [-0.055647991597652435, 0.02455114759504795, 0.03765702247619629, -0.17504669725894928, 0.1114552766084671, -0.27260878682136536, 0.0011841243831440806, -0.0032278699800372124, 0.0003070513776037842, 0.056848447769880295, -0.03654768317937851, -0.023802384734153748, -0.1831362247467041, -0.03444242104887962, -0.027242541313171387, -0.09453893452882767, -0.06354513764381409, 0.038070790469646454, 0.08946841210126877, -0.06305178999900818, -0.06627316772937775, -0.07314205169677734, 0.2845647931098938, 0.3536364734172821, -0.01475597731769085, -0.0012905721087008715, -0.09727683663368225, -0.007266526110470295, -0.12625622749328613, -0.005948288831859827, -0.05352478474378586, -0.039695341140031815, 0.059807758778333664, -0.05177581310272217, -0.04937475919723511, 0.015628637745976448, -0.08123990148305893, -0.12306683510541916, -0.07942316681146622, 0.07565990090370178, -0.04158293455839157, 0.007580172270536423, -0.030542168766260147, -0.0010055042803287506, -0.06823106855154037], [-0.09734216332435608, 0.03630635142326355, -0.03827865049242973, 0.1321622133255005, 0.20656782388687134, 0.16855214536190033, 0.0415765680372715, -0.020798832178115845, 0.0482412725687027, 0.0076847076416015625, 0.06993871182203293, -0.06762479990720749, -0.2150934636592865, -0.0034969812259078026, -0.008834993466734886, -0.03316987678408623, 0.019563348963856697, -0.031064292415976524, 0.00026997411623597145, -0.07627765834331512, 0.0655573159456253, 0.05847330391407013, -0.24054279923439026, -0.17206208407878876, 0.10918428003787994, -0.048409245908260345, 0.07154561579227448, -0.026178933680057526, 0.00770499836653471, -0.04157913476228714, 0.05198418349027634, 0.02449113503098488, -0.06962975859642029, -0.0052876705303788185, 0.06796710938215256, -0.03743322193622589, 0.15161769092082977, -0.09841541945934296, -0.043541762977838516, -0.005235864780843258, 0.07167462259531021, 0.03479733690619469, 0.00639729667454958, 0.0058729387819767, 0.13593581318855286], [0.03286109119653702, 0.07625576853752136, -0.05138767883181572, 0.08609703183174133, -0.10881455987691879, 0.2976798415184021, -0.053032852709293365, 0.019443433731794357, 0.040578391402959824, -0.06806620955467224, 0.08536216616630554, 0.06657597422599792, 0.07388556003570557, 0.19878919422626495, 0.08697839081287384, 0.044659484177827835, 0.046416353434324265, -0.07244227081537247, -0.08005906641483307, 0.029689811170101166, -0.07389779388904572, -0.08240889012813568, 0.04305063188076019, -0.31887078285217285, -0.0030989316292107105, 0.030410708859562874, -0.06960741430521011, 0.05676884949207306, 0.04253445193171501, -0.08988643437623978, 0.027683785185217857, 0.025095956400036812, -0.009621328674256802, 0.014657270163297653, 0.06455312669277191, 0.005617082584649324, 0.08213150501251221, 0.03878774866461754, 0.12064795941114426, -0.01805202290415764, -0.0539112389087677, 0.15451127290725708, 0.06832278519868851, -0.037577103823423386, 0.14106839895248413], [0.14470213651657104, -0.02892824448645115, 0.039742786437273026, -0.1620786339044571, -0.0817125141620636, -0.06461441516876221, 0.07616692781448364, 0.011306789703667164, 0.04279026761651039, 0.03247368708252907, -0.03765902668237686, -0.03866899758577347, 0.06038132309913635, 0.03791442885994911, 0.02091633342206478, 0.0795815959572792, 0.07991398125886917, 0.023965762928128242, -0.03309432417154312, 0.10418517142534256, -0.041206564754247665, -0.15354135632514954, 0.7609621286392212, 0.11805509030818939, -0.06528885662555695, -0.06446347385644913, 0.09969032555818558, 0.020915113389492035, -0.07715622335672379, -0.11277396231889725, 0.1498897522687912, 0.017645947635173798, 0.021395327523350716, 0.04027722775936127, 0.14800666272640228, -0.0076381792314350605, -0.10764963924884796, -0.03932654857635498, 0.2207566201686859, 0.08687286078929901, 0.019226670265197754, 0.03848547860980034, -0.012593153864145279, -0.06355628371238708, -0.012898826040327549], [-0.05117031931877136, -0.009165281429886818, -0.14751450717449188, 0.0633578896522522, -0.10997670143842697, 0.04976176097989082, 0.03402083367109299, -0.07023478299379349, 0.05688445270061493, 0.0008743575308471918, 0.0881897509098053, 0.17447544634342194, 0.25817999243736267, 0.064393550157547, 0.020462647080421448, -0.06936246156692505, 0.055845413357019424, -0.0003821142890956253, 0.04308053478598595, -0.011208642274141312, -0.12568193674087524, -0.04224051535129547, -0.3915967047214508, -0.07254140079021454, -0.11621508002281189, -0.005813191644847393, -0.09468649327754974, 0.053033970296382904, 0.025745177641510963, 0.008761432021856308, -0.13599041104316711, -0.004831720143556595, -0.08881914615631104, 0.06346898525953293, 0.027971018105745316, -0.09502781182527542, -0.11780710518360138, 0.15048521757125854, -0.04371550306677818, -0.04670447111129761, -0.027677910402417183, 0.06082632392644882, -0.005696413107216358, -0.033227305859327316, 0.04408961534500122], [0.09733506292104721, -0.11916123330593109, -0.03929115831851959, -0.09440387040376663, -0.05611436441540718, -0.14280566573143005, 0.050901468843221664, -0.0411614254117012, 0.04260393977165222, -0.05680376663804054, -0.039923395961523056, 0.020051920786499977, 0.09996377676725388, 0.06392696499824524, 0.03824043646454811, 0.004481041803956032, -0.030353641137480736, 0.039249520748853683, -0.08607907593250275, 0.08874685317277908, 0.017000233754515648, -0.057350948452949524, 0.7940494418144226, 0.08665607869625092, -0.24732494354248047, -0.07943670451641083, 0.11508140712976456, 0.09870810806751251, -0.12931221723556519, -0.1783309280872345, 0.04452533647418022, 0.07159557193517685, -0.10009205341339111, -0.009953922592103481, -0.014116673730313778, 0.003164494875818491, -0.07436176389455795, 0.026245377957820892, 0.09071072936058044, -0.03918810933828354, -0.11850282549858093, 0.07571107894182205, 0.02247897908091545, 0.06037967652082443, -0.07736674696207047], [0.12143222242593765, 0.005713406950235367, -0.13630980253219604, 0.14040115475654602, -0.2287495732307434, 0.3185969591140747, -0.045206811279058456, 0.11157462745904922, -0.042680516839027405, -0.00993217620998621, 0.043875738978385925, 0.1588229238986969, 0.08070633560419083, 0.19476884603500366, 0.11404414474964142, 0.047818370163440704, -0.06700438261032104, 0.003636622801423073, -0.08686631917953491, 0.17375588417053223, -0.01597924903035164, 0.03115289844572544, 0.04037352651357651, -0.4618387222290039, 0.06654215604066849, -0.05360061675310135, -0.09385453909635544, -0.020990215241909027, 0.06282417476177216, -0.06409647315740585, 0.19189424812793732, -0.010541683994233608, 0.026655634865164757, -0.025335850194096565, 0.05463487282395363, 0.11389295756816864, -0.07393962889909744, -0.15767110884189606, 0.1512327492237091, 0.1705332100391388, 0.020993323996663094, 0.01858232170343399, -0.056379370391368866, 0.013736184686422348, -0.06395483016967773], [-0.052773188799619675, -0.0553460456430912, 0.07350287586450577, -0.134370356798172, 0.17260652780532837, -0.016059165820479393, 0.12258880585432053, 0.031123563647270203, 0.049969833344221115, -0.050501417368650436, -0.021944815292954445, -0.12703806161880493, -0.08577726781368256, 0.003624996868893504, 0.05927210673689842, 0.033868178725242615, -0.03652177006006241, 0.07050858438014984, -0.06275025010108948, -0.05261543020606041, -0.029302742332220078, -0.04153011366724968, 0.5314556360244751, -0.03830283135175705, -0.012936449609696865, -0.10393041372299194, -0.07726476341485977, 0.13912421464920044, -0.06247832626104355, -0.19680918753147125, -0.038702525198459625, 0.07469575852155685, -0.07762589305639267, -0.13672976195812225, 0.03992819786071777, 0.030223576352000237, 0.03419658914208412, -0.11603181064128876, 0.07470069825649261, 0.11518839001655579, 0.03276532515883446, -0.015110165812075138, 0.052762072533369064, -0.030363602563738823, -0.07530638575553894], [-0.0850270688533783, -0.0028491902630776167, -0.003979613538831472, 0.11181393265724182, 0.13290603458881378, 0.12124525755643845, -0.08143884688615799, 0.0008692844421602786, 0.0635192021727562, 0.028230231255292892, 0.031062152236700058, -0.12376713007688522, -0.2775469422340393, 0.020592305809259415, -0.011626248247921467, 0.011460890993475914, 0.08401767909526825, 0.055000316351652145, 0.04702390357851982, -0.13999199867248535, 0.15246441960334778, -0.007865655235946178, -0.1348140686750412, -0.14150312542915344, 0.17512714862823486, 0.023122811689972878, 0.11318539828062057, 0.023335594683885574, -0.04773671552538872, 0.004430741537362337, 0.05995159596204758, 0.07833265513181686, -0.002397725358605385, -0.046671316027641296, -0.02040533348917961, 0.046350687742233276, 0.122214175760746, -0.11752855777740479, -0.05460820719599724, 0.03554755821824074, -0.04786991700530052, -0.03674579784274101, 0.03138943761587143, -0.050428081303834915, 0.07739689201116562], [-0.04584284871816635, 0.07237021625041962, 0.038005001842975616, 0.16556432843208313, -0.0369863286614418, 0.16957665979862213, 0.02163838781416416, -0.03544700890779495, -0.022827835753560066, 0.04801001772284508, -0.00595168536528945, -0.03574936464428902, -0.09738893061876297, -0.03476017713546753, -0.007595887407660484, 0.003067341633141041, -0.00021239600027911365, 0.018812771886587143, 0.017124811187386513, -0.1375253051519394, 0.0027763054240494967, 0.06603749841451645, -0.7710450887680054, -0.14906378090381622, 0.16116318106651306, 0.05749982222914696, -0.017237188294529915, -0.10712429136037827, 0.16471882164478302, 0.10277168452739716, -0.0546225942671299, -0.02898753061890602, 0.0936916247010231, 0.033857304602861404, -0.0009557126322761178, -0.0721912831068039, 0.0966285914182663, 0.005137001629918814, -0.10918013751506805, 0.007949483580887318, 0.048589397221803665, 0.02613947167992592, -0.005563385784626007, 0.0917699784040451, 0.07118192315101624], [0.04256073012948036, 0.008231629617512226, -0.026156391948461533, 0.11448792368173599, -0.10563065856695175, 0.11559177935123444, -0.044883955270051956, 0.09769045561552048, -0.08004070818424225, 0.013256693258881569, 0.037238504737615585, 0.11171399801969528, 0.08730417490005493, -0.0014618884306401014, -0.12510086596012115, -0.12459214776754379, -0.01434362307190895, 0.03825363889336586, 0.015145706944167614, 0.11209864914417267, -0.029987268149852753, 0.11797221750020981, -0.6625103950500488, -0.14358371496200562, 0.06582179665565491, 0.004152501001954079, 0.024698862805962563, -0.12888121604919434, 0.13259629905223846, 0.06532394140958786, -0.049747735261917114, -0.0880732387304306, 0.09692208468914032, 0.1934019923210144, -0.0032685722690075636, 0.08340821415185928, -0.017379270866513252, 0.047795116901397705, -0.04266096279025078, 0.01970096118748188, -0.004784449934959412, 0.06349949538707733, -0.03950164094567299, 0.06676988303661346, 0.12291674315929413], [0.023562384769320488, 0.01770656369626522, -0.003693500068038702, -0.03693901374936104, -0.022058771923184395, -0.41538265347480774, 0.012458141893148422, 0.018183456733822823, -0.0027034555096179247, -0.12365878373384476, 0.01979663409292698, -0.08522114157676697, -0.2581561505794525, -0.17119187116622925, -0.022403284907341003, -0.012638049200177193, -0.030268488451838493, -0.06302166730165482, -0.09464358538389206, 0.043165385723114014, 0.08119971305131912, 0.0461728572845459, 0.30187177658081055, 0.4450322687625885, 0.17759472131729126, -0.1345130354166031, 0.03588544949889183, -0.03343226760625839, 0.15554966032505035, 0.040422532707452774, 0.025201549753546715, -0.013619787991046906, 0.08257491886615753, -0.04778106138110161, -0.05737617239356041, -0.007501991931349039, 0.0498928502202034, -0.17603574693202972, -0.09943672269582748, 0.10272251069545746, 0.04149036481976509, -0.03868475556373596, 0.09872700273990631, 0.046743061393499374, 0.06741712987422943], [-0.05376522243022919, 0.03308607637882233, 0.024101313203573227, 0.1427694410085678, -0.02599501796066761, 0.039772868156433105, -0.16414839029312134, 0.15940333902835846, 0.015492635779082775, 0.08927879482507706, 0.014010915532708168, -0.03725729510188103, -0.25335970520973206, -0.024330517277121544, 0.011428345926105976, -0.02265402302145958, -0.007722178474068642, -0.030964283272624016, 0.03652738034725189, -0.07509824633598328, -0.048971716314554214, 0.12515988945960999, -0.47740694880485535, -0.07925837486982346, 0.14266745746135712, 0.005312656052410603, 0.04619711637496948, -0.06704501062631607, 0.0007375971763394773, 0.08933541923761368, -0.0038346226792782545, -0.13700902462005615, 0.06504128128290176, 0.021283337846398354, 0.07355844229459763, 0.010012566111981869, 0.036688029766082764, -0.11243526637554169, 0.06528505682945251, 0.005578334908932447, 0.07884225249290466, 0.0428483821451664, -0.03955969214439392, -0.014402407221496105, 0.10003627091646194], [-0.034702055156230927, 0.057027898728847504, 0.06010349467396736, 0.14884482324123383, -0.04400264844298363, 0.42906084656715393, 0.018904801458120346, -0.04854424670338631, -0.009452169761061668, -0.04071065038442612, 0.021179744973778725, -0.11622928828001022, -0.047980889678001404, 0.1236242949962616, 0.03431390970945358, 0.060914378613233566, 0.013907939195632935, 0.050257910043001175, 0.07972032576799393, 0.03486555442214012, 0.06254544109106064, 0.08357950299978256, -0.09170398861169815, -0.2981555759906769, 0.0753517672419548, -0.13155728578567505, -0.009428530931472778, 0.03484322130680084, 0.019648222252726555, -0.0935097262263298, 0.07268416881561279, -0.0122676407918334, -0.1296129822731018, -0.020255975425243378, -0.06926341354846954, -0.02067055180668831, 0.12336057424545288, -0.11677242815494537, -0.04769536107778549, 0.08723639696836472, -0.04897226765751839, -0.0001784312626114115, -0.022939659655094147, 0.053211405873298645, 0.044892847537994385], 